{"learner":{"attributes":{},"feature_names":["customerID","gender","SeniorCitizen","Partner","Dependents","tenure","PhoneService","MultipleLines","InternetService","OnlineSecurity","OnlineBackup","DeviceProtection","TechSupport","StreamingTV","StreamingMovies","Contract","PaperlessBilling","PaymentMethod","MonthlyCharges","TotalCharges"],"feature_types":["float","float","float","float","float","float","float","float","float","float","float","float","float","float","float","float","float","float","float","float"],"gradient_booster":{"model":{"gbtree_model_param":{"num_parallel_tree":"1","num_trees":"500"},"iteration_indptr":[0,1,2,3,4,5,6,7,8,9,10,11,12,13,14,15,16,17,18,19,20,21,22,23,24,25,26,27,28,29,30,31,32,33,34,35,36,37,38,39,40,41,42,43,44,45,46,47,48,49,50,51,52,53,54,55,56,57,58,59,60,61,62,63,64,65,66,67,68,69,70,71,72,73,74,75,76,77,78,79,80,81,82,83,84,85,86,87,88,89,90,91,92,93,94,95,96,97,98,99,100,101,102,103,104,105,106,107,108,109,110,111,112,113,114,115,116,117,118,119,120,121,122,123,124,125,126,127,128,129,130,131,132,133,134,135,136,137,138,139,140,141,142,143,144,145,146,147,148,149,150,151,152,153,154,155,156,157,158,159,160,161,162,163,164,165,166,167,168,169,170,171,172,173,174,175,176,177,178,179,180,181,182,183,184,185,186,187,188,189,190,191,192,193,194,195,196,197,198,199,200,201,202,203,204,205,206,207,208,209,210,211,212,213,214,215,216,217,218,219,220,221,222,223,224,225,226,227,228,229,230,231,232,233,234,235,236,237,238,239,240,241,242,243,244,245,246,247,248,249,250,251,252,253,254,255,256,257,258,259,260,261,262,263,264,265,266,267,268,269,270,271,272,273,274,275,276,277,278,279,280,281,282,283,284,285,286,287,288,289,290,291,292,293,294,295,296,297,298,299,300,301,302,303,304,305,306,307,308,309,310,311,312,313,314,315,316,317,318,319,320,321,322,323,324,325,326,327,328,329,330,331,332,333,334,335,336,337,338,339,340,341,342,343,344,345,346,347,348,349,350,351,352,353,354,355,356,357,358,359,360,361,362,363,364,365,366,367,368,369,370,371,372,373,374,375,376,377,378,379,380,381,382,383,384,385,386,387,388,389,390,391,392,393,394,395,396,397,398,399,400,401,402,403,404,405,406,407,408,409,410,411,412,413,414,415,416,417,418,419,420,421,422,423,424,425,426,427,428,429,430,431,432,433,434,435,436,437,438,439,440,441,442,443,444,445,446,447,448,449,450,451,452,453,454,455,456,457,458,459,460,461,462,463,464,465,466,467,468,469,470,471,472,473,474,475,476,477,478,479,480,481,482,483,484,485,486,487,488,489,490,491,492,493,494,495,496,497,498,499,500],"tree_info":[0,0,0,0,0,0,0,0,0,0,0,0,0,0,0,0,0,0,0,0,0,0,0,0,0,0,0,0,0,0,0,0,0,0,0,0,0,0,0,0,0,0,0,0,0,0,0,0,0,0,0,0,0,0,0,0,0,0,0,0,0,0,0,0,0,0,0,0,0,0,0,0,0,0,0,0,0,0,0,0,0,0,0,0,0,0,0,0,0,0,0,0,0,0,0,0,0,0,0,0,0,0,0,0,0,0,0,0,0,0,0,0,0,0,0,0,0,0,0,0,0,0,0,0,0,0,0,0,0,0,0,0,0,0,0,0,0,0,0,0,0,0,0,0,0,0,0,0,0,0,0,0,0,0,0,0,0,0,0,0,0,0,0,0,0,0,0,0,0,0,0,0,0,0,0,0,0,0,0,0,0,0,0,0,0,0,0,0,0,0,0,0,0,0,0,0,0,0,0,0,0,0,0,0,0,0,0,0,0,0,0,0,0,0,0,0,0,0,0,0,0,0,0,0,0,0,0,0,0,0,0,0,0,0,0,0,0,0,0,0,0,0,0,0,0,0,0,0,0,0,0,0,0,0,0,0,0,0,0,0,0,0,0,0,0,0,0,0,0,0,0,0,0,0,0,0,0,0,0,0,0,0,0,0,0,0,0,0,0,0,0,0,0,0,0,0,0,0,0,0,0,0,0,0,0,0,0,0,0,0,0,0,0,0,0,0,0,0,0,0,0,0,0,0,0,0,0,0,0,0,0,0,0,0,0,0,0,0,0,0,0,0,0,0,0,0,0,0,0,0,0,0,0,0,0,0,0,0,0,0,0,0,0,0,0,0,0,0,0,0,0,0,0,0,0,0,0,0,0,0,0,0,0,0,0,0,0,0,0,0,0,0,0,0,0,0,0,0,0,0,0,0,0,0,0,0,0,0,0,0,0,0,0,0,0,0,0,0,0,0,0,0,0,0,0,0,0,0,0,0,0,0,0,0,0,0,0,0,0,0,0,0,0,0,0,0,0,0,0,0,0,0,0,0,0,0,0,0,0,0,0,0,0,0,0,0,0,0,0,0,0,0,0,0,0,0,0,0,0,0,0,0,0,0,0,0,0,0,0,0,0,0,0,0,0,0,0,0,0,0],"trees":[{"base_weights":[5.0316807E-8,8.302276E-1,-1.0167493E0,1.2639906E0,-8.602613E-2,-1.1556957E0,-5.9220415E-1,1.8873713E0,6.9857585E-1,-2.5135708E-1,8.191486E-1,-8.476087E-1,-1.2341177E0,-2.623297E-1,-9.389838E-1,1.0331287E0,2.4293008E0,-2.735899E-1,1.0407758E0,5.846255E-1,-4.400617E-1,2.3614125E0,-1.6437785E-1,-1.0449003E0,-5.114099E-1,-8.024829E-1,-1.2586083E-1,1.2464032E-2,-5.42287E-1,-7.6750046E-1,-1.2870176E-1,1.2632124E-1,-3.9241407E-3,2.9340273E-1,2.174849E-1,1.5366073E-2,-5.6430638E-2,5.268547E-2,1.3171858E-1,2.1400787E-2,1.1455822E-1,-8.356845E-2,-1.2940928E-2,1.1490633E-1,2.5964758E-1,-3.1504497E-2,5.1469006E-2,-1.0449617E-2,-1.1663544E-1,-1.4002837E-2,-8.100583E-2,-1.4026932E-2,-1.0964631E-1,-3.9351493E-2,3.1446364E-2,-1.0029556E-1,-3.379661E-2,-1.005831E-1,-3.619946E-2],"categories":[],"categories_nodes":[],"categories_segments":[],"categories_sizes":[],"default_left":[0,0,0,0,0,0,0,0,0,0,0,0,0,0,0,0,0,0,0,0,0,0,0,0,0,0,0,0,0,0,0,0,0,0,0,0,0,0,0,0,0,0,0,0,0,0,0,0,0,0,0,0,0,0,0,0,0,0,0],"id":0,"left_children":[1,3,5,7,9,11,13,15,17,19,21,23,25,27,29,31,33,35,37,39,41,43,45,47,49,51,-1,53,55,57,-1,-1,-1,-1,-1,-1,-1,-1,-1,-1,-1,-1,-1,-1,-1,-1,-1,-1,-1,-1,-1,-1,-1,-1,-1,-1,-1,-1,-1],"loss_changes":[9.2879724E2,2.4083899E2,2.8490997E1,1.4360101E2,2.9470772E1,7.9317017E0,1.3939384E1,8.774774E1,7.253825E1,2.6462528E1,4.6555347E1,4.6782074E0,2.0977783E0,5.0026736E0,2.5971298E0,1.9151001E1,8.843994E0,7.2085843E0,2.2155457E1,6.204092E0,1.6617973E1,4.1248322E-1,2.159241E0,5.425083E0,3.3271732E0,3.4564342E0,0E0,4.261689E0,2.6909447E0,3.764288E0,0E0,0E0,0E0,0E0,0E0,0E0,0E0,0E0,0E0,0E0,0E0,0E0,0E0,0E0,0E0,0E0,0E0,0E0,0E0,0E0,0E0,0E0,0E0,0E0,0E0,0E0,0E0,0E0,0E0],"parents":[2147483647,0,0,1,1,2,2,3,3,4,4,5,5,6,6,7,7,8,8,9,9,10,10,11,11,12,12,13,13,14,14,15,15,16,16,17,17,18,18,19,19,20,20,21,21,22,22,23,23,24,24,25,25,27,27,28,28,29,29],"right_children":[2,4,6,8,10,12,14,16,18,20,22,24,26,28,30,32,34,36,38,40,42,44,46,48,50,52,-1,54,56,58,-1,-1,-1,-1,-1,-1,-1,-1,-1,-1,-1,-1,-1,-1,-1,-1,-1,-1,-1,-1,-1,-1,-1,-1,-1,-1,-1,-1,-1],"split_conditions":[5E-1,5E-1,7.477612E-1,1.5277778E-1,7.2935325E-1,5E-1,1E0,5E-1,5E-1,2.7777778E-2,4.1666666E-1,6.666667E-1,7.0150524E-2,4.8153934E-1,9.059724E-1,3.7014925E-1,2.7777778E-2,1E0,6.666667E-1,1E0,1.1343284E-1,1E0,8.582789E-1,3.3333334E-1,5E-1,1E0,-1.2586083E-1,1.7949446E-1,8.1243783E-1,8.716418E-1,-1.2870176E-1,1.2632124E-1,-3.9241407E-3,2.9340273E-1,2.174849E-1,1.5366073E-2,-5.6430638E-2,5.268547E-2,1.3171858E-1,2.1400787E-2,1.1455822E-1,-8.356845E-2,-1.2940928E-2,1.1490633E-1,2.5964758E-1,-3.1504497E-2,5.1469006E-2,-1.0449617E-2,-1.1663544E-1,-1.4002837E-2,-8.100583E-2,-1.4026932E-2,-1.0964631E-1,-3.9351493E-2,3.1446364E-2,-1.0029556E-1,-3.379661E-2,-1.005831E-1,-3.619946E-2],"split_indices":[15,9,18,5,18,9,15,8,8,5,5,17,0,0,19,18,5,6,17,16,18,16,0,5,12,15,0,0,18,18,0,0,0,0,0,0,0,0,0,0,0,0,0,0,0,0,0,0,0,0,0,0,0,0,0,0,0,0,0],"split_type":[0,0,0,0,0,0,0,0,0,0,0,0,0,0,0,0,0,0,0,0,0,0,0,0,0,0,0,0,0,0,0,0,0,0,0,0,0,0,0,0,0,0,0,0,0,0,0,0,0,0,0,0,0,0,0,0,0,0,0],"sum_hessian":[1.0982969E3,6.047066E2,4.935903E2,4.101556E2,1.94551E2,3.705826E2,1.230077E2,1.9396617E2,2.1618944E2,1.6511493E2,2.9436073E1,7.758647E1,2.9299615E2,6.394061E1,5.9067085E1,7.6416824E1,1.1754935E2,5.6337914E1,1.5985152E2,3.0020895E1,1.3509402E2,1.0916689E1,1.8519384E1,4.7565575E1,3.0020895E1,1.754468E1,2.7545148E2,3.275007E1,3.119054E1,4.171735E1,1.734974E1,6.277096E1,1.3645862E1,3.586912E1,8.168023E1,2.3003023E1,3.3334892E1,5.6922737E1,1.0292879E2,1.8909266E1,1.111163E1,5.8677204E1,7.6416824E1,2.7291722E0,8.187517E0,1.559527E1,2.9241133E0,5.6532855E0,4.191229E1,1.4035744E1,1.5985152E1,5.8482265E0,1.1696453E1,1.3840802E1,1.8909266E1,8.382458E0,2.2808083E1,2.5342314E1,1.6375034E1],"tree_param":{"num_deleted":"0","num_feature":"20","num_nodes":"59","size_leaf_vector":"1"}},{"base_weights":[-3.2985255E-3,7.190642E-1,-9.6579814E-1,1.0739968E0,-7.70422E-2,-1.1051015E0,-5.523754E-1,1.563556E0,6.080067E-1,-2.296005E-1,7.2383887E-1,-7.989509E-1,-1.1846422E0,-2.4160111E-1,-8.897135E-1,8.8718367E-1,1.9697597E0,-2.5057814E-1,8.9298046E-1,5.165331E-1,-4.0584254E-1,1.9673916E0,-1.4842768E-1,-8.390428E-1,4.886915E-2,-7.572941E-1,-1.2095096E-1,1.0697926E-2,-5.050331E-1,-7.207221E-1,-1.2413354E-1,1.3079089E-1,4.3599606E-2,1.7011628E-1,2.3541157E-1,1.379314E-2,-5.2384585E-2,1.5431903E-1,7.247303E-2,1.9175839E-2,9.900256E-2,-1.5676512E-3,-6.879795E-2,2.4258149E-1,1.2978528E-1,-6.843771E-2,3.727457E-3,-1.0310644E-1,-5.1440217E-2,-1.2905754E-2,-1.0486455E-1,-3.634576E-2,2.8046936E-2,-9.5633686E-2,-3.105937E-2,-9.554555E-2,-3.335431E-2],"categories":[],"categories_nodes":[],"categories_segments":[],"categories_sizes":[],"default_left":[0,0,0,0,0,0,0,0,0,0,0,0,0,0,0,0,0,0,0,0,0,0,0,0,0,0,0,0,0,0,0,0,0,0,0,0,0,0,0,0,0,0,0,0,0,0,0,0,0,0,0,0,0,0,0,0,0],"id":1,"left_children":[1,3,5,7,9,11,13,15,17,19,21,23,25,27,29,31,33,35,37,39,41,43,45,47,-1,49,-1,51,53,55,-1,-1,-1,-1,-1,-1,-1,-1,-1,-1,-1,-1,-1,-1,-1,-1,-1,-1,-1,-1,-1,-1,-1,-1,-1,-1,-1],"loss_changes":[7.63775E2,1.7740558E2,2.6513641E1,9.8081665E1,2.3923454E1,7.607605E0,1.2438686E1,5.6240967E1,5.5041252E1,2.1787449E1,3.430128E1,4.3084145E0,2.0252075E0,4.2721014E0,2.522255E0,1.4808407E1,9.5243225E0,6.0826044E0,1.7307587E1,4.699274E0,1.4662523E1,8.4049606E-1,1.9521017E0,4.057869E0,0E0,3.1399193E0,0E0,3.5105777E0,2.4606256E0,3.4277363E0,0E0,0E0,0E0,0E0,0E0,0E0,0E0,0E0,0E0,0E0,0E0,0E0,0E0,0E0,0E0,0E0,0E0,0E0,0E0,0E0,0E0,0E0,0E0,0E0,0E0,0E0,0E0],"parents":[2147483647,0,0,1,1,2,2,3,3,4,4,5,5,6,6,7,7,8,8,9,9,10,10,11,11,12,12,13,13,14,14,15,15,16,16,17,17,18,18,19,19,20,20,21,21,22,22,23,23,25,25,27,27,28,28,29,29],"right_children":[2,4,6,8,10,12,14,16,18,20,22,24,26,28,30,32,34,36,38,40,42,44,46,48,-1,50,-1,52,54,56,-1,-1,-1,-1,-1,-1,-1,-1,-1,-1,-1,-1,-1,-1,-1,-1,-1,-1,-1,-1,-1,-1,-1,-1,-1,-1,-1],"split_conditions":[5E-1,5E-1,7.477612E-1,1.5277778E-1,7.2935325E-1,5E-1,1E0,5E-1,5E-1,2.7777778E-2,4.1666666E-1,9.623277E-1,7.0150524E-2,4.8153934E-1,9.059724E-1,4.1666668E-2,5E-1,1E0,1.4808576E-1,1E0,5E-1,5.6745243E-1,2.2337404E-1,6.666667E-1,4.886915E-2,1E0,-1.2095096E-1,1.7949446E-1,8.1243783E-1,8.716418E-1,-1.2413354E-1,1.3079089E-1,4.3599606E-2,1.7011628E-1,2.3541157E-1,1.379314E-2,-5.2384585E-2,1.5431903E-1,7.247303E-2,1.9175839E-2,9.900256E-2,-1.5676512E-3,-6.879795E-2,2.4258149E-1,1.2978528E-1,-6.843771E-2,3.727457E-3,-1.0310644E-1,-5.1440217E-2,-1.2905754E-2,-1.0486455E-1,-3.634576E-2,2.8046936E-2,-9.5633686E-2,-3.105937E-2,-9.554555E-2,-3.335431E-2],"split_indices":[15,9,18,5,18,9,15,8,8,5,5,19,0,0,19,5,7,6,19,16,12,0,0,17,0,15,0,0,18,18,0,0,0,0,0,0,0,0,0,0,0,0,0,0,0,0,0,0,0,0,0,0,0,0,0,0,0],"split_type":[0,0,0,0,0,0,0,0,0,0,0,0,0,0,0,0,0,0,0,0,0,0,0,0,0,0,0,0,0,0,0,0,0,0,0,0,0,0,0,0,0,0,0,0,0,0,0,0,0,0,0,0,0,0,0,0,0],"sum_hessian":[1.0965253E3,6.265489E2,4.6997638E2,4.3310577E2,1.9344308E2,3.50277E2,1.1969937E2,2.1006291E2,2.2304288E2,1.6308975E2,3.0353342E1,7.451491E1,2.7576212E2,6.319599E1,5.6503384E1,8.0014465E1,1.3004845E2,5.561215E1,1.6743073E2,3.0793287E1,1.3229646E2,1.1995863E1,1.8357477E1,7.2602745E1,1.9121633E0,1.6893894E1,2.5886823E2,3.277014E1,3.0425852E1,4.0222115E1,1.6281267E1,4.042241E1,3.9592056E1,7.974604E1,5.0302406E1,2.3168434E1,3.2443714E1,3.273869E1,1.3469203E2,1.9098421E1,1.1694867E1,5.5962173E1,7.633429E1,5.5635023E0,6.4323606E0,4.032902E0,1.4324576E1,4.425207E1,2.8350672E1,5.809633E0,1.1084262E1,1.3583468E1,1.9186672E1,7.981634E0,2.2444218E1,2.4127003E1,1.6095114E1],"tree_param":{"num_deleted":"0","num_feature":"20","num_nodes":"57","size_leaf_vector":"1"}},{"base_weights":[-5.2841133E-3,6.308209E-1,-9.1882044E-1,9.2901605E-1,-6.900926E-2,-1.0590924E0,-5.15416E-1,1.2519823E0,4.2287195E-1,-2.0962234E-1,6.4540535E-1,-7.523537E-1,-1.1406134E0,-2.2254927E-1,-8.4398246E-1,6.66613E-1,1.5764747E0,-3.6469087E-1,6.483277E-1,4.585097E-1,-3.7391227E-1,1.695196E0,-1.3794258E-1,-9.4662124E-1,-4.391281E-1,-7.152881E-1,-1.1660713E-1,9.150352E-3,-4.702232E-1,-6.7691195E-1,-1.20158516E-1,9.9582314E-2,1.6743805E-2,2.0366101E-1,1.4133963E-1,4.076683E-3,-7.099332E-2,3.9915618E-2,1.09597504E-1,3.4298435E-2,1.8451898E-1,-7.4554466E-2,-9.879711E-3,2.0678262E-1,1.13746546E-1,-2.7763385E-2,4.6416655E-2,-2.471198E-3,-1.07504465E-1,-8.736477E-3,-7.338268E-2,-1.1870259E-2,-1.0048778E-1,2.5710365E-2,-3.5019707E-2,-7.795028E-2,-2.0890696E-2,-9.0863734E-2,-3.0707732E-2],"categories":[],"categories_nodes":[],"categories_segments":[],"categories_sizes":[],"default_left":[0,0,0,0,0,0,0,0,0,0,0,0,0,0,0,0,0,0,0,0,0,0,0,0,0,0,0,0,0,0,0,0,0,0,0,0,0,0,0,0,0,0,0,0,0,0,0,0,0,0,0,0,0,0,0,0,0,0,0],"id":2,"left_children":[1,3,5,7,9,11,13,15,17,19,21,23,25,27,29,31,33,35,37,39,41,43,45,47,49,51,-1,53,55,57,-1,-1,-1,-1,-1,-1,-1,-1,-1,-1,-1,-1,-1,-1,-1,-1,-1,-1,-1,-1,-1,-1,-1,-1,-1,-1,-1,-1,-1],"loss_changes":[6.3390234E2,1.3426607E2,2.4792236E1,7.319559E1,1.9530735E1,7.4262695E0,1.11166E1,5.1149536E1,3.1698818E1,1.79622E1,2.6546635E1,3.995861E0,1.9790039E0,3.6466665E0,2.4729767E0,1.6224266E1,1.0333618E1,5.6387763E0,1.4968212E1,4.563476E0,1.3283159E1,5.052147E-1,1.7478572E0,5.168762E0,3.0062046E0,2.8624773E0,0E0,3.0993578E0,2.3181005E0,3.1302109E0,0E0,0E0,0E0,0E0,0E0,0E0,0E0,0E0,0E0,0E0,0E0,0E0,0E0,0E0,0E0,0E0,0E0,0E0,0E0,0E0,0E0,0E0,0E0,0E0,0E0,0E0,0E0,0E0,0E0],"parents":[2147483647,0,0,1,1,2,2,3,3,4,4,5,5,6,6,7,7,8,8,9,9,10,10,11,11,12,12,13,13,14,14,15,15,16,16,17,17,18,18,19,19,20,20,21,21,22,22,23,23,24,24,25,25,27,27,28,28,29,29],"right_children":[2,4,6,8,10,12,14,16,18,20,22,24,26,28,30,32,34,36,38,40,42,44,46,48,50,52,-1,54,56,58,-1,-1,-1,-1,-1,-1,-1,-1,-1,-1,-1,-1,-1,-1,-1,-1,-1,-1,-1,-1,-1,-1,-1,-1,-1,-1,-1,-1,-1],"split_conditions":[5E-1,5E-1,7.477612E-1,2.361111E-1,7.2935325E-1,5E-1,1E0,5E-1,5E-1,2.7777778E-2,4.1666666E-1,6.666667E-1,7.0150524E-2,4.8153934E-1,9.059724E-1,6.944445E-2,2.7777778E-2,1E0,7.696518E-1,1E0,1.1343284E-1,5.6745243E-1,8.582789E-1,3.3333334E-1,5E-1,1E0,-1.1660713E-1,8.333333E-1,8.4626865E-1,8.716418E-1,-1.20158516E-1,9.9582314E-2,1.6743805E-2,2.0366101E-1,1.4133963E-1,4.076683E-3,-7.099332E-2,3.9915618E-2,1.09597504E-1,3.4298435E-2,1.8451898E-1,-7.4554466E-2,-9.879711E-3,2.0678262E-1,1.13746546E-1,-2.7763385E-2,4.6416655E-2,-2.471198E-3,-1.07504465E-1,-8.736477E-3,-7.338268E-2,-1.1870259E-2,-1.0048778E-1,2.5710365E-2,-3.5019707E-2,-7.795028E-2,-2.0890696E-2,-9.0863734E-2,-3.0707732E-2],"split_indices":[15,9,18,5,18,9,15,8,8,5,5,17,0,0,19,5,5,6,18,2,18,0,0,5,12,15,0,5,18,18,0,0,0,0,0,0,0,0,0,0,0,0,0,0,0,0,0,0,0,0,0,0,0,0,0,0,0,0,0],"split_type":[0,0,0,0,0,0,0,0,0,0,0,0,0,0,0,0,0,0,0,0,0,0,0,0,0,0,0,0,0,0,0,0,0,0,0,0,0,0,0,0,0,0,0,0,0,0,0,0,0,0,0,0,0,0,0,0,0,0,0],"sum_hessian":[1.0888593E3,6.42081E2,4.467783E2,4.5000705E2,1.9207393E2,3.303006E2,1.1647769E2,2.7381467E2,1.761924E2,1.610769E2,3.0997025E1,7.149927E1,2.5880133E2,6.247136E1,5.4006336E1,9.8742325E1,1.7507236E2,3.907564E1,1.3711674E2,3.1437296E1,1.2963962E2,1.2748413E1,1.8248611E1,4.2881382E1,2.861789E1,1.6259037E1,2.425423E2,3.2774128E1,2.9697231E1,3.8780956E1,1.5225379E1,5.8901405E1,3.9840916E1,4.2805504E1,1.3226685E2,1.8376236E1,2.0699406E1,8.930118E1,4.781557E1,3.0171064E1,1.2662321E0,5.441906E1,7.522056E1,6.0192604E0,6.7291527E0,1.5249562E1,2.99905E0,5.3888717E0,3.7492508E1,1.363687E1,1.498102E1,5.773961E0,1.0485075E1,1.9561218E1,1.3212909E1,1.2692315E1,1.7004917E1,2.294657E1,1.5834386E1],"tree_param":{"num_deleted":"0","num_feature":"20","num_nodes":"59","size_leaf_vector":"1"}},{"base_weights":[-6.675354E-3,5.5838716E-1,-8.752237E-1,8.2060844E-1,-9.2370406E-2,-1.0170634E0,-4.8072767E-1,1.1792485E0,4.7277725E-1,-3.179231E-1,4.0186164E-1,-7.097155E-1,-1.1008383E0,-2.0465407E-1,-8.011292E-1,8.840911E-1,1.6444341E0,-1.8521173E-1,6.891784E-1,-9.5624894E-2,-9.320035E-1,7.180222E-1,-5.1465E-1,-7.504354E-1,4.7514673E-2,-6.759564E-1,-1.127066E-1,-5.7312164E-2,-6.047744E-1,-6.3565814E-1,-1.1665759E-1,1.3430169E-1,5.443318E-2,1.2637906E-1,1.784511E-1,2.328419E-2,-4.642399E-2,4.967491E-2,1.1477641E-1,2.9070025E-2,-2.786018E-2,1.3781748E-2,-1.05050676E-1,1.5193254E-1,4.7950298E-2,-7.636475E-3,-7.271286E-2,-9.4179384E-2,-4.4559494E-2,-1.0914433E-2,-9.643371E-2,-3.967797E-2,2.2607265E-2,4.9742572E-2,-8.275198E-2,-8.6467735E-2,-2.824763E-2],"categories":[],"categories_nodes":[],"categories_segments":[],"categories_sizes":[],"default_left":[0,0,0,0,0,0,0,0,0,0,0,0,0,0,0,0,0,0,0,0,0,0,0,0,0,0,0,0,0,0,0,0,0,0,0,0,0,0,0,0,0,0,0,0,0,0,0,0,0,0,0,0,0,0,0,0,0],"id":3,"left_children":[1,3,5,7,9,11,13,15,17,19,21,23,25,27,29,31,33,35,37,39,41,43,45,47,-1,49,-1,51,53,55,-1,-1,-1,-1,-1,-1,-1,-1,-1,-1,-1,-1,-1,-1,-1,-1,-1,-1,-1,-1,-1,-1,-1,-1,-1,-1,-1],"loss_changes":[5.296603E2,1.1164943E2,2.3312866E1,5.759311E1,2.1162357E1,7.251648E0,9.954393E0,2.9966644E1,3.406066E1,1.7673702E1,1.7631025E1,3.7164383E0,1.9499207E0,3.6670272E0,2.4393158E0,2.1436668E1,2.4193115E0,7.0798783E0,1.5273743E1,6.9131613E0,4.514839E0,7.816597E0,1.4215875E0,3.5302582E0,0E0,2.615749E0,0E0,4.6106005E0,4.534744E0,2.8621168E0,0E0,0E0,0E0,0E0,0E0,0E0,0E0,0E0,0E0,0E0,0E0,0E0,0E0,0E0,0E0,0E0,0E0,0E0,0E0,0E0,0E0,0E0,0E0,0E0,0E0,0E0,0E0],"parents":[2147483647,0,0,1,1,2,2,3,3,4,4,5,5,6,6,7,7,8,8,9,9,10,10,11,11,12,12,13,13,14,14,15,15,16,16,17,17,18,18,19,19,20,20,21,21,22,22,23,23,25,25,27,27,28,28,29,29],"right_children":[2,4,6,8,10,12,14,16,18,20,22,24,26,28,30,32,34,36,38,40,42,44,46,48,-1,50,-1,52,54,56,-1,-1,-1,-1,-1,-1,-1,-1,-1,-1,-1,-1,-1,-1,-1,-1,-1,-1,-1,-1,-1,-1,-1,-1,-1,-1,-1],"split_conditions":[5E-1,5E-1,7.477612E-1,1.5277778E-1,6.0646766E-1,5E-1,1E0,5.716418E-1,5E-1,2.5E-1,6.111111E-1,9.623277E-1,7.0150524E-2,1E0,9.059724E-1,2.7777778E-2,4.5007658E-1,1E0,7.696518E-1,2.7777778E-2,5.972435E-2,9.7222224E-2,7.083333E-1,6.666667E-1,4.7514673E-2,1E0,-1.127066E-1,8.4626865E-1,5.833333E-1,8.716418E-1,-1.1665759E-1,1.3430169E-1,5.443318E-2,1.2637906E-1,1.784511E-1,2.328419E-2,-4.642399E-2,4.967491E-2,1.1477641E-1,2.9070025E-2,-2.786018E-2,1.3781748E-2,-1.05050676E-1,1.5193254E-1,4.7950298E-2,-7.636475E-3,-7.271286E-2,-9.4179384E-2,-4.4559494E-2,-1.0914433E-2,-9.643371E-2,-3.967797E-2,2.2607265E-2,4.9742572E-2,-8.275198E-2,-8.6467735E-2,-2.824763E-2],"split_indices":[15,12,18,5,18,9,15,18,8,5,5,19,0,4,19,5,19,6,18,5,19,5,5,17,0,15,0,18,5,18,0,0,0,0,0,0,0,0,0,0,0,0,0,0,0,0,0,0,0,0,0,0,0,0,0,0,0],"split_type":[0,0,0,0,0,0,0,0,0,0,0,0,0,0,0,0,0,0,0,0,0,0,0,0,0,0,0,0,0,0,0,0,0,0,0,0,0,0,0,0,0,0,0,0,0,0,0,0,0,0,0,0,0,0,0,0,0],"sum_hessian":[1.0772166E3,6.528444E2,4.243722E2,4.6515164E2,1.8769276E2,3.109817E2,1.13390495E2,2.2784059E2,2.3731107E2,1.2912206E2,5.85707E1,6.8638245E1,2.4234346E2,6.1788902E1,5.160159E1,1.4116977E2,8.667082E1,5.8767338E1,1.7854373E2,9.5651695E1,3.3470364E1,4.3709282E1,1.486142E1,6.6712204E1,1.9260391E0,1.5646519E1,2.2669693E2,4.5994823E1,1.579408E1,3.740454E1,1.4197051E1,5.879724E1,8.237253E1,2.601097E1,6.065985E1,2.3589666E1,3.517767E1,1.2723659E2,5.1307144E1,3.0553778E1,6.5097916E1,3.32151E0,3.0148851E1,8.794483E0,3.4914803E1,5.2962036E0,9.565216E0,3.970107E1,2.7011135E1,5.7410192E0,9.9054985E0,2.0744627E1,2.5250196E1,2.4479332E0,1.3346147E1,2.181224E1,1.5592299E1],"tree_param":{"num_deleted":"0","num_feature":"20","num_nodes":"57","size_leaf_vector":"1"}},{"base_weights":[-7.79645E-3,4.96303E-1,-8.338785E-1,7.235794E-1,-8.452057E-2,-9.776743E-1,-4.4783396E-1,1.0347695E0,4.1871032E-1,-2.9260102E-1,3.5943228E-1,-7.894705E-1,-1.1280461E-1,-1.4236717E-1,-7.277151E-1,6.1477995E-1,1.2799435E0,-1.6907288E-1,6.0567534E-1,-8.6754635E-2,-8.8594884E-1,8.944085E-1,-8.707614E-2,-9.387543E-1,-3.9796194E-1,-6.3871074E-1,5.2720703E-2,-1.0044429E0,-4.282324E-1,8.245524E-2,-8.818022E-3,1.6694777E-1,1.0907532E-1,2.0824617E-2,-4.2944636E-2,8.501633E-2,2.9638344E-2,4.7535717E-2,-2.0634018E-2,1.2650654E-2,-1.0050621E-1,1.0778365E-1,8.719631E-3,2.0706998E-2,-6.276131E-2,-6.467968E-2,-1.031137E-1,-7.5898506E-2,-5.6921034E-3,7.9218626E-2,-7.984496E-2,4.6248585E-2,-2.3721216E-2,-6.860834E-2,-1.1425E-1,2.244175E-2,-6.424724E-2],"categories":[],"categories_nodes":[],"categories_segments":[],"categories_sizes":[],"default_left":[0,0,0,0,0,0,0,0,0,0,0,0,0,0,0,0,0,0,0,0,0,0,0,0,0,0,0,0,0,0,0,0,0,0,0,0,0,0,0,0,0,0,0,0,0,0,0,0,0,0,0,0,0,0,0,0,0],"id":4,"left_children":[1,3,5,7,9,11,13,15,17,19,21,23,-1,25,27,29,31,33,35,37,39,41,43,45,47,49,51,53,55,-1,-1,-1,-1,-1,-1,-1,-1,-1,-1,-1,-1,-1,-1,-1,-1,-1,-1,-1,-1,-1,-1,-1,-1,-1,-1,-1,-1],"loss_changes":[4.4382693E2,8.743701E1,2.1983398E1,4.4711456E1,1.7384792E1,7.4139404E0,9.425768E0,2.3390839E1,2.6701862E1,1.5546033E1,1.4444164E1,7.4381332E0,0E0,5.314639E0,4.37031E0,1.3118729E1,9.036819E0,5.9047623E0,1.3650551E1,6.5562263E0,4.0872154E0,3.970316E0,5.487035E0,1.9230499E0,4.713251E0,4.1671796E0,4.8706684E0,5.0667953E-1,4.2775617E0,0E0,0E0,0E0,0E0,0E0,0E0,0E0,0E0,0E0,0E0,0E0,0E0,0E0,0E0,0E0,0E0,0E0,0E0,0E0,0E0,0E0,0E0,0E0,0E0,0E0,0E0,0E0,0E0],"parents":[2147483647,0,0,1,1,2,2,3,3,4,4,5,5,6,6,7,7,8,8,9,9,10,10,11,11,13,13,14,14,15,15,16,16,17,17,18,18,19,19,20,20,21,21,22,22,23,23,24,24,25,25,26,26,27,27,28,28],"right_children":[2,4,6,8,10,12,14,16,18,20,22,24,-1,26,28,30,32,34,36,38,40,42,44,46,48,50,52,54,56,-1,-1,-1,-1,-1,-1,-1,-1,-1,-1,-1,-1,-1,-1,-1,-1,-1,-1,-1,-1,-1,-1,-1,-1,-1,-1,-1,-1],"split_conditions":[5E-1,5E-1,7.477612E-1,1.5277778E-1,6.0646766E-1,1E0,8.061256E-1,5E-1,5E-1,2.5E-1,3.3333334E-1,1E0,-1.1280461E-1,1E0,1E0,8.3333336E-2,2.7777778E-2,1E0,4.093415E-1,1.5648964E-1,5.972435E-2,8.1439507E-1,6.666667E-1,5E-1,1E0,3.611111E-1,5E-1,1E0,1E0,8.245524E-2,-8.818022E-3,1.6694777E-1,1.0907532E-1,2.0824617E-2,-4.2944636E-2,8.501633E-2,2.9638344E-2,4.7535717E-2,-2.0634018E-2,1.2650654E-2,-1.0050621E-1,1.0778365E-1,8.719631E-3,2.0706998E-2,-6.276131E-2,-6.467968E-2,-1.031137E-1,-7.5898506E-2,-5.6921034E-3,7.9218626E-2,-7.984496E-2,4.6248585E-2,-2.3721216E-2,-6.860834E-2,-1.1425E-1,2.244175E-2,-6.424724E-2],"split_indices":[15,12,18,5,18,15,19,8,8,5,5,14,0,16,1,5,5,6,19,0,19,19,5,9,1,5,10,15,3,0,0,0,0,0,0,0,0,0,0,0,0,0,0,0,0,0,0,0,0,0,0,0,0,0,0,0,0],"split_type":[0,0,0,0,0,0,0,0,0,0,0,0,0,0,0,0,0,0,0,0,0,0,0,0,0,0,0,0,0,0,0,0,0,0,0,0,0,0,0,0,0,0,0,0,0,0,0,0,0,0,0,0,0,0,0,0,0],"sum_hessian":[1.0638026E3,6.609008E2,4.029018E2,4.748472E2,1.8605362E2,2.9243982E2,1.1046196E2,2.338027E2,2.410445E2,1.26911285E2,5.914233E1,1.326573E2,1.5978252E2,5.353819E1,5.6923775E1,8.747062E1,1.4633209E2,5.819282E1,1.8285167E2,9.507406E1,3.1837227E1,2.6449368E1,3.2692963E1,9.502579E1,3.763152E1,1.4464238E1,3.907395E1,2.836242E1,2.8561356E1,6.723412E1,2.0236502E1,4.527941E1,1.0105267E2,2.38422E1,3.435062E1,1.0114791E2,8.1703766E1,1.6156305E1,7.891775E1,3.3447769E0,2.849245E1,2.1278793E1,5.1705747E0,2.1571327E1,1.1121636E1,2.476429E1,7.02615E1,1.7684917E1,1.9946604E1,1.0549575E0,1.340928E1,1.59444065E1,2.3129545E1,1.0384746E1,1.7977673E1,7.046809E0,2.1514545E1],"tree_param":{"num_deleted":"0","num_feature":"20","num_nodes":"57","size_leaf_vector":"1"}},{"base_weights":[-8.714053E-3,4.4317657E-1,-7.9418546E-1,6.5327215E-1,-8.1307285E-2,-9.402546E-1,-4.1624317E-1,8.73847E-1,2.9675314E-1,-1.9191577E-1,4.4813138E-1,-7.497092E-1,-1.09624885E-1,-2.4687478E-1,-9.076662E-1,6.065348E-1,1.2292285E0,9.1933906E-2,8.05259E-1,2.23925E-1,-3.813503E-1,1.2766623E0,-1.9127686E-1,-8.9995515E-1,-3.6932892E-1,-1.0175322E-1,-5.4373115E-1,-5.276946E-1,-1.060235E0,1.0183171E-1,3.6874093E-2,1.4063497E-1,9.153843E-2,2.205067E-2,-4.4167425E-2,3.6915492E-2,1.05550624E-1,1.0251207E-2,1.8796627E-1,-6.66572E-2,-2.0169172E-2,1.6312186E-1,8.025985E-2,-3.8950875E-2,2.1218104E-2,-6.071197E-2,-9.955001E-2,-7.194869E-2,-5.16737E-3,-7.708319E-2,-1.8336558E-3,-8.066619E-2,-2.2016423E-2,1.0087396E-3,-7.766117E-2,-1.1060967E-1,-2.0647867E-2],"categories":[],"categories_nodes":[],"categories_segments":[],"categories_sizes":[],"default_left":[0,0,0,0,0,0,0,0,0,0,0,0,0,0,0,0,0,0,0,0,0,0,0,0,0,0,0,0,0,0,0,0,0,0,0,0,0,0,0,0,0,0,0,0,0,0,0,0,0,0,0,0,0,0,0,0,0],"id":5,"left_children":[1,3,5,7,9,11,13,15,17,19,21,23,-1,25,27,29,31,33,35,37,39,41,43,45,47,49,51,53,55,-1,-1,-1,-1,-1,-1,-1,-1,-1,-1,-1,-1,-1,-1,-1,-1,-1,-1,-1,-1,-1,-1,-1,-1,-1,-1,-1,-1],"loss_changes":[3.7296414E2,7.3554276E1,2.0793182E1,3.7201538E1,1.1309987E1,7.3812714E0,8.828363E0,2.716249E1,1.9047045E1,1.2629699E1,1.7950188E1,6.948242E0,0E0,3.4884038E0,1.0349388E0,1.623521E1,5.6689606E0,9.153791E0,5.349209E0,9.952937E0,5.49067E0,1.1596413E0,1.660913E0,1.9312363E0,4.1636662E0,3.1381273E0,2.1006517E0,1.3291183E0,5.0118446E-1,0E0,0E0,0E0,0E0,0E0,0E0,0E0,0E0,0E0,0E0,0E0,0E0,0E0,0E0,0E0,0E0,0E0,0E0,0E0,0E0,0E0,0E0,0E0,0E0,0E0,0E0,0E0,0E0],"parents":[2147483647,0,0,1,1,2,2,3,3,4,4,5,5,6,6,7,7,8,8,9,9,10,10,11,11,13,13,14,14,15,15,16,16,17,17,18,18,19,19,20,20,21,21,22,22,23,23,24,24,25,25,26,26,27,27,28,28],"right_children":[2,4,6,8,10,12,14,16,18,20,22,24,-1,26,28,30,32,34,36,38,40,42,44,46,48,50,52,54,56,-1,-1,-1,-1,-1,-1,-1,-1,-1,-1,-1,-1,-1,-1,-1,-1,-1,-1,-1,-1,-1,-1,-1,-1,-1,-1,-1,-1],"split_conditions":[5E-1,5E-1,7.477612E-1,2.361111E-1,7.2935325E-1,1E0,9.861111E-1,5.716418E-1,7.696518E-1,5.5555556E-2,4.1666666E-1,1E0,-1.09624885E-1,1E0,5E-1,2.7777778E-2,1.25E-1,5E-1,3.6268106E-1,1E0,1.1890547E-1,5.6745243E-1,1E0,5E-1,1E0,5E-1,8.716418E-1,3.9037207E-1,9.5114857E-1,1.0183171E-1,3.6874093E-2,1.4063497E-1,9.153843E-2,2.205067E-2,-4.4167425E-2,3.6915492E-2,1.05550624E-1,1.0251207E-2,1.8796627E-1,-6.66572E-2,-2.0169172E-2,1.6312186E-1,8.025985E-2,-3.8950875E-2,2.1218104E-2,-6.071197E-2,-9.955001E-2,-7.194869E-2,-5.16737E-3,-7.708319E-2,-1.8336558E-3,-8.066619E-2,-2.2016423E-2,1.0087396E-3,-7.766117E-2,-1.1060967E-1,-2.0647867E-2],"split_indices":[15,9,18,5,18,15,5,18,18,5,5,14,0,15,9,5,5,12,0,2,18,0,2,9,1,14,18,0,19,0,0,0,0,0,0,0,0,0,0,0,0,0,0,0,0,0,0,0,0,0,0,0,0,0,0,0,0],"split_type":[0,0,0,0,0,0,0,0,0,0,0,0,0,0,0,0,0,0,0,0,0,0,0,0,0,0,0,0,0,0,0,0,0,0,0,0,0,0,0,0,0,0,0,0,0,0,0,0,0,0,0,0,0,0,0,0,0],"sum_hessian":[1.048768E3,6.660295E2,3.8273853E2,4.7536438E2,1.9066507E2,2.7497638E2,1.0776215E2,2.9277582E2,1.8258858E2,1.5824301E2,3.2422066E1,1.2639371E2,1.4858266E2,8.125877E1,2.6503378E1,1.6863672E2,1.2413911E2,1.310031E2,5.1585472E1,4.946873E1,1.0877428E2,1.3688361E1,1.8733704E1,8.962636E1,3.6767353E1,5.5479683E1,2.5779093E1,8.870411E0,1.7632967E1,6.0532166E1,1.0810455E2,7.7129326E1,4.7009777E1,1.06039635E2,2.4963465E1,1.9710787E1,3.1874685E1,4.707845E1,2.3902833E0,4.0989735E1,6.778454E1,6.4347973E0,7.2535634E0,1.2584907E1,6.1487975E0,2.3858072E1,6.576829E1,1.6887222E1,1.988013E1,5.236596E0,5.0243088E1,1.3398464E1,1.2380629E1,3.1102448E0,5.7601657E0,1.6453558E1,1.1794089E0],"tree_param":{"num_deleted":"0","num_feature":"20","num_nodes":"57","size_leaf_vector":"1"}},{"base_weights":[-9.091967E-3,3.9808267E-1,-7.566091E-1,5.803347E-1,-8.413627E-2,-9.046715E-1,-3.8803715E-1,1.6257212E-1,7.2846746E-1,-2.5790557E-1,2.724599E-1,-7.116385E-1,-1.06691234E-1,-2.2782071E-1,-8.71448E-1,7.5058097E-1,1.1699658E-2,9.204254E-1,2.652352E-1,-7.532398E-2,-8.202625E-1,4.7266045E-1,-5.9608483E-1,-8.628152E-1,-3.4249738E-1,-9.503771E-2,-5.496959E-1,-4.9691418E-1,-1.0273339E0,8.745589E-2,-2.5731994E-2,1.8252026E-2,-3.8383182E-2,6.816817E-2,1.1737285E-1,3.8700737E-3,7.61893E-2,1.177067E-2,-3.7953854E-2,1.4864959E-2,-9.435042E-2,1.10949755E-1,2.998606E-2,-9.2022456E-2,-2.9228846E-2,-9.147733E-2,-3.3900492E-2,-6.816157E-2,-4.6896744E-3,-4.8439626E-2,2.1655833E-2,6.8336E-2,-6.451741E-2,9.319771E-4,-7.408533E-2,-1.0744895E-1,-1.9676002E-2],"categories":[],"categories_nodes":[],"categories_segments":[],"categories_sizes":[],"default_left":[0,0,0,0,0,0,0,0,0,0,0,0,0,0,0,0,0,0,0,0,0,0,0,0,0,0,0,0,0,0,0,0,0,0,0,0,0,0,0,0,0,0,0,0,0,0,0,0,0,0,0,0,0,0,0,0,0],"id":6,"left_children":[1,3,5,7,9,11,13,15,17,19,21,23,-1,25,27,29,31,33,35,37,39,41,43,45,47,49,51,53,55,-1,-1,-1,-1,-1,-1,-1,-1,-1,-1,-1,-1,-1,-1,-1,-1,-1,-1,-1,-1,-1,-1,-1,-1,-1,-1,-1,-1],"loss_changes":[3.148447E2,5.8902786E1,1.9554352E1,2.9964584E1,1.1506035E1,7.366806E0,8.033438E0,1.1394258E1,3.1641174E1,1.2731448E1,1.0880369E1,6.484524E0,0E0,3.4174948E0,1.0135612E0,3.5026903E0,7.049952E0,1.4507111E1,1.194854E1,5.6327696E0,3.7747955E0,5.1797523E0,8.9892006E-1,2.017849E0,3.6728292E0,7.224437E0,3.2076044E0,1.1934636E0,4.7380447E-1,0E0,0E0,0E0,0E0,0E0,0E0,0E0,0E0,0E0,0E0,0E0,0E0,0E0,0E0,0E0,0E0,0E0,0E0,0E0,0E0,0E0,0E0,0E0,0E0,0E0,0E0,0E0,0E0],"parents":[2147483647,0,0,1,1,2,2,3,3,4,4,5,5,6,6,7,7,8,8,9,9,10,10,11,11,13,13,14,14,15,15,16,16,17,17,18,18,19,19,20,20,21,21,22,22,23,23,24,24,25,25,26,26,27,27,28,28],"right_children":[2,4,6,8,10,12,14,16,18,20,22,24,-1,26,28,30,32,34,36,38,40,42,44,46,48,50,52,54,56,-1,-1,-1,-1,-1,-1,-1,-1,-1,-1,-1,-1,-1,-1,-1,-1,-1,-1,-1,-1,-1,-1,-1,-1,-1,-1,-1,-1],"split_conditions":[5E-1,5E-1,7.477612E-1,1E0,6.0646766E-1,1E0,9.861111E-1,2.7777778E-2,3.611111E-1,2.5E-1,6.666667E-1,1E0,-1.06691234E-1,1E0,5E-1,5E-1,5E-1,5E-1,7.696518E-1,5.751207E-1,5.972435E-2,9.7222224E-2,8.079602E-1,6.38806E-1,1E0,8.4626865E-1,7.5820893E-1,3.9037207E-1,9.5114857E-1,8.745589E-2,-2.5731994E-2,1.8252026E-2,-3.8383182E-2,6.816817E-2,1.1737285E-1,3.8700737E-3,7.61893E-2,1.177067E-2,-3.7953854E-2,1.4864959E-2,-9.435042E-2,1.10949755E-1,2.998606E-2,-9.2022456E-2,-2.9228846E-2,-9.147733E-2,-3.3900492E-2,-6.816157E-2,-4.6896744E-3,-4.8439626E-2,2.1655833E-2,6.8336E-2,-6.451741E-2,9.319771E-4,-7.408533E-2,-1.0744895E-1,-1.9676002E-2],"split_indices":[15,12,18,16,18,15,5,5,5,5,5,14,0,4,9,9,10,7,18,0,19,5,18,18,1,18,18,0,19,0,0,0,0,0,0,0,0,0,0,0,0,0,0,0,0,0,0,0,0,0,0,0,0,0,0,0,0],"split_type":[0,0,0,0,0,0,0,0,0,0,0,0,0,0,0,0,0,0,0,0,0,0,0,0,0,0,0,0,0,0,0,0,0,0,0,0,0,0,0,0,0,0,0,0,0,0,0,0,0,0,0,0,0,0,0,0,0],"sum_hessian":[1.0324247E3,6.686673E2,3.6375748E2,4.8511664E2,1.8355064E2,2.5847043E2,1.05287056E2,1.275366E2,3.5758002E2,1.2359807E2,5.995257E1,1.2049392E2,1.379765E2,8.018326E1,2.5103794E1,2.5230103E1,1.02306496E2,2.5211826E2,1.0546178E2,9.4160675E1,2.9437397E1,4.90925E1,1.0860075E1,8.4536E1,3.5957916E1,5.768271E1,2.2500553E1,8.6085205E0,1.6495274E1,2.2584383E1,2.6457195E0,7.182538E1,3.0481121E1,1.3168933E2,1.2042892E2,7.3166954E1,3.2294827E1,5.7982567E1,3.6178104E1,3.2985356E0,2.613886E1,9.320818E0,3.977168E1,4.2724457E0,6.587629E0,7.622834E1,8.307661E0,1.6138117E1,1.98198E1,2.539523E1,3.228748E1,1.1745499E0,2.1326002E1,3.1120474E0,5.496473E0,1.533118E1,1.1640948E0],"tree_param":{"num_deleted":"0","num_feature":"20","num_nodes":"57","size_leaf_vector":"1"}},{"base_weights":[-9.79616E-3,3.566599E-1,-7.201075E-1,5.2733546E-1,-8.069342E-2,-3.6789897E-1,-8.7714267E-1,8.080812E-1,3.2581732E-1,-1.7593092E-1,3.6637312E-1,-5.557541E-1,-8.97553E-2,-9.622295E-1,-4.0949145E-1,5.879516E-1,1.1968435E0,2.3902366E-2,5.752659E-1,3.355227E-1,-3.1310922E-1,1.0924921E0,-1.9798408E-1,2.3146665E-1,-6.284086E-1,-7.911238E-1,3.5707034E-2,-4.701308E-1,-9.8925906E-1,3.699141E-1,-7.7742535E-1,3.527545E-2,9.593532E-2,1.2252875E-1,-2.2877743E-2,-3.404527E-2,1.7321218E-2,6.7446018E-3,7.328999E-2,5.4905888E-2,-1.4928999E-2,-5.0520245E-3,-5.5157136E-2,1.43495E-1,6.574128E-2,-2.8682396E-2,6.595116E-2,-6.686063E-2,1.2055979E-1,-9.150476E-2,-3.319175E-2,-3.7963297E-2,-9.604759E-2,7.605857E-2,-2.1812603E-2,1.5142689E-2,-7.930712E-2,-1.0509858E-1,-8.337601E-2,8.125185E-2,-6.1947364E-2,-2.5009383E-2,-9.231001E-2],"categories":[],"categories_nodes":[],"categories_segments":[],"categories_sizes":[],"default_left":[0,0,0,0,0,0,0,0,0,0,0,0,0,0,0,0,0,0,0,0,0,0,0,0,0,0,0,0,0,0,0,0,0,0,0,0,0,0,0,0,0,0,0,0,0,0,0,0,0,0,0,0,0,0,0,0,0,0,0,0,0,0,0],"id":7,"left_children":[1,3,5,7,9,11,13,15,17,19,21,23,25,27,29,31,33,35,37,39,41,43,45,47,49,51,53,55,57,59,61,-1,-1,-1,-1,-1,-1,-1,-1,-1,-1,-1,-1,-1,-1,-1,-1,-1,-1,-1,-1,-1,-1,-1,-1,-1,-1,-1,-1,-1,-1,-1,-1],"loss_changes":[2.6531647E2,5.0234688E1,1.8863312E1,2.7107452E1,8.137741E0,5.629343E0,9.123779E0,1.6538712E1,2.1323067E1,1.1119539E1,1.3994978E1,3.845005E0,3.9888158E0,2.2168884E0,1.1345936E1,1.1070396E1,3.1948624E0,7.0887384E0,1.2365639E1,3.569144E0,7.7558537E0,1.2704201E0,1.6949201E0,6.238784E0,4.7518177E0,1.14313126E-1,7.3668666E0,2.6099226E0,9.4963074E-1,6.215291E0,1.8062267E0,0E0,0E0,0E0,0E0,0E0,0E0,0E0,0E0,0E0,0E0,0E0,0E0,0E0,0E0,0E0,0E0,0E0,0E0,0E0,0E0,0E0,0E0,0E0,0E0,0E0,0E0,0E0,0E0,0E0,0E0,0E0,0E0],"parents":[2147483647,0,0,1,1,2,2,3,3,4,4,5,5,6,6,7,7,8,8,9,9,10,10,11,11,12,12,13,13,14,14,15,15,16,16,17,17,18,18,19,19,20,20,21,21,22,22,23,23,24,24,25,25,26,26,27,27,28,28,29,29,30,30],"right_children":[2,4,6,8,10,12,14,16,18,20,22,24,26,28,30,32,34,36,38,40,42,44,46,48,50,52,54,56,58,60,62,-1,-1,-1,-1,-1,-1,-1,-1,-1,-1,-1,-1,-1,-1,-1,-1,-1,-1,-1,-1,-1,-1,-1,-1,-1,-1,-1,-1,-1,-1,-1,-1],"split_conditions":[5E-1,5E-1,5E-1,1.1111111E-1,7.2935325E-1,6.666667E-1,8.39801E-1,5.716418E-1,6.4626867E-1,2.7777778E-2,4.1666666E-1,3.3333334E-1,1.4044306E-1,5.9074126E-2,7.9739666E-1,6.404288E-1,8.5771143E-1,1E0,5E-1,7.0746946E-1,5E-1,5.6745243E-1,9.308458E-1,1E0,7.477612E-1,5E-1,3.166714E-1,1E0,5.154229E-1,9.1791046E-1,1E0,3.527545E-2,9.593532E-2,1.2252875E-1,-2.2877743E-2,-3.404527E-2,1.7321218E-2,6.7446018E-3,7.328999E-2,5.4905888E-2,-1.4928999E-2,-5.0520245E-3,-5.5157136E-2,1.43495E-1,6.574128E-2,-2.8682396E-2,6.595116E-2,-6.686063E-2,1.2055979E-1,-9.150476E-2,-3.319175E-2,-3.7963297E-2,-9.604759E-2,7.605857E-2,-2.1812603E-2,1.5142689E-2,-7.930712E-2,-1.0509858E-1,-8.337601E-2,8.125185E-2,-6.1947364E-2,-2.5009383E-2,-9.231001E-2],"split_indices":[15,9,9,5,18,17,18,18,18,5,5,5,0,0,19,19,18,16,7,0,14,0,18,1,18,10,0,15,18,18,3,0,0,0,0,0,0,0,0,0,0,0,0,0,0,0,0,0,0,0,0,0,0,0,0,0,0,0,0,0,0,0,0],"split_type":[0,0,0,0,0,0,0,0,0,0,0,0,0,0,0,0,0,0,0,0,0,0,0,0,0,0,0,0,0,0,0,0,0,0,0,0,0,0,0,0,0,0,0,0,0,0,0,0,0,0,0,0,0,0,0,0,0,0,0,0,0,0,0],"sum_hessian":[1.0172935E3,6.714066E2,3.4588687E2,4.8279276E2,1.8861388E2,1.0769177E2,2.3819511E2,2.0048135E2,2.823114E2,1.5599016E2,3.2623726E1,6.3682938E1,4.4008835E1,2.0063332E2,3.75618E1,1.2960641E2,7.087494E1,1.2821944E2,1.5409196E2,3.268436E1,1.2330579E2,1.3857908E1,1.876582E1,5.196147E0,5.848679E1,5.8727727E0,3.813606E1,1.140412E1,1.8922919E2,1.2043758E1,2.551804E1,8.054779E1,4.905862E1,6.962628E1,1.2486553E0,3.6898136E1,9.13213E1,3.683985E1,1.1725211E2,2.2598372E1,1.0085989E1,5.9260914E1,6.404488E1,6.4683967E0,7.389511E0,1.7607159E1,1.15866E0,2.863751E0,2.3323958E0,2.8676718E1,2.9810072E1,2.657433E0,3.2153397E0,9.372975E0,2.8763086E1,4.08086E0,7.3232603E0,1.3133553E2,5.789366E1,8.444751E0,3.5990076E0,6.1115365E0,1.9406502E1],"tree_param":{"num_deleted":"0","num_feature":"20","num_nodes":"63","size_leaf_vector":"1"}},{"base_weights":[-9.950986E-3,3.215285E-1,-6.851188E-1,4.7278625E-1,-8.8188976E-2,-3.4151354E-1,-8.4431946E-1,6.9148624E-1,2.607043E-1,5.9802566E-2,-3.7149128E-1,-1.9230148E-1,-6.577928E-1,-9.319347E-1,-3.826783E-1,5.062502E-1,1.0806128E0,-1.8696067E-1,3.9798826E-1,-7.2920136E-2,6.957496E-1,-6.3369024E-1,1.9016266E-1,8.781565E-2,-4.5683235E-1,-1.6242144E-1,-8.2761794E-1,-4.427338E-1,-9.598861E-1,3.2745528E-1,-7.398687E-1,2.5820509E-2,8.570265E-2,1.16330795E-1,-2.0481742E-3,1.3774335E-2,-4.179765E-2,4.8038177E-2,-2.3831107E-2,9.839894E-3,-3.5421755E-2,9.241324E-2,-8.4605245E-3,2.6079988E-2,-6.9711305E-2,5.9853286E-2,-3.3894427E-2,-4.258148E-2,7.650974E-2,-5.86027E-2,4.006576E-2,-5.9195686E-2,6.563117E-2,-1.0051461E-1,-2.9514527E-2,1.3826887E-2,-7.620742E-2,-1.025571E-1,-7.97896E-2,7.131982E-2,-5.856474E-2,-1.3899152E-2,-8.6897396E-2],"categories":[],"categories_nodes":[],"categories_segments":[],"categories_sizes":[],"default_left":[0,0,0,0,0,0,0,0,0,0,0,0,0,0,0,0,0,0,0,0,0,0,0,0,0,0,0,0,0,0,0,0,0,0,0,0,0,0,0,0,0,0,0,0,0,0,0,0,0,0,0,0,0,0,0,0,0,0,0,0,0,0,0],"id":8,"left_children":[1,3,5,7,9,11,13,15,17,19,21,23,25,27,29,31,33,35,37,39,41,43,45,47,49,51,53,55,57,59,61,-1,-1,-1,-1,-1,-1,-1,-1,-1,-1,-1,-1,-1,-1,-1,-1,-1,-1,-1,-1,-1,-1,-1,-1,-1,-1,-1,-1,-1,-1,-1,-1],"loss_changes":[2.243836E2,4.17164E1,1.7770935E1,2.2607536E1,7.659612E0,4.8857985E0,8.741028E0,1.6843933E1,1.5502073E1,1.0222971E1,9.345881E0,5.4921565E0,2.6949139E0,2.150528E0,9.773673E0,1.4164848E1,7.028778E0,4.5279627E0,1.0203268E1,4.88358E0,3.8037014E0,2.6177406E0,4.676942E0,1.304907E1,4.444839E0,3.8456218E0,2.0477943E0,2.3385544E0,1.0684052E0,5.0911717E0,1.8425236E0,0E0,0E0,0E0,0E0,0E0,0E0,0E0,0E0,0E0,0E0,0E0,0E0,0E0,0E0,0E0,0E0,0E0,0E0,0E0,0E0,0E0,0E0,0E0,0E0,0E0,0E0,0E0,0E0,0E0,0E0,0E0,0E0],"parents":[2147483647,0,0,1,1,2,2,3,3,4,4,5,5,6,6,7,7,8,8,9,9,10,10,11,11,12,12,13,13,14,14,15,15,16,16,17,17,18,18,19,19,20,20,21,21,22,22,23,23,24,24,25,25,26,26,27,27,28,28,29,29,30,30],"right_children":[2,4,6,8,10,12,14,16,18,20,22,24,26,28,30,32,34,36,38,40,42,44,46,48,50,52,54,56,58,60,62,-1,-1,-1,-1,-1,-1,-1,-1,-1,-1,-1,-1,-1,-1,-1,-1,-1,-1,-1,-1,-1,-1,-1,-1,-1,-1,-1,-1,-1,-1,-1,-1],"split_conditions":[5E-1,5E-1,5E-1,1.5277778E-1,2.777778E-1,1E0,8.39801E-1,8.061256E-1,5E-1,6.507463E-1,7.995025E-1,4.778472E-1,5E-1,5.9074126E-2,7.9739666E-1,5E-1,9.4788414E-1,1E0,7.777778E-1,5.7881284E-1,8.1439507E-1,1.442786E-2,6.25E-1,2.6569158E-1,1E0,9.722222E-1,8.7412935E-1,1E0,5.154229E-1,9.1791046E-1,5E-1,2.5820509E-2,8.570265E-2,1.16330795E-1,-2.0481742E-3,1.3774335E-2,-4.179765E-2,4.8038177E-2,-2.3831107E-2,9.839894E-3,-3.5421755E-2,9.241324E-2,-8.4605245E-3,2.6079988E-2,-6.9711305E-2,5.9853286E-2,-3.3894427E-2,-4.258148E-2,7.650974E-2,-5.86027E-2,4.006576E-2,-5.9195686E-2,6.563117E-2,-1.0051461E-1,-2.9514527E-2,1.3826887E-2,-7.620742E-2,-1.025571E-1,-7.97896E-2,7.131982E-2,-5.856474E-2,-1.3899152E-2,-8.6897396E-2],"split_indices":[15,12,9,5,5,15,18,19,8,18,18,0,12,0,19,7,0,6,5,0,19,18,5,0,17,5,18,15,18,18,10,0,0,0,0,0,0,0,0,0,0,0,0,0,0,0,0,0,0,0,0,0,0,0,0,0,0,0,0,0,0,0,0],"split_type":[0,0,0,0,0,0,0,0,0,0,0,0,0,0,0,0,0,0,0,0,0,0,0,0,0,0,0,0,0,0,0,0,0,0,0,0,0,0,0,0,0,0,0,0,0,0,0,0,0,0,0,0,0,0,0,0,0,0,0,0,0,0,0],"sum_hessian":[1.0006043E3,6.71466E2,3.2913824E2,4.903038E2,1.8116223E2,1.05209076E2,2.2392918E2,2.402728E2,2.5003099E2,1.1951754E2,6.1644695E1,7.257714E1,3.263193E1,1.8735265E2,3.6576546E1,1.6434201E2,7.59308E1,5.859583E1,1.9143517E2,9.961346E1,1.990408E1,4.193825E1,1.9706446E1,3.5574554E1,3.7002586E1,8.830426E0,2.3801506E1,1.10362835E1,1.7631636E2,1.2268558E1,2.430799E1,9.728487E1,6.705714E1,7.0574005E1,5.356796E0,2.4526453E1,3.4069374E1,1.6970529E2,2.1729864E1,6.2313034E1,3.7300423E1,1.5255175E1,4.6489058E0,2.5706553E0,3.9367596E1,1.1048153E1,8.658293E0,2.04427E1,1.5131852E1,3.2432667E1,4.5699224E0,5.973506E0,2.8569207E0,1.7184456E1,6.61705E0,4.1155457E0,6.920738E0,1.21655464E2,5.4660892E1,8.77884E0,3.4897175E0,4.666394E0,1.9641594E1],"tree_param":{"num_deleted":"0","num_feature":"20","num_nodes":"63","size_leaf_vector":"1"}},{"base_weights":[-1.0229814E-2,2.8976765E-1,-6.5124416E-1,4.3092653E-1,-7.801743E-2,-4.197047E-1,-8.926459E-1,7.571973E-2,5.519726E-1,3.1732297E-1,-1.6629498E-1,-7.6817596E-1,-1.01888545E-1,-9.788568E-1,-5.1066744E-1,5.196116E-1,-1.07462585E-1,7.333231E-1,2.8457958E-1,5.7348303E-2,6.793973E-1,-5.71891E-1,1.1911545E-2,-5.961301E-1,-8.974433E-1,-1.4263919E-1,1.011456E0,-7.888608E-1,-1.0172421E0,-1.9080599E-1,-1.0479213E-1,2.7737075E-2,1.3177644E-1,2.6090711E-2,-3.417922E-2,5.1093638E-2,1.00468695E-1,-9.567264E-3,4.87585E-2,3.170849E-2,-7.6077424E-2,-8.698849E-2,9.056921E-2,6.272491E-2,-6.331885E-2,2.5938833E-2,-3.8556054E-2,-6.623529E-2,7.693601E-2,-2.3139477E-2,-9.322857E-2,-8.879297E-3,-9.939688E-2,1.7087823E-1,-1.7571626E-2,-4.5197826E-2,-9.522335E-2,-1.0403804E-1,-6.02655E-2,-5.0003525E-2,9.382382E-3],"categories":[],"categories_nodes":[],"categories_segments":[],"categories_sizes":[],"default_left":[0,0,0,0,0,0,0,0,0,0,0,0,0,0,0,0,0,0,0,0,0,0,0,0,0,0,0,0,0,0,0,0,0,0,0,0,0,0,0,0,0,0,0,0,0,0,0,0,0,0,0,0,0,0,0,0,0,0,0,0,0],"id":9,"left_children":[1,3,5,7,9,11,13,15,17,19,21,23,25,27,29,31,33,35,37,39,41,43,45,47,49,51,53,55,57,59,-1,-1,-1,-1,-1,-1,-1,-1,-1,-1,-1,-1,-1,-1,-1,-1,-1,-1,-1,-1,-1,-1,-1,-1,-1,-1,-1,-1,-1,-1,-1],"loss_changes":[1.8970616E2,3.4922447E1,1.7203644E1,2.0845276E1,6.5872674E0,1.790898E1,4.5411835E0,1.0189742E1,1.7353027E1,3.210526E0,1.1117336E1,1.184536E0,4.050398E0,1.0042572E-1,5.003305E0,6.7066736E0,7.775975E0,1.2471405E1,1.1470703E1,4.7431493E0,5.813743E0,3.8476229E0,1.0701126E1,3.778386E0,7.628746E-1,3.7592688E0,2.919238E0,9.599781E-1,3.2788086E-1,1.8249797E0,0E0,0E0,0E0,0E0,0E0,0E0,0E0,0E0,0E0,0E0,0E0,0E0,0E0,0E0,0E0,0E0,0E0,0E0,0E0,0E0,0E0,0E0,0E0,0E0,0E0,0E0,0E0,0E0,0E0,0E0,0E0],"parents":[2147483647,0,0,1,1,2,2,3,3,4,4,5,5,6,6,7,7,8,8,9,9,10,10,11,11,12,12,13,13,14,14,15,15,16,16,17,17,18,18,19,19,20,20,21,21,22,22,23,23,24,24,25,25,26,26,27,27,28,28,29,29],"right_children":[2,4,6,8,10,12,14,16,18,20,22,24,26,28,30,32,34,36,38,40,42,44,46,48,50,52,54,56,58,60,-1,-1,-1,-1,-1,-1,-1,-1,-1,-1,-1,-1,-1,-1,-1,-1,-1,-1,-1,-1,-1,-1,-1,-1,-1,-1,-1,-1,-1,-1,-1],"split_conditions":[5E-1,5E-1,1E0,1E0,2.7777778E-2,1E0,8.4626865E-1,4.1666668E-2,2.361111E-1,1E0,1.1343284E-1,4.5995456E-1,9.243491E-1,5E-1,9.059724E-1,5.716418E-1,3.9037207E-1,5E-1,1E0,7.617154E-1,3.3333334E-1,2.7833002E-2,4.1666666E-1,4.528543E-1,1.388889E-1,9.861111E-1,4.103948E-1,4.3396762E-1,1E0,1E0,-1.0479213E-1,2.7737075E-2,1.3177644E-1,2.6090711E-2,-3.417922E-2,5.1093638E-2,1.00468695E-1,-9.567264E-3,4.87585E-2,3.170849E-2,-7.6077424E-2,-8.698849E-2,9.056921E-2,6.272491E-2,-6.331885E-2,2.5938833E-2,-3.8556054E-2,-6.623529E-2,7.693601E-2,-2.3139477E-2,-9.322857E-2,-8.879297E-3,-9.939688E-2,1.7087823E-1,-1.7571626E-2,-4.5197826E-2,-9.522335E-2,-1.0403804E-1,-6.02655E-2,-5.0003525E-2,9.382382E-3],"split_indices":[15,9,15,16,5,14,18,5,5,16,18,0,19,10,19,18,0,7,7,0,17,0,5,0,5,5,0,0,2,1,0,0,0,0,0,0,0,0,0,0,0,0,0,0,0,0,0,0,0,0,0,0,0,0,0,0,0,0,0,0,0],"split_type":[0,0,0,0,0,0,0,0,0,0,0,0,0,0,0,0,0,0,0,0,0,0,0,0,0,0,0,0,0,0,0,0,0,0,0,0,0,0,0,0,0,0,0,0,0,0,0,0,0,0,0,0,0,0,0,0,0,0,0,0,0],"sum_hessian":[9.845165E2,6.710229E2,3.1349362E2,4.847863E2,1.8623659E2,1.6141333E2,1.5208029E2,1.2362812E2,3.6115814E2,3.352122E1,1.5271536E2,7.631752E1,8.509581E1,1.2280184E2,2.9278446E1,3.557802E1,8.80501E1,2.1416522E2,1.4699294E2,2.0185865E1,1.3335358E1,4.594223E1,1.0677314E2,3.5148674E1,4.116885E1,8.2932205E1,2.1636028E0,2.4262215E1,9.853963E1,1.9201637E1,1.0076808E1,2.8327948E1,7.2500696E0,3.41898E1,5.3860306E1,1.19288994E2,9.487623E1,5.1345562E1,9.564737E1,1.578643E1,4.399434E0,1.3371044E0,1.1998254E1,1.7852465E0,4.4156982E1,6.601675E1,4.0756393E1,3.4014015E1,1.1346586E0,2.426421E0,3.874243E1,7.903742E1,3.8947833E0,1.086209E0,1.0773939E0,9.153595E0,1.510862E1,9.190116E1,6.6384654E0,8.840403E0,1.0361236E1],"tree_param":{"num_deleted":"0","num_feature":"20","num_nodes":"61","size_leaf_vector":"1"}},{"base_weights":[-1.042306E-2,2.6134676E-1,-6.1802185E-1,3.873394E-1,-8.572587E-2,-2.8283858E-1,-7.83898E-1,6.544323E-2,5.0003785E-1,4.541465E-2,-3.4183815E-1,-4.6355012E-1,-3.082107E-2,-8.768104E-1,-3.3216196E-1,2.104295E-1,-3.4240893E-1,6.2338513E-1,1.1090058E-1,-6.809812E-2,5.8267814E-1,-5.859531E-1,1.5870866E-1,-7.1750444E-1,-1.9587752E-1,-3.5605934E-1,2.2697051E-1,-3.6834356E-1,-9.0766096E-1,3.0332893E-1,-6.8136543E-1,9.6788704E-2,1.1730593E-2,-4.7685046E-2,2.462159E-2,5.022194E-2,1.0594624E-1,-1.3111795E-2,5.6757182E-2,8.051218E-3,-3.191193E-2,7.8830376E-2,-1.1366165E-2,2.8671145E-2,-6.502217E-2,4.2483937E-2,-5.280162E-2,-1.3934987E-2,-9.471139E-2,6.407614E-2,-3.865997E-2,-4.6049338E-2,6.358427E-2,7.2181344E-2,-1.0438742E-2,-6.05069E-2,3.7572227E-2,-9.813107E-2,-7.3315084E-2,-2.1188505E-2,9.2237085E-2,-1.5557358E-2,-8.398451E-2],"categories":[],"categories_nodes":[],"categories_segments":[],"categories_sizes":[],"default_left":[0,0,0,0,0,0,0,0,0,0,0,0,0,0,0,0,0,0,0,0,0,0,0,0,0,0,0,0,0,0,0,0,0,0,0,0,0,0,0,0,0,0,0,0,0,0,0,0,0,0,0,0,0,0,0,0,0,0,0,0,0,0,0],"id":10,"left_children":[1,3,5,7,9,11,13,15,17,19,21,23,25,27,29,31,33,35,37,39,41,43,45,47,49,51,53,55,57,59,61,-1,-1,-1,-1,-1,-1,-1,-1,-1,-1,-1,-1,-1,-1,-1,-1,-1,-1,-1,-1,-1,-1,-1,-1,-1,-1,-1,-1,-1,-1,-1,-1],"loss_changes":[1.603925E2,2.9382309E1,1.6468231E1,1.7837173E1,6.046749E0,4.5828123E0,8.113365E0,7.693649E0,1.7436302E1,7.336307E0,7.537854E0,3.8507643E0,3.704964E0,2.2613678E0,8.144554E0,6.63731E0,2.8224878E0,1.4088562E1,9.910423E0,3.7438183E0,3.0927277E0,2.4953146E0,4.018444E0,3.8179235E0,5.0285206E0,2.3129413E0,4.1292534E0,2.1910439E0,1.2769089E0,4.4618983E0,1.8185959E0,0E0,0E0,0E0,0E0,0E0,0E0,0E0,0E0,0E0,0E0,0E0,0E0,0E0,0E0,0E0,0E0,0E0,0E0,0E0,0E0,0E0,0E0,0E0,0E0,0E0,0E0,0E0,0E0,0E0,0E0,0E0,0E0],"parents":[2147483647,0,0,1,1,2,2,3,3,4,4,5,5,6,6,7,7,8,8,9,9,10,10,11,11,12,12,13,13,14,14,15,15,16,16,17,17,18,18,19,19,20,20,21,21,22,22,23,23,24,24,25,25,26,26,27,27,28,28,29,29,30,30],"right_children":[2,4,6,8,10,12,14,16,18,20,22,24,26,28,30,32,34,36,38,40,42,44,46,48,50,52,54,56,58,60,62,-1,-1,-1,-1,-1,-1,-1,-1,-1,-1,-1,-1,-1,-1,-1,-1,-1,-1,-1,-1,-1,-1,-1,-1,-1,-1,-1,-1,-1,-1,-1,-1],"split_conditions":[5E-1,5E-1,5E-1,1E0,2.777778E-1,6.666667E-1,8.39801E-1,5E-1,4.3055555E-1,6.507463E-1,7.995025E-1,6.451761E-1,6.243781E-1,5.9074126E-2,7.9739666E-1,1.0621982E-1,1E0,7.119403E-1,7.696518E-1,5.7881284E-1,8.1439507E-1,1.442786E-2,6.961715E-1,3.447167E-1,7.035222E-1,9.583333E-1,5E-1,4.757171E-2,5.154229E-1,6.9954056E-1,1E0,9.6788704E-2,1.1730593E-2,-4.7685046E-2,2.462159E-2,5.022194E-2,1.0594624E-1,-1.3111795E-2,5.6757182E-2,8.051218E-3,-3.191193E-2,7.8830376E-2,-1.1366165E-2,2.8671145E-2,-6.502217E-2,4.2483937E-2,-5.280162E-2,-1.3934987E-2,-9.471139E-2,6.407614E-2,-3.865997E-2,-4.6049338E-2,6.358427E-2,7.2181344E-2,-1.0438742E-2,-6.05069E-2,3.7572227E-2,-9.813107E-2,-7.3315084E-2,-2.1188505E-2,9.2237085E-2,-1.5557358E-2,-8.398451E-2],"split_indices":[15,12,9,16,5,17,18,10,5,18,18,19,18,0,19,0,2,18,18,0,19,18,19,19,19,5,10,0,18,19,3,0,0,0,0,0,0,0,0,0,0,0,0,0,0,0,0,0,0,0,0,0,0,0,0,0,0,0,0,0,0,0,0],"split_type":[0,0,0,0,0,0,0,0,0,0,0,0,0,0,0,0,0,0,0,0,0,0,0,0,0,0,0,0,0,0,0,0,0,0,0,0,0,0,0,0,0,0,0,0,0,0,0,0,0,0,0,0,0,0,0,0,0,0,0,0,0,0,0],"sum_hessian":[9.693499E2,6.7016504E2,2.9918488E2,4.915932E2,1.7857184E2,9.9940926E1,1.9924396E2,1.2788911E2,3.637041E2,1.1864378E2,5.992805E1,5.7715862E1,4.2225063E1,1.6447417E2,3.476979E1,9.4706276E1,3.318283E1,2.7570892E2,8.799517E1,9.867007E1,1.9973715E1,4.016775E1,1.97603E1,2.8754501E1,2.8961359E1,1.8501621E1,2.3723442E1,1.0148599E1,1.5432558E2,1.2377045E1,2.2392746E1,9.340231E0,8.536605E1,2.7167646E1,6.0151825E0,2.1744318E2,5.826575E1,5.798055E1,3.0014622E1,6.2404453E1,3.6265614E1,1.5318246E1,4.655469E0,2.517876E0,3.7649876E1,1.45161295E1,5.2441697E0,8.630324E0,2.0124178E1,4.9384146E0,2.4022945E1,1.722392E1,1.2777016E0,9.041985E0,1.4681457E1,7.840835E0,2.3077638E0,1.0527316E2,4.905241E1,7.113973E0,5.263071E0,5.645197E0,1.674755E1],"tree_param":{"num_deleted":"0","num_feature":"20","num_nodes":"63","size_leaf_vector":"1"}},{"base_weights":[-1.0254796E-2,2.3577759E-1,-5.854244E-1,3.5580212E-1,-8.010236E-2,-3.5392472E-1,-8.4043574E-1,4.1505698E-2,4.691139E-1,2.804557E-1,-1.6211943E-1,-7.008304E-1,-6.272536E-2,-9.342866E-1,-4.5297247E-1,5.2623606E-1,-9.344088E-2,5.65648E-1,1.0649396E-1,1.9597422E-1,1.3089608E-1,-5.2816135E-1,-7.948685E-3,-5.195363E-1,-8.415776E-1,1.3331746E-1,-2.8301305E-1,-7.330808E-1,-9.7655255E-1,-1.459535E-1,-1.014651E-1,2.4162216E-2,1.2600322E-1,-2.2380812E-2,5.6648254E-2,2.5131792E-2,6.497613E-2,3.0526657E-2,-3.1726487E-2,3.8606975E-2,-2.503421E-2,5.6912016E-2,-5.8861624E-2,2.0114528E-2,-3.547538E-2,-5.8912892E-2,7.5088166E-2,-1.6629487E-2,-8.797012E-2,-5.6028306E-2,2.6908765E-2,-4.2765137E-2,5.705523E-2,-3.89948E-2,-9.0876095E-2,-1.0026099E-1,-5.356274E-2,-4.39475E-2,1.671909E-2],"categories":[],"categories_nodes":[],"categories_segments":[],"categories_sizes":[],"default_left":[0,0,0,0,0,0,0,0,0,0,0,0,0,0,0,0,0,0,0,0,0,0,0,0,0,0,0,0,0,0,0,0,0,0,0,0,0,0,0,0,0,0,0,0,0,0,0,0,0,0,0,0,0,0,0,0,0,0,0],"id":11,"left_children":[1,3,5,7,9,11,13,15,17,19,21,23,25,27,29,31,33,35,37,39,-1,41,43,45,47,49,51,53,55,57,-1,-1,-1,-1,-1,-1,-1,-1,-1,-1,-1,-1,-1,-1,-1,-1,-1,-1,-1,-1,-1,-1,-1,-1,-1,-1,-1,-1,-1],"loss_changes":[1.3542424E2,2.5442055E1,1.6628479E1,1.728598E1,5.5275793E0,1.53119335E1,4.511345E0,8.543792E0,1.2438789E1,2.7603698E0,8.5545025E0,1.330349E0,3.6540546E0,2.0510101E-1,4.749545E0,5.6332645E0,8.939186E0,7.286255E0,6.523885E0,2.9186506E0,0E0,3.3155546E0,7.883396E0,3.350071E0,8.1612015E-1,4.3872395E0,5.1516256E0,1.0207291E0,4.5664978E-1,1.8686973E0,0E0,0E0,0E0,0E0,0E0,0E0,0E0,0E0,0E0,0E0,0E0,0E0,0E0,0E0,0E0,0E0,0E0,0E0,0E0,0E0,0E0,0E0,0E0,0E0,0E0,0E0,0E0,0E0,0E0],"parents":[2147483647,0,0,1,1,2,2,3,3,4,4,5,5,6,6,7,7,8,8,9,9,10,10,11,11,12,12,13,13,14,14,15,15,16,16,17,17,18,18,19,19,21,21,22,22,23,23,24,24,25,25,26,26,27,27,28,28,29,29],"right_children":[2,4,6,8,10,12,14,16,18,20,22,24,26,28,30,32,34,36,38,40,-1,42,44,46,48,50,52,54,56,58,-1,-1,-1,-1,-1,-1,-1,-1,-1,-1,-1,-1,-1,-1,-1,-1,-1,-1,-1,-1,-1,-1,-1,-1,-1,-1,-1,-1,-1],"split_conditions":[5E-1,5E-1,1E0,6.666667E-1,2.7777778E-2,1E0,8.4626865E-1,9.7222224E-2,1E0,1E0,1.1343284E-1,4.5995456E-1,5.0454414E-1,5E-1,9.059724E-1,1E0,7.8109455E-1,1E0,1.388889E-1,6.921329E-1,1.3089608E-1,2.7833002E-2,4.1666666E-1,4.528543E-1,1.388889E-1,3.6018378E-1,1E0,4.3396762E-1,1E0,4.8537347E-1,-1.014651E-1,2.4162216E-2,1.2600322E-1,-2.2380812E-2,5.6648254E-2,2.5131792E-2,6.497613E-2,3.0526657E-2,-3.1726487E-2,3.8606975E-2,-2.503421E-2,5.6912016E-2,-5.8861624E-2,2.0114528E-2,-3.547538E-2,-5.8912892E-2,7.5088166E-2,-1.6629487E-2,-8.797012E-2,-5.6028306E-2,2.6908765E-2,-4.2765137E-2,5.705523E-2,-3.89948E-2,-9.0876095E-2,-1.0026099E-1,-5.356274E-2,-4.39475E-2,1.671909E-2],"split_indices":[15,9,15,17,5,14,18,5,17,2,18,0,0,10,19,7,18,16,5,0,0,0,5,0,5,19,17,0,2,0,0,0,0,0,0,0,0,0,0,0,0,0,0,0,0,0,0,0,0,0,0,0,0,0,0,0,0,0,0],"split_type":[0,0,0,0,0,0,0,0,0,0,0,0,0,0,0,0,0,0,0,0,0,0,0,0,0,0,0,0,0,0,0,0,0,0,0,0,0,0,0,0,0,0,0,0,0,0,0,0,0,0,0,0,0,0,0,0,0,0,0],"sum_hessian":[9.5501636E2,6.6930646E2,2.8570993E2,4.8492404E2,1.843824E2,1.5101036E2,1.3469957E2,1.2886192E2,3.5606213E2,3.3720974E1,1.5066142E2,6.827165E1,8.27387E1,1.0729857E2,2.7400997E1,2.7430725E1,1.01431206E2,2.8076022E2,7.53019E1,3.226155E1,1.4594235E0,4.393125E1,1.0673017E2,3.1888226E1,3.638343E1,4.3987377E1,3.8751324E1,2.1811256E1,8.548731E1,1.8531403E1,8.869594E0,2.0722479E1,6.7082477E0,8.525084E1,1.6180365E1,6.011169E1,2.2064853E2,5.144855E1,2.3853355E1,2.2719725E1,9.541823E0,1.8546486E0,4.2076603E1,6.684708E1,3.9883095E1,3.0740551E1,1.1476748E0,2.2308285E0,3.41526E1,6.6890016E0,3.7298374E1,3.3562992E1,5.1883316E0,8.475951E0,1.3335306E1,7.951439E1,5.972924E0,9.357168E0,9.174234E0],"tree_param":{"num_deleted":"0","num_feature":"20","num_nodes":"59","size_leaf_vector":"1"}},{"base_weights":[-1.021439E-2,2.1313618E-1,-5.544283E-1,-1.2933732E-2,3.615627E-1,-3.2876447E-1,-8.126379E-1,3.000346E-1,-2.2419053E-1,6.242757E-1,1.4281802E-1,-6.677274E-1,-5.7342045E-2,-9.103008E-1,-4.2620105E-1,2.1717517E-1,1.0640908E0,4.593077E-2,-3.3362257E-1,4.6402073E-1,8.506415E-1,2.2055292E-1,-3.2245168E-1,-9.1333854E-1,-5.4446036E-1,-9.7183414E-2,9.714299E-1,-7.033886E-1,-9.5485634E-1,-1.3417947E-1,-9.951819E-2,-1.532343E-3,4.62667E-2,1.4166525E-1,6.015594E-2,2.310719E-2,-5.7261568E-2,3.3594996E-2,-3.8965087E-2,7.536995E-2,3.390653E-2,6.73294E-2,1.1680337E-1,-8.4094405E-2,2.6333094E-2,7.495208E-2,-4.482801E-2,-1.6967257E-2,-9.920827E-2,-7.7834874E-2,-2.5160251E-2,-4.640496E-3,-9.470671E-2,-1.5544831E-2,1.5874296E-1,-3.6503937E-2,-8.837224E-2,-9.8239884E-2,-5.0851114E-2,-4.4138562E-2,1.3590211E-2],"categories":[],"categories_nodes":[],"categories_segments":[],"categories_sizes":[],"default_left":[0,0,0,0,0,0,0,0,0,0,0,0,0,0,0,0,0,0,0,0,0,0,0,0,0,0,0,0,0,0,0,0,0,0,0,0,0,0,0,0,0,0,0,0,0,0,0,0,0,0,0,0,0,0,0,0,0,0,0,0,0],"id":12,"left_children":[1,3,5,7,9,11,13,15,17,19,21,23,25,27,29,31,33,35,37,39,41,43,45,47,49,51,53,55,57,59,-1,-1,-1,-1,-1,-1,-1,-1,-1,-1,-1,-1,-1,-1,-1,-1,-1,-1,-1,-1,-1,-1,-1,-1,-1,-1,-1,-1,-1,-1,-1],"loss_changes":[1.1464338E2,2.2444668E1,1.5724388E1,1.7655508E1,2.3112545E1,1.3590176E1,4.416916E0,6.582882E0,4.7268267E0,6.248825E0,8.085934E0,1.4941578E0,3.5109565E0,2.5717163E-1,4.446485E0,5.620921E0,8.2314587E-1,5.4956093E0,4.390911E0,3.7053642E0,3.4189377E0,8.870522E0,4.6698346E0,1.0323944E0,2.9736242E0,3.4584367E0,2.4671674E0,9.982767E-1,4.8516083E-1,1.6672633E0,0E0,0E0,0E0,0E0,0E0,0E0,0E0,0E0,0E0,0E0,0E0,0E0,0E0,0E0,0E0,0E0,0E0,0E0,0E0,0E0,0E0,0E0,0E0,0E0,0E0,0E0,0E0,0E0,0E0,0E0,0E0],"parents":[2147483647,0,0,1,1,2,2,3,3,4,4,5,5,6,6,7,7,8,8,9,9,10,10,11,11,12,12,13,13,14,14,15,15,16,16,17,17,18,18,19,19,20,20,21,21,22,22,23,23,24,24,25,25,26,26,27,27,28,28,29,29],"right_children":[2,4,6,8,10,12,14,16,18,20,22,24,26,28,30,32,34,36,38,40,42,44,46,48,50,52,54,56,58,60,-1,-1,-1,-1,-1,-1,-1,-1,-1,-1,-1,-1,-1,-1,-1,-1,-1,-1,-1,-1,-1,-1,-1,-1,-1,-1,-1,-1,-1,-1,-1],"split_conditions":[5E-1,5.1044774E-1,1E0,5.5555556E-2,1.9444445E-1,1E0,8.4626865E-1,1E0,1E0,5E-1,7.638889E-1,2.4875622E-2,9.243491E-1,5E-1,9.059724E-1,1E0,5.604901E-1,1E0,5.972435E-2,2.7777778E-2,7.2189057E-1,5E-1,6.248225E-2,1.0181767E-1,6.666667E-1,9.861111E-1,2.5E-1,4.3396762E-1,1E0,1E0,-9.951819E-2,-1.532343E-3,4.62667E-2,1.4166525E-1,6.015594E-2,2.310719E-2,-5.7261568E-2,3.3594996E-2,-3.8965087E-2,7.536995E-2,3.390653E-2,6.73294E-2,1.1680337E-1,-8.4094405E-2,2.6333094E-2,7.495208E-2,-4.482801E-2,-1.6967257E-2,-9.920827E-2,-7.7834874E-2,-2.5160251E-2,-4.640496E-3,-9.470671E-2,-1.5544831E-2,1.5874296E-1,-3.6503937E-2,-8.837224E-2,-9.8239884E-2,-5.0851114E-2,-4.4138562E-2,1.3590211E-2],"split_indices":[15,18,15,5,5,14,18,2,6,7,5,18,19,10,19,16,19,4,19,5,18,8,0,0,17,5,5,0,2,1,0,0,0,0,0,0,0,0,0,0,0,0,0,0,0,0,0,0,0,0,0,0,0,0,0,0,0,0,0,0,0],"split_type":[0,0,0,0,0,0,0,0,0,0,0,0,0,0,0,0,0,0,0,0,0,0,0,0,0,0,0,0,0,0,0,0,0,0,0,0,0,0,0,0,0,0,0,0,0,0,0,0,0,0,0,0,0,0,0,0,0,0,0,0,0],"sum_hessian":[9.412029E2,6.6775726E2,2.7344562E2,2.6501822E2,4.0273907E2,1.4713202E2,1.2631359E2,1.0662999E2,1.5838823E2,1.821375E2,2.2060156E2,6.47765E1,8.235552E1,9.97488E1,2.656479E1,9.7356255E1,9.273733E0,4.5833473E1,1.12554756E2,1.0842691E2,7.3710594E1,1.8947159E2,3.1129984E1,1.9504374E1,4.5272125E1,8.0156815E1,2.1987076E0,2.0648E1,7.91008E1,1.837163E1,8.193161E0,5.0482883E1,4.6873375E1,4.091892E0,5.181842E0,3.5757187E1,1.0076285E1,8.305298E0,1.0424946E2,3.1159494E1,7.726742E1,4.9290268E1,2.4420322E1,6.61706E0,1.8285452E2,2.749492E0,2.8380491E1,2.1695654E0,1.7334808E1,2.4248499E1,2.1023624E1,7.66328E1,3.5240192E0,1.041355E0,1.1573526E0,8.23028E0,1.2417722E1,7.337225E1,5.7285447E0,8.298348E0,1.007328E1],"tree_param":{"num_deleted":"0","num_feature":"20","num_nodes":"61","size_leaf_vector":"1"}},{"base_weights":[-1.0031256E-2,1.9331731E-1,-5.244478E-1,2.9345044E-1,-8.6850785E-2,-3.052533E-1,-7.8521854E-1,6.744677E-1,2.1966377E-1,9.566521E-2,-2.666957E-1,-6.3672215E-1,-5.150449E-2,-8.8659745E-1,-4.0097794E-1,3.3447024E-1,9.6220326E-1,5.8094677E-2,4.2187884E-1,1.9571842E-1,-6.6033787E-1,-1.5723115E-1,-5.8891267E-1,-8.906026E-1,-5.1324904E-1,-8.9281924E-2,8.961486E-1,-6.7421675E-1,-9.3353313E-1,-1.2360139E-1,-9.765627E-2,7.4651055E-2,1.5126995E-2,1.0229879E-1,-4.7001126E-3,1.4117792E-2,-3.0907078E-2,6.281721E-2,1.2454272E-2,-1.35212755E-2,4.8286434E-2,-7.582094E-3,-7.628014E-2,3.1904347E-2,-2.6696226E-2,-6.869949E-2,3.137733E-2,-1.5944546E-2,-9.7346686E-2,-7.47199E-2,-2.3177868E-2,-4.194157E-3,-9.189709E-2,-1.4825131E-2,1.443123E-1,-3.412879E-2,-8.5908376E-2,-9.6266285E-2,-4.8223685E-2,-4.0564585E-2,1.6708402E-2],"categories":[],"categories_nodes":[],"categories_segments":[],"categories_sizes":[],"default_left":[0,0,0,0,0,0,0,0,0,0,0,0,0,0,0,0,0,0,0,0,0,0,0,0,0,0,0,0,0,0,0,0,0,0,0,0,0,0,0,0,0,0,0,0,0,0,0,0,0,0,0,0,0,0,0,0,0,0,0,0,0],"id":13,"left_children":[1,3,5,7,9,11,13,15,17,19,21,23,25,27,29,31,33,35,37,39,41,43,45,47,49,51,53,55,57,59,-1,-1,-1,-1,-1,-1,-1,-1,-1,-1,-1,-1,-1,-1,-1,-1,-1,-1,-1,-1,-1,-1,-1,-1,-1,-1,-1,-1,-1,-1,-1],"loss_changes":[9.718345E1,1.8706003E1,1.480471E1,1.3649582E1,5.8057904E0,1.2132496E1,4.302002E0,7.4204025E0,1.3457092E1,6.795819E0,3.045179E0,1.506052E0,3.0517633E0,3.0540466E-1,4.155819E0,2.7410827E0,2.6448784E0,7.076054E0,1.1153275E1,7.534811E0,5.727978E-1,3.6268106E0,2.1805825E0,1.0039024E0,2.7567577E0,3.1326356E0,2.0836065E0,9.7306347E-1,5.11261E-1,1.6435899E0,0E0,0E0,0E0,0E0,0E0,0E0,0E0,0E0,0E0,0E0,0E0,0E0,0E0,0E0,0E0,0E0,0E0,0E0,0E0,0E0,0E0,0E0,0E0,0E0,0E0,0E0,0E0,0E0,0E0,0E0,0E0],"parents":[2147483647,0,0,1,1,2,2,3,3,4,4,5,5,6,6,7,7,8,8,9,9,10,10,11,11,12,12,13,13,14,14,15,15,16,16,17,17,18,18,19,19,20,20,21,21,22,22,23,23,24,24,25,25,26,26,27,27,28,28,29,29],"right_children":[2,4,6,8,10,12,14,16,18,20,22,24,26,28,30,32,34,36,38,40,42,44,46,48,50,52,54,56,58,60,-1,-1,-1,-1,-1,-1,-1,-1,-1,-1,-1,-1,-1,-1,-1,-1,-1,-1,-1,-1,-1,-1,-1,-1,-1,-1,-1,-1,-1,-1,-1],"split_conditions":[5E-1,5E-1,1E0,2.7777778E-2,1E0,1E0,8.4626865E-1,5E-1,6.4626867E-1,6.111111E-1,1E0,2.4875622E-2,9.243491E-1,5E-1,9.059724E-1,1E0,9.5143425E-1,1E0,4.1666666E-1,3.0646765E-1,1.1047998E-1,1.8773076E-1,8.4626865E-1,1.0181767E-1,6.666667E-1,9.861111E-1,2.5E-1,4.3396762E-1,1E0,4.8537347E-1,-9.765627E-2,7.4651055E-2,1.5126995E-2,1.0229879E-1,-4.7001126E-3,1.4117792E-2,-3.0907078E-2,6.281721E-2,1.2454272E-2,-1.35212755E-2,4.8286434E-2,-7.582094E-3,-7.628014E-2,3.1904347E-2,-2.6696226E-2,-6.869949E-2,3.137733E-2,-1.5944546E-2,-9.7346686E-2,-7.47199E-2,-2.3177868E-2,-4.194157E-3,-9.189709E-2,-1.4825131E-2,1.443123E-1,-3.412879E-2,-8.5908376E-2,-9.6266285E-2,-4.8223685E-2,-4.0564585E-2,1.6708402E-2],"split_indices":[15,12,15,5,1,14,18,8,18,5,4,18,19,10,19,6,0,17,5,18,0,0,18,0,17,5,5,0,2,0,0,0,0,0,0,0,0,0,0,0,0,0,0,0,0,0,0,0,0,0,0,0,0,0,0,0,0,0,0,0,0],"split_type":[0,0,0,0,0,0,0,0,0,0,0,0,0,0,0,0,0,0,0,0,0,0,0,0,0,0,0,0,0,0,0,0,0,0,0,0,0,0,0,0,0,0,0,0,0,0,0,0,0,0,0,0,0,0,0,0,0,0,0,0,0],"sum_hessian":[9.270748E2,6.648745E2,2.6220032E2,4.8977844E2,1.7509604E2,1.436358E2,1.18564514E2,7.814012E1,4.1163834E2,8.713499E1,8.796106E1,6.1625687E1,8.201011E1,9.2778275E1,2.5786238E1,3.680848E1,4.1331642E1,2.2953111E2,1.8210722E2,7.760541E1,9.529573E0,6.67668E1,2.1194256E1,1.81315E1,4.3494186E1,7.9737236E1,2.2728746E0,1.957363E1,7.320464E1,1.8220465E1,7.5657735E0,1.0382381E1,2.6426098E1,3.8970764E1,2.360877E0,1.8767824E2,4.185287E1,1.0685679E2,7.5250435E1,3.6299694E1,4.1305714E1,1.6808604E0,7.8487134E0,1.2145074E1,5.4621727E1,1.9332598E1,1.8616568E0,2.1433883E0,1.59881115E1,2.2848526E1,2.0645662E1,7.642702E1,3.3102176E0,1.0317669E0,1.2411078E0,8.004456E0,1.1569173E1,6.770162E1,5.503023E0,9.046957E0,9.173507E0],"tree_param":{"num_deleted":"0","num_feature":"20","num_nodes":"61","size_leaf_vector":"1"}},{"base_weights":[-1.00822095E-2,1.7488322E-1,-4.954127E-1,-6.269376E-2,2.8229302E-1,-1.7824593E-1,-6.7297804E-1,1.0266822E-1,-2.7823818E-1,5.171954E-1,1.4891866E-1,-6.4143145E-1,-9.011453E-2,-7.74957E-1,-2.5085577E-1,-8.986498E-3,5.4361147E-1,1.7296784E-1,-4.1620797E-1,3.1603733E-1,7.619967E-1,-1.66202E-1,2.697415E-1,-1.7393585E-1,-1.033835E-1,2.26474E-1,-3.1269044E-1,-2.1249683E-1,-8.131198E-1,2.924449E-1,-5.935487E-1,5.0913807E-2,-1.1908098E-2,7.299185E-2,-3.4022655E-2,3.7183624E-2,-5.729405E-2,-1.9918088E-2,-6.493811E-2,3.637588E-2,-5.9571564E-2,5.1165897E-2,1.0418432E-1,-3.982612E-3,-6.666675E-2,3.4500323E-2,-3.035425E-2,-8.12531E-2,2.0926772E-2,4.7308613E-2,-4.7843874E-2,-1.0253059E-1,-1.7537193E-2,-4.7613923E-2,5.0524272E-2,-9.0231344E-2,-6.1990585E-2,5.4672685E-2,-8.3570525E-2,-1.5707659E-3,-7.4086905E-2],"categories":[],"categories_nodes":[],"categories_segments":[],"categories_sizes":[],"default_left":[0,0,0,0,0,0,0,0,0,0,0,0,0,0,0,0,0,0,0,0,0,0,0,0,0,0,0,0,0,0,0,0,0,0,0,0,0,0,0,0,0,0,0,0,0,0,0,0,0,0,0,0,0,0,0,0,0,0,0,0,0],"id":14,"left_children":[1,3,5,7,9,11,13,15,17,19,21,23,25,27,29,31,33,35,37,39,41,43,45,47,-1,49,51,53,55,57,59,-1,-1,-1,-1,-1,-1,-1,-1,-1,-1,-1,-1,-1,-1,-1,-1,-1,-1,-1,-1,-1,-1,-1,-1,-1,-1,-1,-1,-1,-1],"loss_changes":[8.225086E1,1.6947735E1,1.4118828E1,7.4202023E0,1.4243015E1,3.70198E0,6.767479E0,5.818434E0,5.6933675E0,7.89069E0,1.1198311E1,2.4911456E0,5.6054044E0,2.6129303E0,6.307818E0,5.49145E0,4.1797366E0,3.454537E0,3.3850145E0,4.234975E0,4.635338E0,5.1475973E0,9.257568E0,2.0901647E0,0E0,5.963781E0,4.374344E0,2.0570946E0,1.5289764E0,4.3047957E0,1.7363324E0,0E0,0E0,0E0,0E0,0E0,0E0,0E0,0E0,0E0,0E0,0E0,0E0,0E0,0E0,0E0,0E0,0E0,0E0,0E0,0E0,0E0,0E0,0E0,0E0,0E0,0E0,0E0,0E0,0E0,0E0],"parents":[2147483647,0,0,1,1,2,2,3,3,4,4,5,5,6,6,7,7,8,8,9,9,10,10,11,11,12,12,13,13,14,14,15,15,16,16,17,17,18,18,19,19,20,20,21,21,22,22,23,23,25,25,26,26,27,27,28,28,29,29,30,30],"right_children":[2,4,6,8,10,12,14,16,18,20,22,24,26,28,30,32,34,36,38,40,42,44,46,48,-1,50,52,54,56,58,60,-1,-1,-1,-1,-1,-1,-1,-1,-1,-1,-1,-1,-1,-1,-1,-1,-1,-1,-1,-1,-1,-1,-1,-1,-1,-1,-1,-1,-1,-1],"split_conditions":[5E-1,1E0,5E-1,5E-1,1.1111111E-1,1.4044306E-1,8.39801E-1,8.061256E-1,2.7777778E-2,5.442786E-1,5.532338E-1,5E-1,4.778472E-1,5.9074126E-2,7.9739666E-1,1.7154218E-1,5E-1,7.652655E-1,4.4609496E-1,9.4788414E-1,5.1973873E-1,1E0,7.777778E-1,1E0,-1.033835E-1,1E0,5.468617E-1,4.757171E-2,5.154229E-1,9.308458E-1,5E-1,5.0913807E-2,-1.1908098E-2,7.299185E-2,-3.4022655E-2,3.7183624E-2,-5.729405E-2,-1.9918088E-2,-6.493811E-2,3.637588E-2,-5.9571564E-2,5.1165897E-2,1.0418432E-1,-3.982612E-3,-6.666675E-2,3.4500323E-2,-3.035425E-2,-8.12531E-2,2.0926772E-2,4.7308613E-2,-4.7843874E-2,-1.0253059E-1,-1.7537193E-2,-4.7613923E-2,5.0524272E-2,-9.0231344E-2,-6.1990585E-2,5.4672685E-2,-8.3570525E-2,-1.5707659E-3,-7.4086905E-2],"split_indices":[15,16,9,10,5,0,18,19,5,18,18,12,0,0,19,0,11,0,19,0,0,17,5,16,0,15,0,0,18,18,10,0,0,0,0,0,0,0,0,0,0,0,0,0,0,0,0,0,0,0,0,0,0,0,0,0,0,0,0,0,0],"split_type":[0,0,0,0,0,0,0,0,0,0,0,0,0,0,0,0,0,0,0,0,0,0,0,0,0,0,0,0,0,0,0,0,0,0,0,0,0,0,0,0,0,0,0,0,0,0,0,0,0,0,0,0,0,0,0,0,0,0,0,0,0],"sum_hessian":[9.142813E2,6.624522E2,2.5182904E2,2.063806E2,4.5607162E2,9.11037E1,1.6072536E2,1.1708143E2,8.929918E1,1.6412776E2,2.9194388E2,1.3559889E1,7.754381E1,1.2877841E2,3.1946943E1,9.420632E1,2.2875105E1,2.0852165E1,6.8447014E1,9.135255E1,7.277522E1,8.080889E1,2.1113498E2,6.846485E0,6.713403E0,3.2004124E1,4.5539684E1,8.599756E0,1.2017865E2,1.2413453E1,1.953349E1,1.5874324E1,7.8332E1,1.9036491E1,3.8386123E0,1.6858877E1,3.9932864E0,3.6411263E1,3.203575E1,8.738007E1,3.9724705E0,3.990574E1,3.2869484E1,6.537914E1,1.5429745E1,1.8698541E2,2.4149565E1,2.1474586E0,4.6990266E0,2.395307E1,8.051055E0,6.31279E0,3.9226894E1,6.535667E0,2.0640895E0,7.9711395E1,4.0467255E1,1.0550726E1,1.862727E0,4.1931467E0,1.5340343E1],"tree_param":{"num_deleted":"0","num_feature":"20","num_nodes":"61","size_leaf_vector":"1"}},{"base_weights":[-1.0283203E-2,1.5803574E-1,-4.6756944E-1,2.4714991E-1,-7.872033E-2,-2.5820673E-1,-7.334556E-1,-1.6583454E-2,3.431156E-1,-1.4646506E-1,2.3546477E-1,-5.779032E-1,-3.1751454E-2,-8.434549E-1,-3.4545735E-1,1.6900948E-1,-5.3303864E-2,4.190088E-1,5.6911632E-2,1.22422606E-1,-2.8234026E-1,7.3414814E-1,-1.5051395E-1,-3.999421E-1,-7.751932E-1,-2.2022681E-1,1.6385199E-1,-6.179745E-1,-8.9557904E-1,-8.1601106E-2,-9.4648644E-2,-1.4197702E-2,4.9720254E-2,7.1335554E-2,3.5769127E-2,1.8001735E-2,-4.7655985E-2,2.6211021E-3,1.3907555E-1,-3.7241142E-2,1.044263E-2,1.11379646E-1,3.2467537E-2,4.8887435E-2,-2.7360145E-2,-4.9214505E-2,1.3470784E-2,-4.2300873E-2,-9.2595175E-2,-6.589022E-2,-7.767742E-3,2.8630152E-2,-7.676128E-2,-2.7966276E-2,-8.172813E-2,-9.2845455E-2,-4.201252E-2,-3.8508803E-2,1.7267885E-2],"categories":[],"categories_nodes":[],"categories_segments":[],"categories_sizes":[],"default_left":[0,0,0,0,0,0,0,0,0,0,0,0,0,0,0,0,0,0,0,0,0,0,0,0,0,0,0,0,0,0,0,0,0,0,0,0,0,0,0,0,0,0,0,0,0,0,0,0,0,0,0,0,0,0,0,0,0,0,0],"id":15,"left_children":[1,3,5,7,9,11,13,15,17,19,21,23,25,27,29,-1,31,33,35,37,39,41,43,45,47,49,51,53,55,57,-1,-1,-1,-1,-1,-1,-1,-1,-1,-1,-1,-1,-1,-1,-1,-1,-1,-1,-1,-1,-1,-1,-1,-1,-1,-1,-1,-1,-1],"loss_changes":[6.957959E1,1.39615E1,1.3349361E1,1.2162914E1,3.8969173E0,9.944331E0,4.2582207E0,8.1812315E0,7.627083E0,5.5110583E0,6.379861E0,1.6912708E0,3.0447874E0,4.145279E-1,3.925403E0,0E0,6.287559E0,4.766945E0,5.0102363E0,6.188996E0,3.518361E0,1.8739891E0,1.6440455E0,1.6454692E0,9.8701E-1,2.5745354E0,4.852957E0,1.0316796E0,6.2075806E-1,1.5044923E0,0E0,0E0,0E0,0E0,0E0,0E0,0E0,0E0,0E0,0E0,0E0,0E0,0E0,0E0,0E0,0E0,0E0,0E0,0E0,0E0,0E0,0E0,0E0,0E0,0E0,0E0,0E0,0E0,0E0],"parents":[2147483647,0,0,1,1,2,2,3,3,4,4,5,5,6,6,7,7,8,8,9,9,10,10,11,11,12,12,13,13,14,14,16,16,17,17,18,18,19,19,20,20,21,21,22,22,23,23,24,24,25,25,26,26,27,27,28,28,29,29],"right_children":[2,4,6,8,10,12,14,16,18,20,22,24,26,28,30,-1,32,34,36,38,40,42,44,46,48,50,52,54,56,58,-1,-1,-1,-1,-1,-1,-1,-1,-1,-1,-1,-1,-1,-1,-1,-1,-1,-1,-1,-1,-1,-1,-1,-1,-1,-1,-1,-1,-1],"split_conditions":[5E-1,5E-1,1E0,6.666667E-1,7.2935325E-1,1E0,8.4626865E-1,1.6385911E-2,1E0,5.5555556E-2,4.1666666E-1,5.1562023E-1,1E0,5E-1,9.059724E-1,1.6900948E-1,7.8109455E-1,2.7777778E-2,2.5E-1,1E0,7.477795E-1,5.6745243E-1,7.5422883E-1,5.557214E-1,5E-1,6.169154E-1,8.666572E-1,4.3396762E-1,1E0,1E0,-9.4648644E-2,-1.4197702E-2,4.9720254E-2,7.1335554E-2,3.5769127E-2,1.8001735E-2,-4.7655985E-2,2.6211021E-3,1.3907555E-1,-3.7241142E-2,1.044263E-2,1.11379646E-1,3.2467537E-2,4.8887435E-2,-2.7360145E-2,-4.9214505E-2,1.3470784E-2,-4.2300873E-2,-9.2595175E-2,-6.589022E-2,-7.767742E-3,2.8630152E-2,-7.676128E-2,-2.7966276E-2,-8.172813E-2,-9.2845455E-2,-4.201252E-2,-3.8508803E-2,1.7267885E-2],"split_indices":[15,9,15,17,18,14,18,19,17,5,5,19,1,10,19,0,18,5,5,2,19,0,18,18,12,18,0,0,2,1,0,0,0,0,0,0,0,0,0,0,0,0,0,0,0,0,0,0,0,0,0,0,0,0,0,0,0,0,0],"split_type":[0,0,0,0,0,0,0,0,0,0,0,0,0,0,0,0,0,0,0,0,0,0,0,0,0,0,0,0,0,0,0,0,0,0,0,0,0,0,0,0,0,0,0,0,0,0,0,0,0,0,0,0,0,0,0,0,0,0,0],"sum_hessian":[9.020239E2,6.598129E2,2.42211E2,4.7934512E2,1.8046779E2,1.3661188E2,1.0559912E2,1.2810728E2,3.5123785E2,1.488965E2,3.15713E1,5.6000977E1,8.06109E1,8.135947E1,2.4239655E1,1.7499022E0,1.26357376E2,2.7725397E2,7.39839E1,5.0016434E1,9.888006E1,1.338102E1,1.819028E1,3.1034325E1,2.4966652E1,4.0989365E1,3.9621536E1,1.7690243E1,6.3669228E1,1.7633976E1,6.6056776E0,1.0946701E2,1.6890368E1,4.5966064E1,2.3128789E2,6.065053E1,1.333337E1,4.7438564E1,2.5778687E0,8.023245E1,1.8647612E1,6.0508323E0,7.3301873E0,2.4567459E0,1.5733535E1,2.6537334E1,4.4969897E0,8.624641E0,1.634201E1,9.164537E0,3.182483E1,3.563025E1,3.9912875E0,7.4490633E0,1.02411785E1,5.866036E1,5.0088687E0,7.8046203E0,9.829356E0],"tree_param":{"num_deleted":"0","num_feature":"20","num_nodes":"59","size_leaf_vector":"1"}},{"base_weights":[-9.93245E-3,1.4363037E-1,-4.4089437E-1,-6.519471E-2,2.3782074E-1,-2.3992437E-1,-7.064549E-1,-1.3371417E-1,3.5686958E-1,3.749968E-1,5.9252534E-2,-5.480889E-1,-3.0510709E-2,-8.197548E-1,-3.2435483E-1,2.6589563E-1,-2.1925457E-1,4.3964364E-2,7.963795E-1,1.6431569E-1,5.527547E-1,-1.8330269E-1,2.1128508E-1,-3.4349498E-1,-7.190448E-1,-6.687888E-2,8.504278E-1,-5.9017146E-1,-8.743848E-1,-7.521262E-2,-9.293266E-2,1.2235668E-2,1.6434646E-1,1.0589381E-2,-3.2738607E-2,5.226794E-2,-3.7245903E-2,1.0591765E-1,-3.8011547E-2,3.997905E-2,-1.207842E-2,-8.19568E-2,5.786829E-2,-4.6693932E-2,1.2981825E-3,-3.163526E-2,3.4994785E-2,-4.2467754E-2,8.3627895E-2,3.1547793E-3,-7.683075E-2,-2.2709584E-3,-8.843173E-2,1.3476312E-1,-1.408982E-2,-7.977354E-2,-2.6211783E-2,-9.090793E-2,-3.9686896E-2,-3.50402E-2,1.9479176E-2],"categories":[],"categories_nodes":[],"categories_segments":[],"categories_sizes":[],"default_left":[0,0,0,0,0,0,0,0,0,0,0,0,0,0,0,0,0,0,0,0,0,0,0,0,0,0,0,0,0,0,0,0,0,0,0,0,0,0,0,0,0,0,0,0,0,0,0,0,0,0,0,0,0,0,0,0,0,0,0,0,0],"id":16,"left_children":[1,3,5,7,9,11,13,15,17,19,21,23,25,27,29,31,33,35,37,39,41,43,45,47,49,51,53,55,57,59,-1,-1,-1,-1,-1,-1,-1,-1,-1,-1,-1,-1,-1,-1,-1,-1,-1,-1,-1,-1,-1,-1,-1,-1,-1,-1,-1,-1,-1,-1,-1],"loss_changes":[5.907415E1,1.296133E1,1.2345764E1,5.9870524E0,1.1093746E1,8.695227E0,4.085083E0,6.122903E0,3.9472942E0,9.513573E0,7.352864E0,1.6613903E0,2.6659458E0,4.479866E-1,3.6439714E0,6.0737514E0,5.191873E0,3.7775872E0,4.107765E0,8.022674E0,5.408554E0,4.290457E0,9.064974E0,2.91737E0,1.0895138E0,2.8371346E0,1.817203E0,1.0063925E0,6.3344574E-1,1.4458796E0,0E0,0E0,0E0,0E0,0E0,0E0,0E0,0E0,0E0,0E0,0E0,0E0,0E0,0E0,0E0,0E0,0E0,0E0,0E0,0E0,0E0,0E0,0E0,0E0,0E0,0E0,0E0,0E0,0E0,0E0,0E0],"parents":[2147483647,0,0,1,1,2,2,3,3,4,4,5,5,6,6,7,7,8,8,9,9,10,10,11,11,12,12,13,13,14,14,15,15,16,16,17,17,18,18,19,19,20,20,21,21,22,22,23,23,24,24,25,25,26,26,27,27,28,28,29,29],"right_children":[2,4,6,8,10,12,14,16,18,20,22,24,26,28,30,32,34,36,38,40,42,44,46,48,50,52,54,56,58,60,-1,-1,-1,-1,-1,-1,-1,-1,-1,-1,-1,-1,-1,-1,-1,-1,-1,-1,-1,-1,-1,-1,-1,-1,-1,-1,-1,-1,-1,-1,-1],"split_conditions":[5E-1,1E0,1E0,1E0,2.361111E-1,1E0,8.4626865E-1,1.6003977E-1,5E-1,5.218905E-1,3.7844363E-1,4.5995456E-1,9.243491E-1,5E-1,9.059724E-1,1.529395E-1,2.7777778E-2,1E0,7.4623686E-1,5.5555556E-2,7.810107E-3,6.666667E-1,5E-1,4.528543E-1,1.388889E-1,9.861111E-1,4.103948E-1,6.157734E-1,1E0,4.8537347E-1,-9.293266E-2,1.2235668E-2,1.6434646E-1,1.0589381E-2,-3.2738607E-2,5.226794E-2,-3.7245903E-2,1.0591765E-1,-3.8011547E-2,3.997905E-2,-1.207842E-2,-8.19568E-2,5.786829E-2,-4.6693932E-2,1.2981825E-3,-3.163526E-2,3.4994785E-2,-4.2467754E-2,8.3627895E-2,3.1547793E-3,-7.683075E-2,-2.2709584E-3,-8.843173E-2,1.3476312E-1,-1.408982E-2,-7.977354E-2,-2.6211783E-2,-9.090793E-2,-3.9686896E-2,-3.50402E-2,1.9479176E-2],"split_indices":[15,16,15,2,5,14,18,0,14,18,0,0,19,10,19,0,5,1,0,5,19,17,8,0,5,5,0,19,2,0,0,0,0,0,0,0,0,0,0,0,0,0,0,0,0,0,0,0,0,0,0,0,0,0,0,0,0,0,0,0,0],"split_type":[0,0,0,0,0,0,0,0,0,0,0,0,0,0,0,0,0,0,0,0,0,0,0,0,0,0,0,0,0,0,0,0,0,0,0,0,0,0,0,0,0,0,0,0,0,0,0,0,0,0,0,0,0,0,0,0,0,0,0,0,0],"sum_hessian":[8.9067523E2,6.5717395E2,2.3350127E2,2.043739E2,4.5280005E2,1.3399811E2,9.950317E1,1.7641693E2,2.7956976E1,2.5545755E2,1.9734248E2,5.356168E1,8.0436424E1,7.586297E1,2.3640196E1,3.0733614E1,1.4568332E2,1.6973135E1,1.0983842E1,1.17783394E2,1.3767415E2,7.595576E1,1.21386734E2,2.5751936E1,2.7809744E1,7.8134834E1,2.3015926E0,1.6850723E1,5.9012245E1,1.754079E1,6.099405E0,2.8819519E1,1.9140953E0,3.6362617E1,1.09320694E2,7.7772937E0,9.19584E0,9.059839E0,1.9240028E0,6.4285385E1,5.3498013E1,1.985341E0,1.3568881E2,3.0501434E1,4.5454323E1,2.4994926E1,9.639181E1,2.469281E1,1.0591254E0,1.7349364E0,2.6074806E1,7.510444E1,3.0303962E0,1.2934399E0,1.0081526E0,9.44379E0,7.406933E0,5.417251E1,4.8397374E0,8.53952E0,9.001271E0],"tree_param":{"num_deleted":"0","num_feature":"20","num_nodes":"61","size_leaf_vector":"1"}},{"base_weights":[-9.639275E-3,1.3008754E-1,-4.141205E-1,2.1104653E-1,-9.685261E-2,-1.23935476E-1,-5.930702E-1,1.3868725E-1,4.9393013E-1,6.837432E-2,-2.6056585E-1,-5.5281717E-2,-7.1066326E-1,-6.983626E-1,-2.0714733E-1,-2.031428E-2,2.5862253E-1,7.375371E-1,1.9232944E-1,1.5865323E-1,-6.2617975E-1,4.6291688E-1,-2.9575765E-1,-5.8726877E-1,5.2769337E-2,-8.859106E-2,1.289082E-2,-1.03182554E-1,-7.423991E-1,1.897409E-1,-6.000729E-1,-8.026332E-2,2.9497154E-3,3.0230096E-2,-5.765758E-2,1.3810049E-1,5.7407953E-2,3.3623558E-2,-3.9369375E-2,4.829353E-2,-3.691089E-3,-6.32013E-3,-7.279265E-2,-3.3160765E-2,8.817708E-2,-6.874957E-2,-2.0905368E-2,-1.3994612E-2,-9.963088E-2,1.29225E-1,-2.4729106E-4,3.7661087E-2,-4.9620476E-2,-8.4412105E-2,-5.3764433E-2,4.270753E-2,-8.728788E-2,-1.6649643E-5,-8.026729E-2],"categories":[],"categories_nodes":[],"categories_segments":[],"categories_sizes":[],"default_left":[0,0,0,0,0,0,0,0,0,0,0,0,0,0,0,0,0,0,0,0,0,0,0,0,0,0,0,0,0,0,0,0,0,0,0,0,0,0,0,0,0,0,0,0,0,0,0,0,0,0,0,0,0,0,0,0,0,0,0],"id":17,"left_children":[1,3,5,7,9,11,13,15,17,19,21,23,25,27,29,31,33,35,37,39,41,43,45,47,49,-1,-1,51,53,55,57,-1,-1,-1,-1,-1,-1,-1,-1,-1,-1,-1,-1,-1,-1,-1,-1,-1,-1,-1,-1,-1,-1,-1,-1,-1,-1,-1,-1],"loss_changes":[4.9826653E1,1.2060488E1,1.1680706E1,9.824757E0,4.697292E0,3.4895735E0,5.533951E0,7.3712935E0,7.062628E0,5.5477476E0,2.3546162E0,4.6015496E0,1.4520354E0,2.7899704E0,5.006984E0,6.5318255E0,8.209217E0,4.8754463E0,3.9413533E0,4.9450307E0,5.3810334E-1,1.7667255E0,2.6982503E0,2.3317738E0,4.5913033E0,0E0,0E0,1.8267016E0,1.6638527E0,4.501092E0,1.9454126E0,0E0,0E0,0E0,0E0,0E0,0E0,0E0,0E0,0E0,0E0,0E0,0E0,0E0,0E0,0E0,0E0,0E0,0E0,0E0,0E0,0E0,0E0,0E0,0E0,0E0,0E0,0E0,0E0],"parents":[2147483647,0,0,1,1,2,2,3,3,4,4,5,5,6,6,7,7,8,8,9,9,10,10,11,11,12,12,13,13,14,14,15,15,16,16,17,17,18,18,19,19,20,20,21,21,22,22,23,23,24,24,27,27,28,28,29,29,30,30],"right_children":[2,4,6,8,10,12,14,16,18,20,22,24,26,28,30,32,34,36,38,40,42,44,46,48,50,-1,-1,52,54,56,58,-1,-1,-1,-1,-1,-1,-1,-1,-1,-1,-1,-1,-1,-1,-1,-1,-1,-1,-1,-1,-1,-1,-1,-1,-1,-1,-1,-1],"split_conditions":[5E-1,5E-1,5E-1,8.061256E-1,1E0,8.8753194E-1,8.39801E-1,5E-1,1.25E-1,6.111111E-1,3.138313E-2,1.4044306E-1,9.835274E-1,5.9074126E-2,8.427259E-1,5.5097982E-2,8.333333E-1,8.353752E-1,1E0,5E-1,1.1047998E-1,2.0895522E-2,1.9739664E-1,5E-1,1.6756603E-1,-8.859106E-2,1.289082E-2,1E0,5.154229E-1,9.308458E-1,1E0,-8.026332E-2,2.9497154E-3,3.0230096E-2,-5.765758E-2,1.3810049E-1,5.7407953E-2,3.3623558E-2,-3.9369375E-2,4.829353E-2,-3.691089E-3,-6.32013E-3,-7.279265E-2,-3.3160765E-2,8.817708E-2,-6.874957E-2,-2.0905368E-2,-1.3994612E-2,-9.963088E-2,1.29225E-1,-2.4729106E-4,3.7661087E-2,-4.9620476E-2,-8.4412105E-2,-5.3764433E-2,4.270753E-2,-8.728788E-2,-1.6649643E-5,-8.026729E-2],"split_indices":[15,12,9,19,1,0,18,7,5,5,0,0,0,0,19,0,5,19,4,11,0,18,19,12,0,0,0,15,18,18,3,0,0,0,0,0,0,0,0,0,0,0,0,0,0,0,0,0,0,0,0,0,0,0,0,0,0,0,0],"split_type":[0,0,0,0,0,0,0,0,0,0,0,0,0,0,0,0,0,0,0,0,0,0,0,0,0,0,0,0,0,0,0,0,0,0,0,0,0,0,0,0,0,0,0,0,0,0,0,0,0,0,0,0,0,0,0,0,0,0,0],"sum_hessian":[8.7967114E2,6.543175E2,2.2535362E2,4.823229E2,1.719946E2,8.660593E1,1.387477E2,3.8526544E2,9.705745E1,8.58914E1,8.61032E1,7.8513214E1,8.09271E0,1.0837095E2,3.0376745E1,1.6601085E2,2.192546E2,5.2891144E1,4.4166306E1,7.669418E1,9.197219E0,3.4301958E0,8.2673004E1,1.2505846E1,6.600737E1,6.6495314E0,1.4431788E0,7.696136E0,1.0067481E2,1.5369427E1,1.5007319E1,9.03274E0,1.5697812E2,2.0896442E2,1.02901745E1,9.2052E0,4.3685944E1,3.580109E1,8.365212E0,2.8299253E1,4.8394928E1,1.6559247E0,7.5412946E0,1.2559949E0,2.1742008E0,1.3726397E1,6.894661E1,6.61446E0,5.8913856E0,1.8609295E0,6.414644E1,3.4843137E0,4.2118225E0,6.517391E1,3.55009E1,1.3052307E1,2.3171196E0,4.0413995E0,1.096592E1],"tree_param":{"num_deleted":"0","num_feature":"20","num_nodes":"59","size_leaf_vector":"1"}},{"base_weights":[-9.527857E-3,6.562306E-2,-6.5735626E-1,1.6330755E-1,-1.5144314E-1,-7.771632E-1,-2.8253886E-1,-7.446818E-2,2.6348925E-1,-2.2592777E-2,-3.059533E-1,-4.8311847E-1,-8.229434E-1,-5.004809E-2,-9.024652E-2,3.7024644E-1,-1.6587952E-1,6.596322E-2,3.5475358E-1,-8.799337E-2,7.467294E-1,-5.983238E-1,-1.17140345E-1,-7.2037315E-1,1.121245E-1,-2.349526E-1,-8.477336E-1,3.96753E-1,-2.0733994E-1,1.2094087E-2,1.0595924E-1,-2.71181E-2,1.9035477E-2,1.8965406E-2,-2.7721737E-2,6.956287E-2,2.9880216E-2,1.2511687E-1,-1.16566485E-2,1.1126027E-1,9.875096E-3,-6.6382125E-2,6.191231E-3,-1.8281065E-2,5.1769406E-2,-2.940001E-2,-8.835394E-2,-5.6221645E-2,5.2010495E-2,-6.627847E-2,4.4001583E-2,-5.007509E-2,-9.1049835E-2,1.3540387E-1,-3.251757E-2,2.3592655E-2,-5.0503254E-2],"categories":[],"categories_nodes":[],"categories_segments":[],"categories_sizes":[],"default_left":[0,0,0,0,0,0,0,0,0,0,0,0,0,0,0,0,0,0,0,0,0,0,0,0,0,0,0,0,0,0,0,0,0,0,0,0,0,0,0,0,0,0,0,0,0,0,0,0,0,0,0,0,0,0,0,0,0],"id":18,"left_children":[1,3,5,7,9,11,13,15,17,19,21,23,25,27,-1,29,31,33,35,37,39,41,43,45,47,49,51,53,55,-1,-1,-1,-1,-1,-1,-1,-1,-1,-1,-1,-1,-1,-1,-1,-1,-1,-1,-1,-1,-1,-1,-1,-1,-1,-1,-1,-1],"loss_changes":[4.246209E1,1.6598566E1,3.8515053E0,1.2871724E1,4.8329687E0,5.195236E-1,3.3462E0,6.594798E0,6.823612E0,6.7896304E0,6.027953E0,1.718929E0,6.3938904E-1,1.3593117E0,0E0,4.634354E0,5.078348E0,5.199839E0,4.7425613E0,4.892989E0,2.3974743E0,1.9050026E0,2.9446695E0,3.2661152E-1,1.4399638E0,1.3632027E0,7.379074E-1,3.9473329E0,1.9793136E0,0E0,0E0,0E0,0E0,0E0,0E0,0E0,0E0,0E0,0E0,0E0,0E0,0E0,0E0,0E0,0E0,0E0,0E0,0E0,0E0,0E0,0E0,0E0,0E0,0E0,0E0,0E0,0E0],"parents":[2147483647,0,0,1,1,2,2,3,3,4,4,5,5,6,6,7,7,8,8,9,9,10,10,11,11,12,12,13,13,15,15,16,16,17,17,18,18,19,19,20,20,21,21,22,22,23,23,24,24,25,25,26,26,27,27,28,28],"right_children":[2,4,6,8,10,12,14,16,18,20,22,24,26,28,-1,30,32,34,36,38,40,42,44,46,48,50,52,54,56,-1,-1,-1,-1,-1,-1,-1,-1,-1,-1,-1,-1,-1,-1,-1,-1,-1,-1,-1,-1,-1,-1,-1,-1,-1,-1,-1,-1],"split_conditions":[1E0,5E-1,8.4626865E-1,6.666667E-1,3.1944445E-1,5E-1,9.059724E-1,9.7222224E-2,5E-1,7.522388E-1,5.338308E-1,6.666667E-1,3.2312404E-2,5E-1,-9.024652E-2,1E0,7.8109455E-1,5E-1,2.7777778E-2,1.249645E-2,1E0,1E0,9.108208E-1,5E-1,7.777778E-1,1E0,5E-1,1E0,3.3333334E-1,1.2094087E-2,1.0595924E-1,-2.71181E-2,1.9035477E-2,1.8965406E-2,-2.7721737E-2,6.956287E-2,2.9880216E-2,1.2511687E-1,-1.16566485E-2,1.1126027E-1,9.875096E-3,-6.6382125E-2,6.191231E-3,-1.8281065E-2,5.1769406E-2,-2.940001E-2,-8.835394E-2,-5.6221645E-2,5.2010495E-2,-6.627847E-2,4.4001583E-2,-5.007509E-2,-9.1049835E-2,1.3540387E-1,-3.251757E-2,2.3592655E-2,-5.0503254E-2],"split_indices":[15,9,18,17,5,12,19,5,8,18,18,17,19,10,0,7,18,10,5,0,1,2,0,9,5,1,14,3,17,0,0,0,0,0,0,0,0,0,0,0,0,0,0,0,0,0,0,0,0,0,0,0,0,0,0,0,0],"split_type":[0,0,0,0,0,0,0,0,0,0,0,0,0,0,0,0,0,0,0,0,0,0,0,0,0,0,0,0,0,0,0,0,0,0,0,0,0,0,0,0,0,0,0,0,0,0,0,0,0,0,0,0,0,0,0,0,0],"sum_hessian":[8.7029584E2,7.806372E2,8.9658615E1,5.3853326E2,2.4210396E2,6.712824E1,2.2530376E1,1.5971506E2,3.788182E2,1.3263889E2,1.09465065E2,1.0599692E1,5.652855E1,1.7171345E1,5.3590317E0,2.6711876E1,1.3300319E2,1.2025963E2,2.5855856E2,1.2306286E2,9.576034E0,4.210226E1,6.73628E1,7.4285636E0,3.1711285E0,2.710757E0,5.381779E1,4.0746236E0,1.3096722E1,2.0480455E1,6.2314215E0,1.02842186E2,3.0160995E1,8.872742E1,3.1532207E1,3.484405E1,2.2371452E2,1.6770009E0,1.2138586E2,5.6620097E0,3.9140239E0,3.8297592E1,3.804668E0,6.1693016E1,5.669786E0,2.8314595E0,4.597104E0,1.0528502E0,2.1182783E0,1.6701653E0,1.0405917E0,9.619033E0,4.4198757E1,1.3753324E0,2.6992912E0,5.3451843E0,7.7515373E0],"tree_param":{"num_deleted":"0","num_feature":"20","num_nodes":"57","size_leaf_vector":"1"}},{"base_weights":[-8.863822E-3,5.990568E-2,-6.305864E-1,-1.323706E-1,1.5180738E-1,-7.532459E-1,-2.6231194E-1,-9.465821E-3,-3.6813045E-1,2.7355194E-1,-3.6019437E-2,-5.045483E-1,-8.1667465E-1,-4.20017E-2,-8.8590674E-2,-5.927418E-2,3.1450385E-1,4.5020565E-2,-4.9370986E-1,1.1860033E-1,4.67443E-1,-3.6442277E-1,5.0707098E-2,-1.4393312E-1,-7.3907185E-1,-8.5801005E-1,-3.029774E-1,-3.2905275E-1,1.852534E-1,9.904469E-3,-2.140717E-2,4.9514305E-2,-4.4046346E-2,4.8392136E-2,-5.1037084E-2,-5.819392E-2,-3.07929E-3,3.8867056E-2,2.5380435E-3,5.7240542E-2,-1.7219061E-2,-9.930614E-3,-7.359173E-2,2.7218116E-2,-1.2098075E-2,-6.264593E-2,4.55124E-2,-6.6295736E-3,-8.183624E-2,-1.955678E-2,-8.930628E-2,-8.2613334E-2,9.0653405E-2,6.8557344E-2,-8.0955364E-2,-6.7377225E-2,5.7349045E-2],"categories":[],"categories_nodes":[],"categories_segments":[],"categories_sizes":[],"default_left":[0,0,0,0,0,0,0,0,0,0,0,0,0,0,0,0,0,0,0,0,0,0,0,0,0,0,0,0,0,0,0,0,0,0,0,0,0,0,0,0,0,0,0,0,0,0,0,0,0,0,0,0,0,0,0,0,0],"id":19,"left_children":[1,3,5,7,9,11,13,15,17,19,21,23,25,27,-1,29,31,33,35,37,39,41,43,45,47,49,51,53,55,-1,-1,-1,-1,-1,-1,-1,-1,-1,-1,-1,-1,-1,-1,-1,-1,-1,-1,-1,-1,-1,-1,-1,-1,-1,-1,-1,-1],"loss_changes":[3.687176E1,1.3743265E1,3.6821747E0,7.289404E0,1.2036161E1,5.958595E-1,3.121717E0,2.7048209E0,4.4956045E0,9.5349045E0,5.934436E0,1.2130275E0,7.8673935E-1,1.2378068E0,0E0,3.5778513E0,3.2649388E0,5.3695216E0,2.6861038E0,4.490644E0,9.595192E0,4.212834E0,6.314458E0,2.421158E0,4.3711805E-1,8.7205124E-1,4.0500226E0,4.6169496E0,3.9578383E0,0E0,0E0,0E0,0E0,0E0,0E0,0E0,0E0,0E0,0E0,0E0,0E0,0E0,0E0,0E0,0E0,0E0,0E0,0E0,0E0,0E0,0E0,0E0,0E0,0E0,0E0,0E0,0E0],"parents":[2147483647,0,0,1,1,2,2,3,3,4,4,5,5,6,6,7,7,8,8,9,9,10,10,11,11,12,12,13,13,15,15,16,16,17,17,18,18,19,19,20,20,21,21,22,22,23,23,24,24,25,25,26,26,27,27,28,28],"right_children":[2,4,6,8,10,12,14,16,18,20,22,24,26,28,-1,30,32,34,36,38,40,42,44,46,48,50,52,54,56,-1,-1,-1,-1,-1,-1,-1,-1,-1,-1,-1,-1,-1,-1,-1,-1,-1,-1,-1,-1,-1,-1,-1,-1,-1,-1,-1,-1],"split_conditions":[1E0,1E0,8.4626865E-1,6.4882135E-1,3.611111E-1,5E-1,9.059724E-1,1E0,4.1666668E-2,5E-1,5E-1,4.3396762E-1,1E0,1E0,-8.8590674E-2,1.388889E-1,6.944444E-1,5E-1,1E0,2.7777778E-2,1E0,5E-1,5E-1,6.082695E-1,3.2496172E-1,3.2312404E-2,6.999432E-1,7.926493E-1,8.269525E-1,9.904469E-3,-2.140717E-2,4.9514305E-2,-4.4046346E-2,4.8392136E-2,-5.1037084E-2,-5.819392E-2,-3.07929E-3,3.8867056E-2,2.5380435E-3,5.7240542E-2,-1.7219061E-2,-9.930614E-3,-7.359173E-2,2.7218116E-2,-1.2098075E-2,-6.264593E-2,4.55124E-2,-6.6295736E-3,-8.183624E-2,-1.955678E-2,-8.930628E-2,-8.2613334E-2,9.0653405E-2,6.8557344E-2,-8.0955364E-2,-6.7377225E-2,5.7349045E-2],"split_indices":[15,16,18,0,5,10,19,2,5,7,8,0,2,1,0,5,5,9,2,5,4,9,10,19,19,19,0,19,19,0,0,0,0,0,0,0,0,0,0,0,0,0,0,0,0,0,0,0,0,0,0,0,0,0,0,0,0],"split_type":[0,0,0,0,0,0,0,0,0,0,0,0,0,0,0,0,0,0,0,0,0,0,0,0,0,0,0,0,0,0,0,0,0,0,0,0,0,0,0,0,0,0,0,0,0,0,0,0,0,0,0,0,0,0,0,0,0],"sum_hessian":[8.6050183E2,7.7561383E2,8.488796E1,2.5068713E2,5.249267E2,6.2894604E1,2.1993357E1,1.6546707E2,8.522006E1,3.1821286E2,2.0671385E2,1.4600832E1,4.8293774E1,1.7040472E1,4.9528856E0,1.4412567E2,2.1341404E1,2.0014545E1,6.520552E1,1.7776242E2,1.4045044E2,4.2516525E1,1.6419733E2,6.3895946E0,8.211238E0,4.4076805E1,4.2169685E0,7.331696E0,9.7087755E0,7.1430466E1,7.2695206E1,1.7498688E1,3.8427153E0,1.1251598E1,8.762946E0,5.455125E1,1.0654267E1,4.48004E1,1.3296202E2,1.2074204E2,1.9708393E1,2.5550066E1,1.6966461E1,7.1446884E1,9.275044E1,3.513673E0,2.8759215E0,1.0592941E0,7.1519437E0,2.5457284E0,4.1531075E1,3.1649756E0,1.0519929E0,2.2190847E0,5.1126113E0,2.7931335E0,6.9156423E0],"tree_param":{"num_deleted":"0","num_feature":"20","num_nodes":"57","size_leaf_vector":"1"}},{"base_weights":[-8.866348E-3,5.4026995E-2,-6.045946E-1,1.390955E-1,-1.3413486E-1,-7.5713646E-1,-3.0607927E-1,-6.404771E-2,2.254929E-1,-2.0951994E-1,1.4198002E-1,-7.9137117E-1,-2.8227618E-1,-1.067756E-1,-7.5784343E-1,1.2565973E-1,-8.6604506E-2,2.9045302E-1,-1.3127753E-2,-4.346972E-2,-4.2713162E-1,2.8707045E-1,-3.710898E-1,-2.0798953E-1,-8.195094E-1,-8.095128E-2,9.02557E-2,6.788017E-2,-7.180442E-1,-1.0071316E-2,-9.402242E-2,-1.3627625E-2,5.6104135E-2,1.4681301E-2,4.3497812E-2,1.9711884E-2,-3.0266747E-2,3.311454E-2,-1.3531138E-2,-5.8458615E-2,-1.9031366E-2,1.6680231E-2,1.19238436E-1,2.9874591E-2,-1.0981514E-1,4.280706E-2,-6.409991E-2,-5.225382E-2,-8.865612E-2,-8.127095E-2,2.596202E-2,-8.556353E-2,-9.499523E-3],"categories":[],"categories_nodes":[],"categories_segments":[],"categories_sizes":[],"default_left":[0,0,0,0,0,0,0,0,0,0,0,0,0,0,0,0,0,0,0,0,0,0,0,0,0,0,0,0,0,0,0,0,0,0,0,0,0,0,0,0,0,0,0,0,0,0,0,0,0,0,0,0,0],"id":20,"left_children":[1,3,5,7,9,11,13,15,17,19,21,23,25,27,29,-1,31,33,35,37,39,41,43,45,47,-1,-1,49,51,-1,-1,-1,-1,-1,-1,-1,-1,-1,-1,-1,-1,-1,-1,-1,-1,-1,-1,-1,-1,-1,-1,-1,-1],"loss_changes":[3.1987398E1,1.2381303E1,3.4805622E0,9.35811E0,5.0455985E0,6.426983E-1,2.5526235E0,4.864292E0,5.797024E0,6.8360195E0,3.9981008E0,6.3617134E-1,3.9396727E0,2.339787E0,9.587345E-1,0E0,5.155737E0,6.035448E0,4.9861674E0,3.7849557E0,2.94592E0,4.299651E0,6.1529903E0,1.2662224E0,4.6340942E-1,0E0,0E0,3.1833575E0,3.349445E-1,0E0,0E0,0E0,0E0,0E0,0E0,0E0,0E0,0E0,0E0,0E0,0E0,0E0,0E0,0E0,0E0,0E0,0E0,0E0,0E0,0E0,0E0,0E0,0E0],"parents":[2147483647,0,0,1,1,2,2,3,3,4,4,5,5,6,6,7,7,8,8,9,9,10,10,11,11,12,12,13,13,14,14,16,16,17,17,18,18,19,19,20,20,21,21,22,22,23,23,24,24,27,27,28,28],"right_children":[2,4,6,8,10,12,14,16,18,20,22,24,26,28,30,-1,32,34,36,38,40,42,44,46,48,-1,-1,50,52,-1,-1,-1,-1,-1,-1,-1,-1,-1,-1,-1,-1,-1,-1,-1,-1,-1,-1,-1,-1,-1,-1,-1,-1],"split_conditions":[1E0,5E-1,7.477612E-1,6.666667E-1,7.870647E-1,1E0,1E0,1.6385911E-2,1E0,2.361111E-1,1E0,3.2312404E-2,7.2664016E-1,7.844362E-1,8.5621893E-1,1.2565973E-1,9.211332E-1,1E0,1.1111111E-1,1.6756603E-1,5.532338E-1,8.7595713E-1,6.6294026E-1,1.840796E-2,5E-1,-8.095128E-2,9.02557E-2,1.4044306E-1,8.7289435E-1,-1.0071316E-2,-9.402242E-2,-1.3627625E-2,5.6104135E-2,1.4681301E-2,4.3497812E-2,1.9711884E-2,-3.0266747E-2,3.311454E-2,-1.3531138E-2,-5.8458615E-2,-1.9031366E-2,1.6680231E-2,1.19238436E-1,2.9874591E-2,-1.0981514E-1,4.280706E-2,-6.409991E-2,-5.225382E-2,-8.865612E-2,-8.127095E-2,2.596202E-2,-8.556353E-2,-9.499523E-3],"split_indices":[15,12,18,17,18,2,5,19,17,5,4,19,0,0,18,0,19,1,5,0,18,19,19,18,10,0,0,0,19,0,0,0,0,0,0,0,0,0,0,0,0,0,0,0,0,0,0,0,0,0,0,0,0],"split_type":[0,0,0,0,0,0,0,0,0,0,0,0,0,0,0,0,0,0,0,0,0,0,0,0,0,0,0,0,0,0,0,0,0,0,0,0,0,0,0,0,0,0,0,0,0,0,0,0,0,0,0,0,0],"sum_hessian":[8.51869E2,7.7134454E2,8.052453E1,5.31371E2,2.3997353E2,5.2275375E1,2.8249155E1,1.586355E2,3.7273547E2,1.8869662E2,5.12769E1,4.813834E1,4.137035E0,2.045946E1,7.7896953E0,1.7452835E0,1.5689021E2,2.928069E2,7.992858E1,1.0770856E2,8.098807E1,4.031637E1,1.0960535E1,2.6011515E0,4.553719E1,3.082244E0,1.0547912E0,1.660416E1,3.8553E0,2.0294962E0,5.760199E0,1.4644786E2,1.044236E1,1.4786412E2,1.4494278E2,4.648971E1,3.3438873E1,2.069394E1,8.701462E1,4.776306E1,3.322501E1,3.663391E1,3.6824536E0,6.0113945E0,4.949141E0,1.0581746E0,1.5429769E0,1.0007441E1,3.5529747E1,2.389855E0,1.4214305E1,2.852143E0,1.0031569E0],"tree_param":{"num_deleted":"0","num_feature":"20","num_nodes":"53","size_leaf_vector":"1"}},{"base_weights":[-8.636036E-3,4.8969332E-2,-5.789391E-1,-1.2090215E-1,1.2947984E-1,-7.058074E-1,-2.2810437E-1,7.4495915E-3,-3.1554607E-1,-6.431489E-2,2.2049999E-1,-4.5585448E-1,-7.7358615E-1,-2.8403481E-2,-8.5609354E-2,-3.5657026E-2,6.351094E-1,-1.11900225E-1,-5.332779E-1,6.301162E-1,-1.11782745E-1,7.8167036E-2,3.383794E-1,-1.6289124E-1,-7.624455E-1,-8.188149E-1,-2.6407057E-1,-2.9156965E-1,2.1537906E-1,3.3431806E-2,-9.440809E-3,8.763804E-2,-8.01226E-3,-3.0213898E-2,6.379835E-2,-5.9621073E-2,4.5382343E-2,-4.3274548E-2,8.082285E-2,3.0456012E-2,-1.8757068E-2,1.3435724E-2,-5.850267E-2,4.251586E-2,-1.2014975E-2,-6.7051195E-2,4.4579044E-2,-3.9714067E-3,-8.82794E-2,-1.7339325E-2,-8.57492E-2,-8.038076E-2,9.034678E-2,-6.743268E-2,3.3858735E-2,5.9232064E-2,-5.966711E-2],"categories":[],"categories_nodes":[],"categories_segments":[],"categories_sizes":[],"default_left":[0,0,0,0,0,0,0,0,0,0,0,0,0,0,0,0,0,0,0,0,0,0,0,0,0,0,0,0,0,0,0,0,0,0,0,0,0,0,0,0,0,0,0,0,0,0,0,0,0,0,0,0,0,0,0,0,0],"id":21,"left_children":[1,3,5,7,9,11,13,15,17,19,21,23,25,27,-1,29,31,33,35,37,39,41,43,45,47,49,51,53,55,-1,-1,-1,-1,-1,-1,-1,-1,-1,-1,-1,-1,-1,-1,-1,-1,-1,-1,-1,-1,-1,-1,-1,-1,-1,-1,-1,-1],"loss_changes":[2.7807184E1,1.0531614E1,3.2952461E0,6.192133E0,9.2245E0,6.0541725E-1,2.747259E0,4.0887423E0,4.306863E0,5.5964127E0,5.93832E0,1.1780353E0,7.7591515E-1,1.2049054E0,0E0,3.1088274E0,1.7460012E0,7.632402E0,3.2106085E0,2.408792E0,5.035187E0,6.128582E0,7.7767982E0,2.9825735E0,5.5750346E-1,8.265419E-1,3.8683093E0,2.395625E0,3.3582377E0,0E0,0E0,0E0,0E0,0E0,0E0,0E0,0E0,0E0,0E0,0E0,0E0,0E0,0E0,0E0,0E0,0E0,0E0,0E0,0E0,0E0,0E0,0E0,0E0,0E0,0E0,0E0,0E0],"parents":[2147483647,0,0,1,1,2,2,3,3,4,4,5,5,6,6,7,7,8,8,9,9,10,10,11,11,12,12,13,13,15,15,16,16,17,17,18,18,19,19,20,20,21,21,22,22,23,23,24,24,25,25,26,26,27,27,28,28],"right_children":[2,4,6,8,10,12,14,16,18,20,22,24,26,28,-1,30,32,34,36,38,40,42,44,46,48,50,52,54,56,-1,-1,-1,-1,-1,-1,-1,-1,-1,-1,-1,-1,-1,-1,-1,-1,-1,-1,-1,-1,-1,-1,-1,-1,-1,-1,-1,-1],"split_conditions":[1E0,1E0,8.4626865E-1,5.7881284E-1,6.666667E-1,5E-1,9.059724E-1,5.4316956E-1,1.8055555E-1,6.799387E-2,5E-1,5.5595E-1,1E0,4.8537347E-1,-8.5609354E-2,7.0150524E-2,2.777778E-1,5.716418E-1,8.4626865E-1,2.6268658E-1,1.1111111E-1,5.555556E-1,1E0,6.082695E-1,3.6069652E-1,3.2312404E-2,7.0746946E-1,8.8591117E-1,9.129353E-1,3.3431806E-2,-9.440809E-3,8.763804E-2,-8.01226E-3,-3.0213898E-2,6.379835E-2,-5.9621073E-2,4.5382343E-2,-4.3274548E-2,8.082285E-2,3.0456012E-2,-1.8757068E-2,1.3435724E-2,-5.850267E-2,4.251586E-2,-1.2014975E-2,-6.7051195E-2,4.4579044E-2,-3.9714067E-3,-8.82794E-2,-1.7339325E-2,-8.57492E-2,-8.038076E-2,9.034678E-2,-6.743268E-2,3.3858735E-2,5.9232064E-2,-5.966711E-2],"split_indices":[15,16,18,0,17,10,19,0,5,19,7,0,2,0,0,0,5,18,18,18,5,5,4,19,18,19,0,19,18,0,0,0,0,0,0,0,0,0,0,0,0,0,0,0,0,0,0,0,0,0,0,0,0,0,0,0,0],"split_type":[0,0,0,0,0,0,0,0,0,0,0,0,0,0,0,0,0,0,0,0,0,0,0,0,0,0,0,0,0,0,0,0,0,0,0,0,0,0,0,0,0,0,0,0,0,0,0,0,0,0,0,0,0,0,0,0,0],"sum_hessian":[8.445619E2,7.6791064E2,7.6651245E1,2.4676091E2,5.211497E2,5.5551132E1,2.1100115E1,1.4928282E2,9.747808E1,1.6664098E2,3.5450873E2,1.3498244E1,4.2052887E1,1.6802227E1,4.297888E0,1.4057178E2,8.711042E0,5.115058E1,4.63275E1,9.876604E0,1.5676437E2,1.6135022E2,1.9315851E2,7.6855807E0,5.8126636E0,3.8066734E1,3.9861562E0,7.9856253E0,8.816602E0,1.8620686E1,1.21951096E2,6.345268E0,2.3657746E0,4.1276253E1,9.874328E0,4.392317E1,2.4043305E0,1.2123624E0,8.664242E0,2.3676788E1,1.3308759E2,1.4948248E2,1.1867746E1,1.6248088E2,3.067763E1,4.135297E0,3.5502837E0,1.019604E0,4.79306E0,2.4621878E0,3.5604546E1,2.9390228E0,1.0471336E0,4.924433E0,3.061192E0,6.2063107E0,2.6102905E0],"tree_param":{"num_deleted":"0","num_feature":"20","num_nodes":"57","size_leaf_vector":"1"}},{"base_weights":[-8.366206E-3,4.435123E-2,-5.535254E-1,1.1883322E-1,-1.2413521E-1,-7.1005654E-1,-2.722819E-1,2.892654E-1,3.7039023E-2,1.8354487E-1,-1.7687948E-1,-7.466897E-1,-2.4382885E-1,6.3485414E-2,-3.6316812E-1,1.4705496E-1,5.944029E-1,-1.0992813E-1,1.659222E-1,-1.6876559E-1,4.3860537E-1,-6.520649E-2,-4.656658E-1,-1.8499224E-1,-7.769448E-1,-7.754405E-2,7.6014824E-2,-8.909827E-2,-2.1543129E-1,2.1368511E-2,-3.4322783E-2,1.1020348E-1,4.7388688E-2,-5.493001E-3,-7.461747E-2,8.217105E-2,1.1539647E-2,2.5794461E-2,-5.555553E-2,1.3641682E-1,-3.214392E-3,5.2549448E-2,-1.335294E-2,-5.5064835E-2,7.256578E-2,4.099936E-2,-6.1886843E-2,-4.733574E-2,-8.509525E-2,-2.8525614E-3,-8.397369E-2],"categories":[],"categories_nodes":[],"categories_segments":[],"categories_sizes":[],"default_left":[0,0,0,0,0,0,0,0,0,0,0,0,0,0,0,0,0,0,0,0,0,0,0,0,0,0,0,0,0,0,0,0,0,0,0,0,0,0,0,0,0,0,0,0,0,0,0,0,0,0,0],"id":22,"left_children":[1,3,5,7,9,11,13,15,17,19,21,23,25,-1,27,29,31,33,35,37,39,41,43,45,47,-1,-1,-1,49,-1,-1,-1,-1,-1,-1,-1,-1,-1,-1,-1,-1,-1,-1,-1,-1,-1,-1,-1,-1,-1,-1],"loss_changes":[2.4127295E1,9.622957E0,3.0654087E0,7.397831E0,3.8493254E0,6.195259E-1,2.5464494E0,7.384776E0,6.8419604E0,3.2109883E0,6.4610844E0,5.875225E-1,3.2068152E0,0E0,1.8485584E0,3.9537177E0,2.8065357E0,5.869863E0,6.277952E0,2.68206E0,8.987755E0,5.9753666E0,6.0659456E0,1.1602964E0,5.0753593E-1,0E0,0E0,0E0,2.515611E0,0E0,0E0,0E0,0E0,0E0,0E0,0E0,0E0,0E0,0E0,0E0,0E0,0E0,0E0,0E0,0E0,0E0,0E0,0E0,0E0,0E0,0E0],"parents":[2147483647,0,0,1,1,2,2,3,3,4,4,5,5,6,6,7,7,8,8,9,9,10,10,11,11,12,12,14,14,15,15,16,16,17,17,18,18,19,19,20,20,21,21,22,22,23,23,24,24,28,28],"right_children":[2,4,6,8,10,12,14,16,18,20,22,24,26,-1,28,30,32,34,36,38,40,42,44,46,48,-1,-1,-1,50,-1,-1,-1,-1,-1,-1,-1,-1,-1,-1,-1,-1,-1,-1,-1,-1,-1,-1,-1,-1,-1,-1],"split_conditions":[1E0,5E-1,7.477612E-1,9.7222224E-2,2.7777778E-2,1E0,7.8109455E-1,5.716418E-1,5E-1,3.7844363E-1,1E0,3.2312404E-2,7.2664016E-1,6.3485414E-2,8.4626865E-1,5E-1,1.8318659E-1,7.1542287E-1,6.799387E-2,1.915649E-1,5.6745243E-1,7.4552685E-2,1E0,1.840796E-2,5E-1,-7.754405E-2,7.6014824E-2,-8.909827E-2,9.059724E-1,2.1368511E-2,-3.4322783E-2,1.1020348E-1,4.7388688E-2,-5.493001E-3,-7.461747E-2,8.217105E-2,1.1539647E-2,2.5794461E-2,-5.555553E-2,1.3641682E-1,-3.214392E-3,5.2549448E-2,-1.335294E-2,-5.5064835E-2,7.256578E-2,4.099936E-2,-6.1886843E-2,-4.733574E-2,-8.509525E-2,-2.8525614E-3,-8.397369E-2],"split_indices":[15,9,18,5,5,2,18,18,13,0,17,19,0,0,18,12,0,18,19,0,0,0,2,18,10,0,0,0,19,0,0,0,0,0,0,0,0,0,0,0,0,0,0,0,0,0,0,0,0,0,0],"split_type":[0,0,0,0,0,0,0,0,0,0,0,0,0,0,0,0,0,0,0,0,0,0,0,0,0,0,0,0,0,0,0,0,0,0,0,0,0,0,0,0,0,0,0,0,0,0,0,0,0,0,0],"sum_hessian":[8.3766565E2,7.646426E2,7.302305E1,5.304457E2,2.3419687E2,4.5933327E1,2.7089724E1,1.7119505E2,3.5925064E2,3.390931E1,2.0028755E2,4.2029377E1,3.9039505E0,1.9219165E0,2.5167809E1,1.1778354E2,5.341152E1,1.6791829E2,1.9133235E2,1.4382018E1,1.9527292E1,1.4531888E2,5.4968674E1,2.511772E0,3.9517605E1,2.7012527E0,1.2026976E0,4.4037604E0,2.0764048E1,1.0418835E2,1.3595189E1,8.684935E0,4.472658E1,1.5555797E2,1.23603325E1,1.2594993E1,1.7873735E2,6.996512E0,7.385506E0,5.943542E0,1.358375E1,1.4371919E1,1.3094696E2,5.1810574E1,3.1581E0,1.0824392E0,1.4293327E0,9.194962E0,3.0322643E1,1.6784706E1,3.979342E0],"tree_param":{"num_deleted":"0","num_feature":"20","num_nodes":"51","size_leaf_vector":"1"}},{"base_weights":[-7.782104E-3,4.045855E-2,-5.2759194E-1,1.0982017E-1,-1.1507167E-1,-6.8576586E-1,-2.5502583E-1,2.3644829E-1,1.66403E-2,-1.8027891E-1,1.17080845E-1,-7.234186E-1,-2.2654894E-1,-6.829185E-2,-7.1323955E-1,1.2885627E-1,5.002003E-1,5.196983E-1,-2.0711707E-2,-3.707185E-2,-3.9500183E-1,7.053695E-1,-7.955006E-3,-1.7524733E-1,-7.546091E-1,-7.5749144E-2,6.933302E-2,9.403742E-2,-6.74285E-1,-6.0529285E-3,-9.132645E-2,-1.2216825E-3,3.4620434E-2,5.7966888E-2,-3.903028E-2,-1.1781414E-1,7.257662E-2,-1.4848257E-2,9.127193E-3,2.4176052E-2,-2.1198137E-2,-6.2258918E-2,5.718957E-3,1.08146906E-1,-3.0718787E-2,1.41746355E-2,-5.3913202E-2,-6.1281957E-2,4.1517563E-2,-4.479325E-2,-8.3234444E-2,-7.6853335E-2,2.6490087E-2,-8.18307E-2,-1.1254476E-2],"categories":[],"categories_nodes":[],"categories_segments":[],"categories_sizes":[],"default_left":[0,0,0,0,0,0,0,0,0,0,0,0,0,0,0,0,0,0,0,0,0,0,0,0,0,0,0,0,0,0,0,0,0,0,0,0,0,0,0,0,0,0,0,0,0,0,0,0,0,0,0,0,0,0,0],"id":23,"left_children":[1,3,5,7,9,11,13,15,17,19,21,23,25,27,29,31,33,35,37,39,41,43,45,47,49,-1,-1,51,53,-1,-1,-1,-1,-1,-1,-1,-1,-1,-1,-1,-1,-1,-1,-1,-1,-1,-1,-1,-1,-1,-1,-1,-1,-1,-1],"loss_changes":[2.0872517E1,8.231168E0,2.87261E0,6.2187104E0,3.5854263E0,5.992813E-1,2.3085117E0,6.277603E0,5.7397327E0,5.6499743E0,3.8481278E0,5.5742073E-1,2.8698566E0,2.0975764E0,9.7228336E-1,4.912669E0,4.784046E0,8.241426E0,4.088242E0,5.4947715E0,7.6101017E0,3.8235302E0,3.580828E0,1.1519575E0,5.297966E-1,0E0,0E0,2.736685E0,2.7126575E-1,0E0,0E0,0E0,0E0,0E0,0E0,0E0,0E0,0E0,0E0,0E0,0E0,0E0,0E0,0E0,0E0,0E0,0E0,0E0,0E0,0E0,0E0,0E0,0E0,0E0,0E0],"parents":[2147483647,0,0,1,1,2,2,3,3,4,4,5,5,6,6,7,7,8,8,9,9,10,10,11,11,12,12,13,13,14,14,15,15,16,16,17,17,18,18,19,19,20,20,21,21,22,22,23,23,24,24,27,27,28,28],"right_children":[2,4,6,8,10,12,14,16,18,20,22,24,26,28,30,32,34,36,38,40,42,44,46,48,50,-1,-1,52,54,-1,-1,-1,-1,-1,-1,-1,-1,-1,-1,-1,-1,-1,-1,-1,-1,-1,-1,-1,-1,-1,-1,-1,-1,-1,-1],"split_conditions":[1E0,5E-1,7.477612E-1,1.5277778E-1,7.870647E-1,1E0,1E0,8.061256E-1,5.1301684E-2,4.4609496E-1,8.149254E-1,3.2312404E-2,7.2664016E-1,7.844362E-1,8.5621893E-1,5E-1,9.4788414E-1,7.810107E-3,5E-1,8.3333336E-2,5E-1,6.111111E-1,1E0,1E0,5E-1,-7.5749144E-2,6.933302E-2,1.4044306E-1,9.4527364E-1,-6.0529285E-3,-9.132645E-2,-1.2216825E-3,3.4620434E-2,5.7966888E-2,-3.903028E-2,-1.1781414E-1,7.257662E-2,-1.4848257E-2,9.127193E-3,2.4176052E-2,-2.1198137E-2,-6.2258918E-2,5.718957E-3,1.08146906E-1,-3.0718787E-2,1.41746355E-2,-5.3913202E-2,-6.1281957E-2,4.1517563E-2,-4.479325E-2,-8.3234444E-2,-7.6853335E-2,2.6490087E-2,-8.18307E-2,-1.1254476E-2],"split_indices":[15,12,18,5,18,2,5,19,19,19,18,19,0,0,18,7,0,19,13,5,7,5,4,1,10,0,0,0,18,0,0,0,0,0,0,0,0,0,0,0,0,0,0,0,0,0,0,0,0,0,0,0,0,0,0],"split_type":[0,0,0,0,0,0,0,0,0,0,0,0,0,0,0,0,0,0,0,0,0,0,0,0,0,0,0,0,0,0,0,0,0,0,0,0,0,0,0,0,0,0,0,0,0,0,0,0,0,0,0,0,0,0,0],"sum_hessian":[8.305202E2,7.608336E2,6.968656E1,5.2637897E2,2.3445468E2,4.313738E1,2.6549181E1,2.2248807E2,3.0389087E2,1.8321617E2,5.1238506E1,3.9336697E1,3.8006783E0,1.9678658E1,6.870525E0,1.5908235E2,6.3405716E1,2.0111744E1,2.8377914E2,1.1061523E2,7.260095E1,8.167834E0,4.307067E1,2.4740486E0,3.686265E1,2.5217109E0,1.2789675E0,1.6187328E1,3.4913292E0,1.9171612E0,4.9533634E0,9.704051E1,6.2041836E1,5.853142E1,4.8742957E0,1.6662105E0,1.8445534E1,1.3239426E2,1.5138487E2,4.2492893E1,6.812234E1,4.8043762E1,2.4557188E1,5.906059E0,2.2617757E0,3.417289E1,8.897782E0,1.3991685E0,1.0748801E0,8.821783E0,2.8040867E1,2.0980077E0,1.408932E1,2.4153361E0,1.0759931E0],"tree_param":{"num_deleted":"0","num_feature":"20","num_nodes":"55","size_leaf_vector":"1"}},{"base_weights":[-7.7773086E-3,3.653852E-2,-5.033352E-1,-1.0917571E-1,1.0494813E-1,-6.331382E-1,-1.8590277E-1,-6.4710313E-3,-3.142657E-1,1.6504894E-1,-1.2427783E-1,-3.1731644E-1,-6.911554E-1,-1.7014407E-2,-8.101498E-2,-7.70243E-2,1.6414139E-1,2.7765792E-2,-4.222146E-1,2.8259527E-2,2.639369E-1,-4.603024E-1,-4.0089756E-2,-6.1490476E-1,3.3084473E-1,-3.214066E-1,-7.6447934E-1,3.8751355E-1,-1.6617574E-1,1.7399708E-2,-2.2306375E-2,4.597557E-2,-2.0421172E-2,4.0522408E-2,-4.5852426E-2,6.1300825E-2,-4.5405146E-2,2.2031376E-2,-9.541828E-3,1.674834E-2,5.0780963E-2,-6.687873E-2,9.90638E-2,9.505935E-3,-3.1596854E-2,-1.805017E-2,-8.1255905E-2,-2.7578035E-2,9.119379E-2,-5.5997252E-2,2.6128072E-2,-2.1677164E-2,-8.582839E-2,1.1678787E-1,-2.8071E-2,2.3616606E-2,-4.5324214E-2],"categories":[],"categories_nodes":[],"categories_segments":[],"categories_sizes":[],"default_left":[0,0,0,0,0,0,0,0,0,0,0,0,0,0,0,0,0,0,0,0,0,0,0,0,0,0,0,0,0,0,0,0,0,0,0,0,0,0,0,0,0,0,0,0,0,0,0,0,0,0,0,0,0,0,0,0,0],"id":24,"left_children":[1,3,5,7,9,11,13,15,17,19,21,23,25,27,-1,29,31,33,35,37,39,41,43,45,47,49,51,53,55,-1,-1,-1,-1,-1,-1,-1,-1,-1,-1,-1,-1,-1,-1,-1,-1,-1,-1,-1,-1,-1,-1,-1,-1,-1,-1,-1,-1],"loss_changes":[1.8124094E1,7.5644355E0,2.6735516E0,5.1073003E0,7.131162E0,6.540718E-1,2.2083166E0,1.9704759E0,2.9993782E0,5.529768E0,3.030727E0,1.9868946E0,8.230133E-1,1.1270007E0,0E0,4.281932E0,5.309973E0,3.9211905E0,2.3075047E0,4.127412E0,5.500849E0,7.1659827E0,3.2845013E0,4.2745686E-1,1.5062659E0,1.2929902E0,1.4667988E0,2.958208E0,1.6739033E0,0E0,0E0,0E0,0E0,0E0,0E0,0E0,0E0,0E0,0E0,0E0,0E0,0E0,0E0,0E0,0E0,0E0,0E0,0E0,0E0,0E0,0E0,0E0,0E0,0E0,0E0,0E0,0E0],"parents":[2147483647,0,0,1,1,2,2,3,3,4,4,5,5,6,6,7,7,8,8,9,9,10,10,11,11,12,12,13,13,15,15,16,16,17,17,18,18,19,19,20,20,21,21,22,22,23,23,24,24,25,25,26,26,27,27,28,28],"right_children":[2,4,6,8,10,12,14,16,18,20,22,24,26,28,-1,30,32,34,36,38,40,42,44,46,48,50,52,54,56,-1,-1,-1,-1,-1,-1,-1,-1,-1,-1,-1,-1,-1,-1,-1,-1,-1,-1,-1,-1,-1,-1,-1,-1,-1,-1,-1,-1],"split_conditions":[1E0,1E0,8.4626865E-1,6.4882135E-1,6.111111E-1,5E-1,9.059724E-1,4.4518602E-1,4.1666668E-2,5.532338E-1,5E-1,6.666667E-1,5E-1,5E-1,-8.101498E-2,1.6003977E-1,1.8055555E-1,5E-1,1.2098009E-2,5.5555556E-2,5.474732E-1,8.631841E-1,5E-1,5E-1,4.103948E-1,7.2664016E-1,1.529395E-1,1E0,3.3333334E-1,1.7399708E-2,-2.2306375E-2,4.597557E-2,-2.0421172E-2,4.0522408E-2,-4.5852426E-2,6.1300825E-2,-4.5405146E-2,2.2031376E-2,-9.541828E-3,1.674834E-2,5.0780963E-2,-6.687873E-2,9.90638E-2,9.505935E-3,-3.1596854E-2,-1.805017E-2,-8.1255905E-2,-2.7578035E-2,9.119379E-2,-5.5997252E-2,2.6128072E-2,-2.1677164E-2,-8.582839E-2,1.1678787E-1,-2.8071E-2,2.3616606E-2,-4.5324214E-2],"split_indices":[15,16,18,0,5,12,19,0,5,18,7,17,14,10,0,0,5,9,19,5,19,18,9,9,0,0,0,3,17,0,0,0,0,0,0,0,0,0,0,0,0,0,0,0,0,0,0,0,0,0,0,0,0,0,0,0,0],"split_type":[0,0,0,0,0,0,0,0,0,0,0,0,0,0,0,0,0,0,0,0,0,0,0,0,0,0,0,0,0,0,0,0,0,0,0,0,0,0,0,0,0,0,0,0,0,0,0,0,0,0,0,0,0,0,0,0,0],"sum_hessian":[8.23446E2,7.567032E2,6.6742775E1,2.4156584E2,5.151373E2,4.6665836E1,2.0076939E1,1.6164769E2,7.991816E1,4.0835153E2,1.06785805E2,8.246209E0,3.8419624E1,1.6610317E1,3.4666207E0,1.1474556E2,4.6902138E1,1.9350313E1,6.0567844E1,1.718799E2,2.3647163E2,2.049909E1,8.628672E1,5.686632E0,2.5595775E0,7.248945E0,3.1170681E1,4.044263E0,1.2566054E1,4.213314E1,7.261242E1,2.5882511E1,2.1019625E1,1.0988074E1,8.36224E0,1.262457E0,5.9305386E1,6.7022316E1,1.0485758E2,1.7066077E2,6.581087E1,1.8394989E1,2.1041005E0,5.8354908E1,2.793181E1,2.376593E0,3.3100388E0,1.509336E0,1.0502416E0,5.1708574E0,2.0780878E0,5.042039E0,2.6128641E1,1.5206636E0,2.523599E0,5.306279E0,7.2597756E0],"tree_param":{"num_deleted":"0","num_feature":"20","num_nodes":"57","size_leaf_vector":"1"}},{"base_weights":[-7.3831617E-3,3.313148E-2,-4.7781047E-1,1.1341801E-1,-7.68012E-2,-6.3704664E-1,-2.2392334E-1,-7.966953E-2,1.9020526E-1,9.009874E-2,-2.0815425E-1,-5.385233E-1,-9.279752E-2,6.045791E-2,-3.1478208E-1,-1.7579286E-1,4.1064137E-1,2.8015602E-1,-7.373647E-2,2.3901023E-2,3.9262402E-1,-5.5606914E-1,-4.703463E-2,-6.119457E-1,5.7902463E-2,-8.5912034E-2,-1.7187975E-1,1.2117261E-1,-2.195381E-2,-3.8396955E-2,6.2111676E-2,1.3814338E-2,4.0214095E-2,-1.842562E-2,5.5511147E-2,4.9127474E-2,-3.4305633E-3,-8.895899E-2,5.9693784E-2,2.141159E-2,-6.1959594E-2,-1.3295936E-2,6.0845274E-2,-4.1269135E-2,-7.780736E-2,-1.223392E-3,-7.937686E-2],"categories":[],"categories_nodes":[],"categories_segments":[],"categories_sizes":[],"default_left":[0,0,0,0,0,0,0,0,0,0,0,0,0,0,0,0,0,0,0,0,0,0,0,0,0,0,0,0,0,0,0,0,0,0,0,0,0,0,0,0,0,0,0,0,0,0,0],"id":25,"left_children":[1,3,5,7,9,11,13,15,17,19,21,23,-1,-1,25,27,29,31,33,35,37,39,41,43,-1,-1,45,-1,-1,-1,-1,-1,-1,-1,-1,-1,-1,-1,-1,-1,-1,-1,-1,-1,-1,-1,-1],"loss_changes":[1.5597444E1,6.6604857E0,2.480752E0,6.4789295E0,7.0053577E0,6.2778854E-1,2.1891923E0,5.951557E0,7.433053E0,2.815391E0,9.987612E0,2.961012E0,0E0,0E0,1.7648995E0,6.6392283E0,3.7083848E0,3.9818668E0,5.6725445E0,3.1941319E0,7.1481214E0,2.8946362E0,7.019195E0,6.8174267E-1,0E0,0E0,2.0478764E0,0E0,0E0,0E0,0E0,0E0,0E0,0E0,0E0,0E0,0E0,0E0,0E0,0E0,0E0,0E0,0E0,0E0,0E0,0E0,0E0],"parents":[2147483647,0,0,1,1,2,2,3,3,4,4,5,5,6,6,7,7,8,8,9,9,10,10,11,11,14,14,15,15,16,16,17,17,18,18,19,19,20,20,21,21,22,22,23,23,26,26],"right_children":[2,4,6,8,10,12,14,16,18,20,22,24,-1,-1,26,28,30,32,