{"learner":{"attributes":{},"feature_names":[],"feature_types":[],"gradient_booster":{"model":{"gbtree_model_param":{"num_parallel_tree":"1","num_trees":"4"},"iteration_indptr":[0,1,2,3,4],"tree_info":[0,0,0,0],"trees":[{"base_weights":[-5.018182E-1,-1.5471698E0,1.6284153E0,-1.734104E0,8.965517E-1,-1.7988166E0,6.666667E-1,-1.8181819E-1,1.2727273E0,-1.8323354E0,5E-1,-1.8545455E0,-0E0],"categories":[],"categories_nodes":[],"categories_segments":[],"categories_sizes":[],"default_left":[1,1,0,1,1,1,0,1,1,1,0,0,0],"id":0,"left_children":[1,3,-1,5,-1,9,-1,-1,-1,11,-1,-1,-1],"loss_changes":[2.4655292E2,4.2654343E1,0E0,8.834839E0,9.518256E-1,4.4093018E0,0E0,0E0,0E0,2.882721E0,0E0,0E0,0E0],"parents":[2147483647,0,0,1,1,3,3,4,4,5,5,9,9],"right_children":[2,4,-1,6,-1,10,-1,-1,-1,12,-1,-1,-1],"split_conditions":[3.88889E-1,5E-1,3.256831E-1,3.88889E-1,1.7931035E-1,5E-1,1.3333334E-1,-3.636364E-2,2.5454545E-1,3.88889E-1,1E-1,-3.709091E-1,-0E0],"split_indices":[7,9,0,4,4,6,0,2147483647,2147483647,10,0,0,0],"split_type":[0,0,0,0,0,0,0,0,0,0,0,0,0],"sum_hessian":[1.365E2,9.175E1,4.475E1,8.55E1,6.25E0,8.35E1,2E0,1.75E0,4.5E0,8.25E1,1E0,8.15E1,1E0],"tree_param":{"num_deleted":"2","num_feature":"11","num_nodes":"13","size_leaf_vector":"0"}},{"base_weights":[-4.1220993E-1,-1.2795818E0,1.346966E0,-1.4692307E0,7.9538053E-1,5.513511E-1,1.4880702E0,-1.507794E0,3.73704E-1,-1.8815306E-1,1.3187186E0,-1.6968316E-1,1.3086122E0,-1.5482455E0,6.048742E-1,-5.0193447E-1,4.944718E-1],"categories":[],"categories_nodes":[],"categories_segments":[],"categories_sizes":[],"default_left":[1,1,1,1,1,1,0,1,0,0,0,1,0,0,0,1,1],"id":1,"left_children":[1,3,5,7,9,11,-1,13,-1,-1,-1,-1,-1,-1,-1,-1,-1],"loss_changes":[1.8071231E2,3.211969E1,2.9736328E-1,4.576187E0,1.9872322E0,1.5281601E0,0E0,3.0854797E0,0E0,0E0,0E0,3.340199E-1,0E0,0E0,0E0,0E0,0E0],"parents":[2147483647,0,0,1,1,2,2,3,3,4,4,5,5,7,7,11,11],"right_children":[2,4,6,8,10,12,-1,14,-1,-1,-1,-1,-1,-1,-1,-1,-1],"split_conditions":[3.88889E-1,3.88889E-1,3.88889E-1,3.88889E-1,6.1111104E-1,3.88889E-1,2.9761407E-1,5E-1,7.47408E-2,-3.7630614E-2,2.6374373E-1,-3.393663E-2,2.6172245E-1,-3.096491E-1,1.2097484E-1,-1.00386895E-1,9.889436E-2],"split_indices":[7,9,2,10,3,5,0,6,0,0,0,8,0,0,0,2147483647,2147483647],"split_type":[0,0,0,0,0,0,0,0,0,0,0,0,0,0,0,0,0],"sum_hessian":[1.3253267E2,8.894865E1,4.3584015E1,8.176716E1,7.1814885E0,7.3045835E0,3.627943E1,8.026937E1,1.4977844E0,2.7165756E0,4.4649124E0,4.139264E0,3.1653197E0,7.902346E1,1.2459124E0,2.9218335E0,1.2174306E0],"tree_param":{"num_deleted":"2","num_feature":"11","num_nodes":"17","size_leaf_vector":"0"}},{"base_weights":[-3.5162735E-1,-1.1076118E0,1.1647291E0,-1.279739E0,6.8085575E-1,4.8034182E-1,1.2912619E0,-1.3344836E0,9.6338505E-1,-1.6050683E-1,1.1438547E0,-1.4168294E-1,1.1653633E0,-1.3619561E0,1.6628489E-1,-4.7474122E-1,5.116895E-1],"categories":[],"categories_nodes":[],"categories_segments":[],"categories_sizes":[],"default_left":[1,1,1,1,1,1,0,1,0,0,0,1,0,0,0,1,1],"id":2,"left_children":[1,3,5,7,9,11,-1,13,-1,-1,-1,-1,-1,-1,-1,-1,-1],"loss_changes":[1.3312035E2,2.6662033E1,9.70459E-1,4.745613E0,1.6634696E0,1.1758314E0,0E0,1.9234619E0,0E0,0E0,0E0,3.1641257E-1,0E0,0E0,0E0,0E0,0E0],"parents":[2147483647,0,0,1,1,2,2,3,3,4,4,5,5,7,7,11,11],"right_children":[2,4,6,8,10,12,-1,14,-1,-1,-1,-1,-1,-1,-1,-1,-1],"split_conditions":[3.88889E-1,3.88889E-1,3.88889E-1,4.444445E-1,6.1111104E-1,3.88889E-1,2.5825238E-1,3.88889E-1,1.92677E-1,-3.2101367E-2,2.2877096E-1,-2.8336588E-2,2.3307267E-1,-2.7239123E-1,3.3256978E-2,-9.494825E-2,1.023379E-1],"split_indices":[7,9,2,5,3,5,0,10,0,0,0,8,0,0,0,2147483647,2147483647],"split_type":[0,0,0,0,0,0,0,0,0,0,0,0,0,0,0,0,0],"sum_hessian":[1.2377844E2,8.27785E1,4.099994E1,7.577058E1,7.0079293E0,7.1458507E0,3.3854088E1,7.436084E1,1.4097339E0,2.7194579E0,4.2884717E0,4.160832E0,2.985019E0,7.311492E1,1.2459183E0,2.937058E0,1.2237741E0],"tree_param":{"num_deleted":"2","num_feature":"11","num_nodes":"17","size_leaf_vector":"0"}},{"base_weights":[-3.0669016E-1,-9.8231196E-1,1.0310211E0,-1.1434929E0,5.9163857E-1,4.2344773E-1,1.1500157E0,-1.1974304E0,8.4462404E-1,-1.3699457E-1,1.012836E0,-1.1841782E-1,1.0570843E0,-1.2246369E0,1.4801319E-1,-4.522391E-1,5.2618074E-1],"categories":[],"categories_nodes":[],"categories_segments":[],"categories_sizes":[],"default_left":[1,1,1,1,1,1,0,1,0,0,0,1,1,0,0,1,1],"id":3,"left_children":[1,3,5,7,9,-1,-1,13,-1,-1,-1,-1,-1,-1,-1,-1,-1],"loss_changes":[9.937744E1,2.0047028E1,1.5250168E0,4.8374863E0,1.4394584E0,9.2764163E-1,0E0,1.6781158E0,0E0,0E0,0E0,3.015137E-1,0E0,0E0,0E0,0E0,0E0],"parents":[2147483647,0,0,1,1,2,2,3,3,4,4,5,5,7,7,11,11],"right_children":[2,4,6,8,10,-1,-1,14,-1,-1,-1,-1,-1,-1,-1,-1,-1],"split_conditions":[3.88889E-1,3.88889E-1,3.88889E-1,4.444445E-1,6.1111104E-1,8.468955E-2,2.3000315E-1,3.88889E-1,1.6892481E-1,-2.7398914E-2,2.025672E-1,-2.3683565E-2,2.1141687E-1,-2.4492739E-1,2.9602638E-2,-9.044782E-2,1.0523615E-1],"split_indices":[7,9,2,5,3,5,0,10,0,0,0,2147483647,2147483647,0,0,2147483647,2147483647],"split_type":[0,0,0,0,0,0,0,0,0,0,0,0,0,0,0,0,0],"sum_hessian":[1.1314751E2,7.535469E1,3.7792812E1,6.8602875E1,6.7518167E0,6.936149E0,3.0856665E1,6.717805E1,1.4248282E0,2.720445E0,4.0313716E0,4.177123E0,2.7590263E0,6.593456E1,1.2434847E0,2.9485574E0,1.2285656E0],"tree_param":{"num_deleted":"4","num_feature":"11","num_nodes":"17","size_leaf_vector":"0"}}]},"name":"gbtree"},"learner_model_param":{"base_score":"5E-1","boost_from_average":"0","num_class":"0","num_feature":"11","num_target":"1"},"objective":{"name":"binary:logistic","reg_loss_param":{"scale_pos_weight":"1"}}},"version":[2,0,3]}