{"learner":{"attributes":{},"feature_names":[],"feature_types":[],"gradient_booster":{"model":{"gbtree_model_param":{"num_parallel_tree":"1","num_trees":"20"},"iteration_indptr":[0,1,2,3,4,5,6,7,8,9,10,11,12,13,14,15,16,17,18,19,20],"tree_info":[0,0,0,0,0,0,0,0,0,0,0,0,0,0,0,0,0,0,0,0],"trees":[{"base_weights":[6.0841423E-1,9.400387E-1,-1.0476191E0,1.0300429E0,1.0909091E-1,-1.0967742E0,-5E-1,1.1253071E0,3.4920636E-1,-3.3333334E-1,2.1276596E-1,1.2839506E0,4.827586E-1,-6.666667E-1,4.827586E-1,5.641026E-1,-1E0,1.431579E0,1.0434783E0,1.1578947E0,2.777778E-1,8.4210527E-1,-1.6666667E-1],"categories":[],"categories_nodes":[],"categories_segments":[],"categories_sizes":[],"default_left":[1,1,1,1,1,1,1,1,1,1,1,1,1,0,1,1,1,1,1,1,1,1,1],"id":0,"left_children":[1,3,-1,7,-1,-1,-1,11,13,-1,-1,-1,-1,-1,-1,-1,-1,-1,-1,-1,-1,-1,-1],"loss_changes":[8.090786E0,4.9049225E0,1.5821648E-1,5.216202E0,7.016119E-1,0E0,0E0,2.0075836E0,2.4586759E0,0E0,4.506938E-1,1.5167236E-1,7.589412E-1,0E0,8.544557E-1,0E0,0E0,0E0,0E0,0E0,0E0,0E0,0E0],"parents":[2147483647,0,0,1,1,2,2,3,3,4,4,7,7,8,8,10,10,11,11,12,12,14,14],"right_children":[2,4,-1,8,-1,-1,-1,12,14,-1,-1,-1,-1,-1,-1,-1,-1,-1,-1,-1,-1,-1,-1],"split_conditions":[7.663315E-1,5E-1,-2.0952383E-1,5.879285E-1,2.1818181E-2,-2.1935485E-1,-1E-1,2.75E-1,2.8688526E-1,-6.666667E-2,4.2553194E-2,2.5679013E-1,9.6551724E-2,-1.3333334E-1,9.6551724E-2,1.1282052E-1,-2E-1,2.863158E-1,2.0869565E-1,2.3157895E-1,5.555556E-2,1.6842106E-1,-3.3333335E-2],"split_indices":[2,1,5,6,8,2147483647,2147483647,8,3,2147483647,2147483647,4,6,0,3,2147483647,2147483647,2147483647,2147483647,2147483647,2147483647,2147483647,2147483647],"split_type":[0,0,0,0,0,0,0,0,0,0,0,0,0,0,0,0,0,0,0,0,0,0,0],"sum_hessian":[1.535E2,1.2825E2,2.525E1,1.155E2,1.275E1,2.225E1,3E0,1.0075E2,1.475E1,2E0,1.075E1,8E1,2.075E1,1.25E0,1.35E1,8.75E0,2E0,4.65E1,3.35E1,3.75E0,1.7E1,8.5E0,5E0],"tree_param":{"num_deleted":"12","num_feature":"9","num_nodes":"23","size_leaf_vector":"0"}},{"base_weights":[4.9350426E-1,8.041568E-1,-7.3171914E-1,9.140407E-1,1.350879E-1,-4.9087968E-1,-9.373107E-1,9.846008E-1,6.85901E-1,3.683417E-1,-8.009499E-1,-5.947581E-1,-2.8307354E-1,-9.811047E-1,-3.0701125E-1,1.0879287E0,1.2446411E-1,-5.9416485E-1,4.945215E-1,2.7701643E-1,-1.0015366E0,2.7966246E-1,-1.0425441E-3,6.997233E-1,9.595083E-3,-4.155041E-2,6.844666E-1],"categories":[],"categories_nodes":[],"categories_segments":[],"categories_sizes":[],"default_left":[1,1,1,1,1,1,1,1,0,1,0,1,1,1,1,0,1,0,1,1,1,1,1,0,0,1,1],"id":1,"left_children":[1,3,5,7,9,-1,-1,15,-1,17,-1,-1,-1,-1,-1,-1,-1,-1,23,-1,-1,-1,-1,-1,-1,-1,-1],"loss_changes":[7.6080627E0,6.0036316E0,1.0964489E0,9.421463E-1,3.5217903E0,9.7607136E-2,8.383751E-2,2.3201218E0,0E0,2.1697452E0,0E0,0E0,4.0366858E-1,0E0,0E0,0E0,1.8495129E-1,0E0,1.0024686E0,7.150054E-3,0E0,0E0,0E0,0E0,0E0,0E0,0E0],"parents":[2147483647,0,0,1,1,2,2,3,3,4,4,5,5,6,6,7,7,9,9,12,12,16,16,18,18,19,19],"right_children":[2,4,6,8,10,-1,-1,16,-1,18,-1,-1,-1,-1,-1,-1,-1,-1,24,-1,-1,-1,-1,-1,-1,-1,-1],"split_conditions":[7.36181E-1,5.774963E-1,2.6470575E-1,3.2352924E-1,3.8235277E-1,-9.8175935E-2,-1.8746214E-1,3.0833328E-1,1.371802E-1,2.8688526E-1,-1.6018997E-1,-1.1895162E-1,-5.661471E-2,-1.9622093E-1,-6.140225E-2,2.1758573E-1,2.4892822E-2,-1.1883297E-1,6.803278E-1,5.540329E-2,-2.0030732E-1,5.5932492E-2,-2.0850883E-4,1.3994466E-1,1.9190166E-3,-8.310082E-3,1.3689332E-1],"split_indices":[2,6,1,1,1,3,5,8,0,3,0,2147483647,2147483647,2147483647,2147483647,0,3,0,3,2147483647,2147483647,2147483647,2147483647,0,0,2147483647,2147483647],"split_type":[0,0,0,0,0,0,0,0,0,0,0,0,0,0,0,0,0,0,0,0,0,0,0,0,0,0,0],"sum_hessian":[1.5183368E2,1.2139733E2,3.0436346E1,1.0395779E2,1.7439543E1,1.557671E1,1.4859636E1,7.6867935E1,2.708985E1,1.4446156E1,2.9933884E0,9.143808E0,6.432902E0,1.3373837E1,1.4857992E0,6.838772E1,8.480221E0,1.2444609E0,1.32016945E1,3.96014E0,2.4727619E0,3.2424374E0,5.2377834E0,8.965078E0,4.2366157E0,2.7264643E0,1.2336757E0],"tree_param":{"num_deleted":"10","num_feature":"9","num_nodes":"27","size_leaf_vector":"0"}},{"base_weights":[4.0564466E-1,6.6444993E-1,-6.046015E-1,7.5894475E-1,1.0171286E-1,-4.0269762E-1,-7.7913463E-1,8.772552E-1,6.0866004E-1,2.9906267E-1,-6.8138134E-1,-5.568128E-1,-2.772179E-1,-8.248128E-1,-1.9884619E-1,6.4818645E-1,-2.8392345E-1,-5.319608E-1,4.0940544E-1,-3.3754268E-1,-2.5149155E-2,6.79732E-1,-1.9458827E-1,5.8118784E-1,8.043239E-3,-4.6682727E-1,1.8577412E-1],"categories":[],"categories_nodes":[],"categories_segments":[],"categories_sizes":[],"default_left":[1,1,1,1,1,1,1,0,1,1,0,1,1,1,1,1,0,0,1,1,1,0,0,1,1,1,1],"id":2,"left_children":[1,3,-1,7,9,-1,-1,-1,15,17,-1,-1,-1,-1,-1,21,-1,-1,-1,-1,-1,-1,-1,-1,-1,-1,-1],"loss_changes":[7.981127E0,5.001423E0,7.7738E-1,1.103569E0,2.6954916E0,1.6329384E-1,1.4986134E-1,0E0,1.8842716E0,1.6223493E0,0E0,0E0,1.5947169E-1,0E0,0E0,1.0882854E0,0E0,0E0,8.4163547E-1,4.158579E-1,0E0,0E0,0E0,0E0,0E0,0E0,0E0],"parents":[2147483647,0,0,1,1,2,2,3,3,4,4,5,5,6,6,8,8,9,9,12,12,15,15,18,18,19,19],"right_children":[2,4,-1,8,10,-1,-1,-1,16,18,-1,-1,-1,-1,-1,22,-1,-1,-1,-1,-1,-1,-1,-1,-1,-1,-1],"split_conditions":[7.36181E-1,5.774963E-1,-1.209203E-1,2.1717149E-1,3.8235277E-1,-8.0539525E-2,-1.5582693E-1,1.7545104E-1,6.176473E-1,2.8688526E-1,-1.3627627E-1,-1.1136257E-1,-5.544358E-2,-1.6496257E-1,-3.976924E-2,3.3096924E-1,-5.678469E-2,-1.0639216E-1,8.188109E-2,-6.750854E-2,-5.029831E-3,1.3594641E-1,-3.8917657E-2,1.1623757E-1,1.6086478E-3,-9.336545E-2,3.7154824E-2],"split_indices":[2,6,1,4,1,2147483647,2147483647,0,1,3,0,2147483647,2147483647,2147483647,2147483647,5,0,0,3,2147483647,2147483647,0,0,2147483647,2147483647,2147483647,2147483647],"split_type":[0,0,0,0,0,0,0,0,0,0,0,0,0,0,0,0,0,0,0,0,0,0,0,0,0,0,0],"sum_hessian":[1.4826433E2,1.1830038E2,2.996395E1,1.0099297E2,1.730741E1,1.5426038E1,1.4537911E1,5.380115E1,4.7191822E1,1.4317353E1,2.9900558E0,5.380362E0,1.0045675E1,1.3086411E1,1.4515002E0,4.5452835E1,1.7389863E0,1.2303375E0,1.3087015E1,7.832194E0,2.213482E0,4.399937E1,1.4534633E0,8.850833E0,4.236182E0,6.3671455E0,1.4650481E0],"tree_param":{"num_deleted":"12","num_feature":"9","num_nodes":"27","size_leaf_vector":"0"}},{"base_weights":[3.351352E-1,6.079267E-1,-4.5052442E-1,6.984643E-1,5.9734844E-2,-1.2520616E0,-3.7956345E-1,8.323896E-1,4.822265E-1,2.4478303E-1,-5.8452624E-1,-1.4130451E-1,-6.370872E-1,7.2172207E-1,-3.7497747E-1,4.9724662E-1,-6.70502E-2,-2.6988915E-1,1.37951E-1,-6.744895E-1,-1.2989184E-1,7.752904E-1,3.937871E-2,-1.617444E-1,-7.0820504E-1,6.9438004E-1,-1.9230425E-1,1.014347E-1,-3.6478746E-1,7.602266E-2,-7.18424E-1,3.0491322E-1,-2.9889557E-1],"categories":[],"categories_nodes":[],"categories_segments":[],"categories_sizes":[],"default_left":[1,1,1,1,1,0,1,0,1,1,0,1,1,1,1,1,1,1,1,1,1,1,1,1,1,1,1,1,1,1,1,1,1],"id":3,"left_children":[1,3,5,7,9,-1,11,-1,13,-1,-1,-1,-1,-1,-1,-1,-1,-1,-1,-1,-1,-1,-1,-1,-1,-1,-1,-1,-1,-1,-1,-1,-1],"loss_changes":[8.303797E0,4.657379E0,1.6833448E0,7.92511E-1,2.0601077E0,0E0,2.1372237E0,0E0,1.2440443E0,6.3905376E-1,0E0,4.9242258E-1,1.4690971E-1,1.1004448E-1,5.1901245E-1,7.5680804E-1,3.831832E-1,3.0229568E-1,2.2690165E-1,0E0,0E0,0E0,0E0,0E0,0E0,0E0,0E0,0E0,0E0,0E0,0E0,0E0,0E0],"parents":[2147483647,0,0,1,1,2,2,3,3,4,4,6,6,8,8,9,9,11,11,12,12,13,13,14,14,15,15,16,16,17,17,18,18],"right_children":[2,4,6,8,10,-1,12,-1,14,-1,-1,-1,-1,-1,-1,-1,-1,-1,-1,-1,-1,-1,-1,-1,-1,-1,-1,-1,-1,-1,-1,-1,-1],"split_conditions":[7.0603E-1,5.774963E-1,2.04918E-1,2.373735E-1,3.8235277E-1,-2.5041232E-1,2.6470575E-1,1.6647792E-1,2.316395E-1,4.8956607E-2,-1.1690525E-1,-2.8260902E-2,-1.2741745E-1,1.4434442E-1,-7.4995495E-2,9.944933E-2,-1.3410041E-2,-5.397783E-2,2.75902E-2,-1.348979E-1,-2.597837E-2,1.5505809E-1,7.875742E-3,-3.2348882E-2,-1.41641E-1,1.38876E-1,-3.846085E-2,2.028694E-2,-7.295749E-2,1.5204533E-2,-1.436848E-1,6.0982645E-2,-5.9779115E-2],"split_indices":[2,6,3,4,1,0,1,0,7,3,0,3,5,1,8,2147483647,2147483647,2147483647,2147483647,2147483647,2147483647,2147483647,2147483647,2147483647,2147483647,2147483647,2147483647,2147483647,2147483647,2147483647,2147483647,2147483647,2147483647],"split_type":[0,0,0,0,0,0,0,0,0,0,0,0,0,0,0,0,0,0,0,0,0,0,0,0,0,0,0,0,0,0,0,0,0],"sum_hessian":[1.4402478E2,1.07073616E2,3.695117E1,9.166106E1,1.5412554E1,1.6515689E0,3.5299606E1,5.484424E1,3.681682E1,1.2455169E1,2.9573855E0,1.914007E1,1.6159534E1,2.8900354E1,7.9164653E0,6.554214E0,5.9009547E0,1.3128517E1,6.011552E0,1.474253E1,1.4170051E0,2.6670343E1,2.2300115E0,5.7331786E0,2.1832867E0,5.0915923E0,1.4626216E0,4.1894975E0,1.7114573E0,7.881096E0,5.2474217E0,4.567769E0,1.4437828E0],"tree_param":{"num_deleted":"18","num_feature":"9","num_nodes":"33","size_leaf_vector":"0"}},{"base_weights":[2.767379E-1,5.090028E-1,-3.7698117E-1,5.884288E-1,4.3959856E-2,-1.1167711E0,-3.1264925E-1,7.0769686E-1,4.004474E-1,2.0085682E-1,-5.0407946E-1,-1.1474509E-1,-5.3148365E-1,5.962845E-1,-7.269628E-2,5.481991E-1,5.1682264E-2,-2.4434353E-1,1.6234279E-1,-5.838475E-1,9.686158E-2,6.2915E-1,1.2380924E-1,3.4201244E-1,-9.1841274E-1,2.1747987E-1,-3.9592415E-1,1.0127522E-1,-6.971325E-1,3.283111E-1,-2.82666E-1,-8.853731E-1,5.8836037E-1],"categories":[],"categories_nodes":[],"categories_segments":[],"categories_sizes":[],"default_left":[1,1,1,1,1,0,1,1,1,1,0,1,1,1,1,1,1,1,1,1,1,1,1,1,1,1,1,1,1,1,1,1,1],"id":4,"left_children":[1,3,5,-1,9,-1,11,-1,-1,-1,-1,-1,-1,-1,-1,-1,-1,-1,-1,-1,-1,-1,-1,-1,-1,-1,-1,-1,-1,-1,-1,-1,-1],"loss_changes":[1.0159515E1,3.8226585E0,1.4328284E0,8.328743E-1,1.501112E0,0E0,1.4910161E0,0E0,8.209653E-1,6.645228E-1,0E0,4.6719247E-1,1.6438913E-1,1.8860722E-1,5.0329864E-1,0E0,4.9673873E-1,3.3744127E-1,2.2249654E-1,1.575923E-1,0E0,0E0,0E0,0E0,0E0,0E0,0E0,0E0,0E0,0E0,0E0,0E0,0E0],"parents":[2147483647,0,0,1,1,2,2,3,3,4,4,6,6,8,8,9,9,11,11,12,12,13,13,14,14,16,16,17,17,18,18,19,19],"right_children":[2,4,6,-1,10,-1,12,-1,-1,-1,-1,-1,-1,-1,-1,-1,-1,-1,-1,-1,-1,-1,-1,-1,-1,-1,-1,-1,-1,-1,-1,-1,-1],"split_conditions":[7.0603E-1,5.774963E-1,2.04918E-1,1.1768576E-1,3.8235277E-1,-2.2335422E-1,2.6470575E-1,1.4153938E-1,8.008948E-2,4.0171366E-2,-1.0081589E-1,-2.2949018E-2,-1.0629673E-1,1.19256906E-1,-1.4539257E-2,1.0963982E-1,1.0336453E-2,-4.886871E-2,3.2468557E-2,-1.1676951E-1,1.9372316E-2,1.2583E-1,2.4761848E-2,6.840249E-2,-1.8368255E-1,4.3495975E-2,-7.918483E-2,2.0255044E-2,-1.3942651E-1,6.566222E-2,-5.65332E-2,-1.7707463E-1,1.1767208E-1],"split_indices":[2,6,3,4,1,0,1,2147483647,2147483647,2,0,3,5,2147483647,2147483647,2147483647,2147483647,2147483647,2147483647,2147483647,2147483647,2147483647,2147483647,2147483647,2147483647,2147483647,2147483647,2147483647,2147483647,2147483647,2147483647,2147483647,2147483647],"split_type":[0,0,0,0,0,0,0,0,0,0,0,0,0,0,0,0,0,0,0,0,0,0,0,0,0,0,0,0,0,0,0,0,0],"sum_hessian":[1.3963593E2,1.0319304E2,3.644288E1,8.791284E1,1.5280199E1,1.6067239E0,3.4836155E1,5.209533E1,3.5817513E1,1.2371802E1,2.9083967E0,1.9093336E1,1.5742821E1,2.514824E1,1.0669273E1,2.9133623E0,9.45844E0,1.3089392E1,6.003945E0,1.4597167E1,1.1456537E0,2.3202654E1,1.9455853E0,7.5584683E0,3.1108048E0,7.2770715E0,2.1813684E0,7.863458E0,5.225933E0,4.564011E0,1.439934E0,1.1805221E1,2.7919464E0],"tree_param":{"num_deleted":"22","num_feature":"9","num_nodes":"33","size_leaf_vector":"0"}},{"base_weights":[2.2732693E-1,4.334252E-1,-3.2547948E-1,4.9351156E-1,7.311226E-2,-1.0099678E0,-2.6838437E-1,5.791352E-1,2.4845785E-1,-6.351874E-1,2.2114712E-1,-1.2165392E-1,-4.296672E-1,7.6152873E-1,2.7004802E-1,1.6759683E-1,4.056661E-1,3.1054372E-1,-1.7221801E-1,-2.6186448E-1,1.8220422E-1,-4.6371406E-1,-2.2021476E-2,9.215212E-1,-4.0387753E-1,5.2856666E-1,-7.210904E-1,2.9319066E-1,-2.1980663E-1,5.958436E-1,1.6750184E-1,1.21838614E-1,-7.4779207E-1,3.4739184E-1,-2.6952517E-1,-6.224685E-1,-6.7495696E-2],"categories":[],"categories_nodes":[],"categories_segments":[],"categories_sizes":[],"default_left":[1,1,1,1,1,0,1,1,1,0,1,1,1,1,1,1,1,1,1,1,1,1,1,1,1,1,1,1,1,1,1,1,1,1,1,1,1],"id":5,"left_children":[1,3,5,7,9,-1,-1,13,-1,-1,-1,-1,-1,-1,-1,-1,-1,-1,-1,-1,-1,-1,-1,-1,-1,-1,-1,-1,-1,-1,-1,-1,-1,-1,-1,-1,-1],"loss_changes":[1.0661243E1,2.1246777E0,1.1991858E0,1.0912571E0,1.1106454E0,0E0,8.0170846E-1,1.1806717E0,2.3526323E-1,0E0,4.5459777E-1,4.8329702E-1,1.6099215E-1,9.195595E-1,5.455382E-1,9.138185E-1,0E0,3.6404932E-1,0E0,2.8585672E-1,2.181939E-1,1.8496037E-1,0E0,0E0,0E0,0E0,0E0,0E0,0E0,0E0,0E0,0E0,0E0,0E0,0E0,0E0,0E0],"parents":[2147483647,0,0,1,1,2,2,3,3,4,4,6,6,7,7,8,8,10,10,11,11,12,12,13,13,14,14,15,15,17,17,19,19,20,20,21,21],"right_children":[2,4,6,8,10,-1,-1,14,-1,-1,-1,-1,-1,-1,-1,-1,-1,-1,-1,-1,-1,-1,-1,-1,-1,-1,-1,-1,-1,-1,-1,-1,-1,-1,-1,-1,-1],"split_conditions":[7.01005E-1,5.7973176E-1,2.04918E-1,3.2352924E-1,4.426229E-1,-2.0199357E-1,-5.3676873E-2,2.4747476E-1,4.969157E-2,-1.2703748E-1,4.4229425E-2,-2.4330785E-2,-8.593344E-2,1.5230575E-1,5.4009605E-2,3.351937E-2,8.1133224E-2,6.2108744E-2,-3.4443602E-2,-5.23729E-2,3.6440846E-2,-9.2742816E-2,-4.4042952E-3,1.8430424E-1,-8.077551E-2,1.0571333E-1,-1.4421807E-1,5.8638133E-2,-4.3961328E-2,1.1916872E-1,3.350037E-2,2.4367724E-2,-1.4955841E-1,6.947837E-2,-5.3905036E-2,-1.24493696E-1,-1.349914E-2],"split_indices":[2,6,3,1,3,0,1,4,8,0,1,2147483647,2147483647,8,7,2147483647,2147483647,2147483647,2147483647,2147483647,2147483647,2147483647,2147483647,2147483647,2147483647,2147483647,2147483647,2147483647,2147483647,2147483647,2147483647,2147483647,2147483647,2147483647,2147483647,2147483647,2147483647],"split_type":[0,0,0,0,0,0,0,0,0,0,0,0,0,0,0,0,0,0,0,0,0,0,0,0,0,0,0,0,0,0,0,0,0,0,0,0,0],"sum_hessian":[1.3542513E2,9.880458E1,3.662054E1,8.436591E1,1.4438672E1,1.5345281E0,3.5086014E1,6.151041E1,2.28555E1,1.9271375E0,1.2511535E1,1.929043E1,1.5795584E1,3.7762695E1,2.3747715E1,1.6456882E1,6.3986163E0,1.0366238E1,2.1452968E0,1.3294221E1,5.996208E0,1.4451077E1,1.344506E0,3.3388264E1,4.374429E0,1.9205145E1,4.5425706E0,1.2611502E1,3.8453817E0,2.4046323E0,7.9616055E0,7.8471446E0,5.4470763E0,4.559772E0,1.4364359E0,9.909554E0,4.5415235E0],"tree_param":{"num_deleted":"24","num_feature":"9","num_nodes":"37","size_leaf_vector":"0"}},{"base_weights":[1.879516E-1,3.629438E-1,-2.708234E-1,4.6242833E-1,8.430718E-2,-9.226019E-1,-2.185959E-1,6.1827296E-1,2.7168933E-1,3.1622976E-1,-4.8776454E-1,-7.117004E-2,-3.8505012E-1,6.8630457E-1,-7.270947E-2,4.4323212E-1,-1.16637215E-1,3.862175E-1,-2.2253537E-1,-9.8170537E-1,-1.6246714E-1,-2.1346647E-1,2.2889256E-1,-4.197499E-1,8.581723E-3,8.161109E-1,-3.1404847E-1,1.9835393E-1,-2.71775E-1,4.987613E-1,-1.4963337E-2,-1.9845995E-1,2.2263479E-1,2.4359788E-1,5.756009E-1,4.9204734E-1,-6.101624E-1,1.7018272E-1,-7.0766705E-1,3.1254557E-1,-9.577444E-2,-5.82174E-1,-2.4092661E-2],"categories":[],"categories_nodes":[],"categories_segments":[],"categories_sizes":[],"default_left":[1,1,1,1,1,0,1,1,1,1,1,1,1,1,1,1,1,1,1,1,1,1,1,1,1,0,0,1,1,1,1,1,1,1,1,1,1,1,1,1,1,1,1],"id":6,"left_children":[1,3,5,7,-1,-1,-1,13,-1,-1,-1,-1,-1,25,-1,-1,-1,-1,-1,-1,-1,-1,-1,-1,-1,-1,-1,-1,-1,-1,-1,-1,-1,-1,-1,-1,-1,-1,-1,-1,-1,-1,-1],"loss_changes":[8.891945E0,1.7896032E0,1.0639594E0,1.9370213E0,4.4903174E-1,0E0,8.494539E-1,1.0900803E0,8.8281155E-1,3.530289E-1,4.1835296E-1,4.3407962E-1,1.6112399E-1,1.1034584E0,1.0938501E-1,6.0618114E-1,3.5217398E-1,3.363626E-1,0E0,0E0,2.4209787E-1,3.5055685E-1,2.1930796E-1,2.4006367E-1,0E0,0E0,0E0,0E0,0E0,0E0,0E0,0E0,0E0,0E0,0E0,0E0,0E0,0E0,0E0,0E0,0E0,0E0,0E0],"parents":[2147483647,0,0,1,1,2,2,3,3,4,4,6,6,7,7,8,8,9,9,10,10,11,11,12,12,13,13,14,14,15,15,16,16,17,17,20,20,21,21,22,22,23,23],"right_children":[2,4,6,8,-1,-1,-1,14,-1,-1,-1,-1,-1,26,-1,-1,-1,-1,-1,-1,-1,-1,-1,-1,-1,-1,-1,-1,-1,-1,-1,-1,-1,-1,-1,-1,-1,-1,-1,-1,-1,-1,-1],"split_conditions":[7.01005E-1,3.2352924E-1,2.04918E-1,2.373735E-1,1.6861437E-2,-1.8452038E-1,-4.3719184E-2,5.6184804E-1,5.4337867E-2,6.324595E-2,-9.755291E-2,-1.4234008E-2,-7.701003E-2,3.0833328E-1,-1.4541894E-2,8.864643E-2,-2.3327444E-2,7.72435E-2,-4.4507075E-2,-1.9634108E-1,-3.2493427E-2,-4.2693295E-2,4.5778513E-2,-8.3949976E-2,1.7163446E-3,1.6322218E-1,-6.28097E-2,3.9670788E-2,-5.4355003E-2,9.975226E-2,-2.9926675E-3,-3.9691992E-2,4.452696E-2,4.8719577E-2,1.1512019E-1,9.840947E-2,-1.2203248E-1,3.4036543E-2,-1.4153342E-1,6.250911E-2,-1.915489E-2,-1.16434805E-1,-4.818532E-3],"split_indices":[2,1,3,4,7,0,1,6,3,2147483647,2147483647,2147483647,2147483647,8,3,2147483647,2147483647,2147483647,2147483647,2147483647,2147483647,2147483647,2147483647,2147483647,2147483647,0,0,2147483647,2147483647,2147483647,2147483647,2147483647,2147483647,2147483647,2147483647,2147483647,2147483647,2147483647,2147483647,2147483647,2147483647,2147483647,2147483647],"split_type":[0,0,0,0,0,0,0,0,0,0,0,0,0,0,0,0,0,0,0,0,0,0,0,0,0,0,0,0,0,0,0,0,0,0,0,0,0,0,0,0,0,0,0],"sum_hessian":[1.3158041E2,9.540038E1,3.618003E1,6.981426E1,2.558612E1,1.4477403E0,3.473229E1,3.718805E1,3.262621E1,1.8523685E1,7.0624347E0,1.9175985E1,1.5556303E1,3.386099E1,3.3270597E0,2.2531538E1,1.0094671E1,1.6644625E1,1.8790605E0,2.0030603E0,5.0593743E0,1.3203285E1,5.9727006E0,1.4235088E1,1.3212148E0,3.0134853E1,3.7261374E0,1.4102823E0,1.9167774E0,2.001711E1,2.514428E0,8.467576E0,1.6270959E0,1.0798689E1,5.845937E0,2.014776E0,3.0445983E0,7.8021197E0,5.4011655E0,4.778753E0,1.1939479E0,9.757894E0,4.477194E0],"tree_param":{"num_deleted":"30","num_feature":"9","num_nodes":"43","size_leaf_vector":"0"}},{"base_weights":[1.5549813E-1,3.0407923E-1,-2.2569329E-1,3.9154938E-1,6.842804E-2,-8.491459E-1,-1.7786728E-1,5.3549665E-1,2.11856E-1,3.017339E-1,-5.0412744E-1,-2.9898405E-2,-3.485817E-1,5.964623E-1,-6.1387774E-2,2.6955175E-1,-2.3162343E-1,3.7241328E-1,-2.333198E-1,-9.9651E-1,-1.7696579E-1,-1.7400552E-1,2.672126E-1,-3.838582E-1,3.356786E-2,7.422969E-1,-3.823604E-1,2.0657787E-1,-2.6172018E-1,3.335204E-1,-2.2506864E-1,6.430987E-2,-5.4326284E-1,2.2950637E-1,5.6378335E-1,4.819911E-1,-6.2401766E-1,2.0986983E-1,-6.7536247E-1,3.497461E-1,-7.224983E-2,-5.4944795E-1,1.1541467E-2],"categories":[],"categories_nodes":[],"categories_segments":[],"categories_sizes":[],"default_left":[1,1,1,1,1,1,1,1,1,1,1,1,1,1,1,1,1,1,1,1,1,1,1,1,1,1,1,1,1,1,1,1,1,1,1,1,1,1,1,1,1,1,1],"id":7,"left_children":[1,3,-1,7,-1,-1,-1,-1,-1,-1,-1,-1,-1,-1,-1,-1,-1,-1,-1,-1,-1,-1,-1,-1,-1,-1,-1,-1,-1,-1,-1,-1,-1,-1,-1,-1,-1,-1,-1,-1,-1,-1,-1],"loss_changes":[7.3783236E0,1.4399633E0,9.453597E-1,1.6057482E0,4.684545E-1,0E0,8.841938E-1,9.6361065E-1,8.7149155E-1,3.4546578E-1,4.2569065E-1,3.9300495E-1,1.5977478E-1,7.056627E-1,1.161495E-1,6.073947E-1,3.9177877E-1,3.492899E-1,0E0,0E0,2.4532254E-1,4.0213105E-1,2.1993205E-1,2.8303647E-1,0E0,0E0,0E0,0E0,0E0,0E0,0E0,0E0,0E0,0E0,0E0,0E0,0E0,0E0,0E0,0E0,0E0,0E0,0E0],"parents":[2147483647,0,0,1,1,2,2,3,3,4,4,6,6,7,7,8,8,9,9,10,10,11,11,12,12,13,13,14,14,15,15,16,16,17,17,20,20,21,21,22,22,23,23],"right_children":[2,4,-1,8,-1,-1,-1,-1,-1,-1,-1,-1,-1,-1,-1,-1,-1,-1,-1,-1,-1,-1,-1,-1,-1,-1,-1,-1,-1,-1,-1,-1,-1,-1,-1,-1,-1,-1,-1,-1,-1,-1,-1],"split_conditions":[7.01005E-1,3.2352924E-1,-4.5138657E-2,2.4747476E-1,1.3685608E-2,-1.6982917E-1,-3.5573456E-2,1.0709933E-1,4.23712E-2,6.0346782E-2,-1.0082549E-1,-5.979681E-3,-6.971634E-2,1.1929246E-1,-1.2277555E-2,5.3910352E-2,-4.6324685E-2,7.448266E-2,-4.6663962E-2,-1.99302E-1,-3.539316E-2,-3.4801107E-2,5.344252E-2,-7.677164E-2,6.7135724E-3,1.4845937E-1,-7.647208E-2,4.1315574E-2,-5.2344035E-2,6.670409E-2,-4.501373E-2,1.2861975E-2,-1.0865257E-1,4.5901276E-2,1.1275667E-1,9.639823E-2,-1.24803536E-1,4.1973967E-2,-1.350725E-1,6.9949225E-2,-1.4449966E-2,-1.0988959E-1,2.3082935E-3],"split_indices":[2,1,3,4,7,2147483647,2147483647,6,7,2147483647,2147483647,2147483647,2147483647,2147483647,2147483647,2147483647,2147483647,2147483647,2147483647,2147483647,2147483647,2147483647,2147483647,2147483647,2147483647,2147483647,2147483647,2147483647,2147483647,2147483647,2147483647,2147483647,2147483647,2147483647,2147483647,2147483647,2147483647,2147483647,2147483647,2147483647,2147483647,2147483647,2147483647],"split_type":[0,0,0,0,0,0,0,0,0,0,0,0,0,0,0,0,0,0,0,0,0,0,0,0,0,0,0,0,0,0,0,0,0,0,0,0,0,0,0,0,0,0,0],"sum_hessian":[1.2806029E2,9.2289795E1,3.5770493E1,6.682413E1,2.5465666E1,1.3547878E0,3.4415707E1,3.6003048E1,3.0821077E1,1.8429136E1,7.03653E0,1.9065544E1,1.53501625E1,3.266714E1,3.335909E0,2.7619967E1,3.2011116E0,1.6547253E1,1.8818837E0,1.9922469E0,5.0442834E0,1.3117522E1,5.948022E0,1.4048834E1,1.3013288E0,2.8641495E1,4.025646E0,1.4137261E0,1.9221827E0,2.4745378E1,2.874587E0,2.049009E0,1.1521025E0,1.0732195E1,5.8150578E0,2.0073233E0,3.0369601E0,7.7584696E0,5.359052E0,4.760345E0,1.1876771E0,9.627376E0,4.4214582E0],"tree_param":{"num_deleted":"36","num_feature":"9","num_nodes":"43","size_leaf_vector":"0"}},{"base_weights":[1.2897837E-1,2.8586528E-1,-1.9091389E-1,3.3076122E-1,-1.2679113E-1,-9.4635624E-1,-1.2263312E-1,5.301832E-1,-2.6101232E-1,3.747027E-1,-2.886462E-1,5.4020718E-2,-3.378112E-1,6.004592E-1,1.05318844E-1,3.332297E-1,-3.1659994E-1,7.773904E-1,-6.736854E-1,2.1023671E-1,-6.942779E-2,-5.1089215E-1,1.6633067E-1,7.1665144E-1,1.7410423E-1,-3.503992E-1,8.513605E-1,-1.5594415E-1,-5.8864534E-1,-2.318522E-1,-8.9774656E-1,2.8834644E-1,-6.1041676E-2,-1.2628877E-1,2.5092313E-1,-5.780259E-1,8.48197E-2,5.923814E-1,-7.8705835E-1],"categories":[],"categories_nodes":[],"categories_segments":[],"categories_sizes":[],"default_left":[1,1,1,1,1,0,1,1,1,1,1,1,1,1,1,1,1,1,1,1,1,1,1,1,1,1,1,1,1,1,1,1,1,1,1,1,1,1,1],"id":8,"left_children":[1,3,5,7,-1,-1,11,-1,-1,-1,-1,-1,-1,-1,-1,-1,-1,-1,-1,-1,-1,-1,-1,-1,-1,-1,-1,-1,-1,-1,-1,-1,-1,-1,-1,-1,-1,-1,-1],"loss_changes":[6.3881426E0,1.3530321E0,9.635186E-1,1.0590668E0,2.1034443E-1,0E0,1.5304885E0,4.4265747E-1,7.6875293E-1,0E0,2.6960427E-1,4.3863228E-1,2.7403736E-1,1.499176E-2,2.104132E-1,0E0,7.331048E-1,0E0,1.2238598E-1,2.0843038E-1,2.7644742E-1,1.766417E-1,1.9249079E-1,0E0,0E0,0E0,0E0,0E0,0E0,0E0,0E0,0E0,0E0,0E0,0E0,0E0,0E0,0E0,0E0],"parents":[2147483647,0,0,1,1,2,2,3,3,4,4,6,6,7,7,8,8,10,10,11,11,12,12,13,13,14,14,16,16,18,18,19,19,20,20,21,21,22,22],"right_children":[2,4,6,8,-1,-1,12,-1,-1,-1,-1,-1,-1,-1,-1,-1,-1,-1,-1,-1,-1,-1,-1,-1,-1,-1,-1,-1,-1,-1,-1,-1,-1,-1,-1,-1,-1,-1,-1],"split_conditions":[6.758795E-1,6.080477E-1,3.934425E-1,2.2651574E-1,-2.5358228E-2,-1.8927126E-1,2.6470575E-1,1.0603664E-1,-5.2202463E-2,7.494054E-2,-5.772924E-2,1.0804144E-2,-6.7562245E-2,1.2009185E-1,2.106377E-2,6.664594E-2,-6.331999E-2,1.5547809E-1,-1.3473707E-1,4.2047344E-2,-1.3885558E-2,-1.0217843E-1,3.3266135E-2,1.4333029E-1,3.4820847E-2,-7.007984E-2,1.702721E-1,-3.118883E-2,-1.1772907E-1,-4.6370443E-2,-1.7954932E-1,5.766929E-2,-1.2208335E-2,-2.5257755E-2,5.0184626E-2,-1.15605175E-1,1.696394E-2,1.1847629E-1,-1.5741168E-1],"split_indices":[2,6,3,7,2,0,1,8,3,2147483647,2147483647,4,8,2147483647,2147483647,2147483647,2147483647,2147483647,2147483647,2147483647,2147483647,2147483647,2147483647,2147483647,2147483647,2147483647,2147483647,2147483647,2147483647,2147483647,2147483647,2147483647,2147483647,2147483647,2147483647,2147483647,2147483647,2147483647,2147483647],"split_type":[0,0,0,0,0,0,0,0,0,0,0,0,0,0,0,0,0,0,0,0,0,0,0,0,0,0,0,0,0,0,0,0,0,0,0,0,0,0,0],"sum_hessian":[1.25199585E2,8.407331E1,4.112627E1,7.600285E1,8.070455E0,2.3430905E0,3.878318E1,5.6924072E1,1.9078783E1,1.6482975E0,6.4221573E0,2.1709429E1,1.7073751E1,4.8490116E1,8.433957E0,1.2047805E0,1.7874002E1,1.4337163E0,4.988441E0,9.27257E0,1.243686E1,1.2700166E1,4.373585E0,3.757038E1,1.0919735E1,5.5649443E0,2.869013E0,1.2226751E1,5.6472507E0,2.3631816E0,2.6252596E0,7.1507287E0,2.121841E0,1.1076591E1,1.3602694E0,1.1440561E1,1.2596039E0,3.2844753E0,1.0891101E0],"tree_param":{"num_deleted":"28","num_feature":"9","num_nodes":"39","size_leaf_vector":"0"}},{"base_weights":[1.0488062E-1,2.716706E-1,-2.1587157E-1,3.6768118E-1,1.9911282E-2,-8.312689E-1,-1.6072337E-1,5.0879794E-1,1.9616863E-1,2.9288942E-1,-5.88174E-1,-2.284209E-2,-3.2483247E-1,5.7032555E-1,-9.5457815E-2,2.7138442E-1,-8.153718E-1,8.3888415E-3,4.0208796E-1,-9.628502E-1,-2.8283048E-1,-2.3839918E-1,4.3187296E-1,-5.384967E-1,2.739757E-1,7.2797096E-1,-4.768743E-1,5.029222E-1,-5.2290857E-1,8.4339803E-1,-5.144722E-1,2.5112295E-1,5.157934E-1,4.2038125E-1,-7.232926E-1,-2.6786463E-2,-6.2537396E-1,5.446181E-1,-1.14786044E-1,6.932701E-1,-7.6149225E-1],"categories":[],"categories_nodes":[],"categories_segments":[],"categories_sizes":[],"default_left":[1,1,1,1,1,0,1,1,1,1,1,1,1,1,1,1,1,1,1,1,1,1,1,1,1,1,1,1,1,1,1,1,1,1,1,1,1,1,1,1,1],"id":9,"left_children":[1,3,5,7,-1,-1,-1,-1,-1,-1,-1,-1,-1,-1,-1,-1,-1,-1,-1,-1,-1,-1,-1,-1,-1,-1,-1,-1,-1,-1,-1,-1,-1,-1,-1,-1,-1,-1,-1,-1,-1],"loss_changes":[6.343585E0,1.6596384E0,1.1908965E0,1.1144648E0,4.8574108E-1,0E0,9.091978E-1,9.67638E-1,5.428364E-1,3.3255517E-1,5.1028585E-1,3.8583574E-1,3.7793994E-1,3.100109E-1,0E0,3.71961E-1,0E0,1.510326E-1,8.0437064E-2,0E0,3.5325298E-1,2.4780065E-1,5.420866E-1,0E0,2.5095642E-1,0E0,0E0,0E0,0E0,0E0,0E0,0E0,0E0,0E0,0E0,0E0,0E0,0E0,0E0,0E0,0E0],"parents":[2147483647,0,0,1,1,2,2,3,3,4,4,6,6,7,7,8,8,9,9,10,10,11,11,12,12,13,13,15,15,17,17,18,18,20,20,21,21,22,22,24,24],"right_children":[2,4,6,8,-1,-1,-1,-1,-1,-1,-1,-1,-1,-1,-1,-1,-1,-1,-1,-1,-1,-1,-1,-1,-1,-1,-1,-1,-1,-1,-1,-1,-1,-1,-1,-1,-1,-1,-1,-1,-1],"split_conditions":[6.708543E-1,3.2352924E-1,3.934425E-1,2.4747476E-1,3.9822566E-3,-1.6625379E-1,-3.2144677E-2,1.0175959E-1,3.9233726E-2,5.8577884E-2,-1.17634796E-1,-4.568418E-3,-6.496649E-2,1.1406511E-1,-1.9091563E-2,5.4276884E-2,-1.6307436E-1,1.6777683E-3,8.0417596E-2,-1.9257005E-1,-5.6566097E-2,-4.7679838E-2,8.6374596E-2,-1.07699335E-1,5.4795142E-2,1.455942E-1,-9.537486E-2,1.0058444E-1,-1.0458171E-1,1.6867961E-1,-1.0289444E-1,5.022459E-2,1.03158675E-1,8.407625E-2,-1.4465852E-1,-5.357293E-3,-1.2507479E-1,1.0892363E-1,-2.295721E-2,1.3865402E-1,-1.5229845E-1],"split_indices":[2,1,3,4,7,0,1,6,6,2147483647,2147483647,2147483647,2147483647,2147483647,2147483647,2147483647,2147483647,2147483647,2147483647,2147483647,2147483647,2147483647,2147483647,2147483647,2147483647,2147483647,2147483647,2147483647,2147483647,2147483647,2147483647,2147483647,2147483647,2147483647,2147483647,2147483647,2147483647,2147483647,2147483647,2147483647,2147483647],"split_type":[0,0,0,0,0,0,0,0,0,0,0,0,0,0,0,0,0,0,0,0,0,0,0,0,0,0,0,0,0,0,0,0,0,0,0,0,0,0,0,0,0],"sum_hessian":[1.22445114E2,8.065685E1,4.1788254E1,5.805619E1,2.2600666E1,2.2793775E0,3.9508877E1,3.0771523E1,2.7284668E1,1.5956091E1,6.644575E0,2.2089172E1,1.7419706E1,2.7978767E1,2.7927542E0,2.607733E1,1.2073376E0,4.724343E0,1.1231749E1,2.0166638E0,4.627911E0,1.5308104E1,6.7810693E0,1.2912899E1,4.506807E0,2.45829E1,3.3958678E0,2.0475513E1,5.601817E0,1.5830951E0,3.1412475E0,6.2037125E0,5.0280366E0,1.7999017E0,2.8280096E0,1.058761E1,4.720493E0,5.624734E0,1.156335E0,3.443072E0,1.0637345E0],"tree_param":{"num_deleted":"32","num_feature":"9","num_nodes":"41","size_leaf_vector":"0"}},{"base_weights":[8.58751E-2,2.4720608E-1,-1.9869708E-1,3.4455556E-1,-3.41292E-3,-9.480947E-1,-1.3409583E-1,3.9841342E-1,-2.5624458E-2,3.089255E-1,-6.9193393E-1,-5.049368E-2,-2.7291027E-1,5.182573E-1,2.3143442E-1,-1.6315065E-1,2.1760128E-1,5.1112208E-3,4.32E-1,-9.6630436E-1,-4.0983424E-1,-2.0672788E-1,1.0136274E-1,-4.7881424E-1,1.0200036E0,6.9299394E-1,-6.697131E-1,5.175106E-1,-6.675739E-1,8.418936E-1,-5.180201E-1,2.1506296E-1,5.317437E-1,2.2414424E-1,-7.265034E-1,-2.2998333E-1,-1.1566204E-2,-1.4147688E-1,4.6004635E-1,-1.825559E-1,-8.827414E-1],"categories":[],"categories_nodes":[],"categories_segments":[],"categories_sizes":[],"default_left":[1,1,1,1,1,0,1,1,1,1,1,1,1,1,1,1,1,1,1,1,1,1,1,1,1,1,1,1,1,1,1,1,1,1,1,1,1,1,1,1,1],"id":10,"left_children":[1,3,5,7,-1,-1,-1,-1,-1,-1,-1,-1,-1,-1,-1,-1,-1,-1,-1,-1,-1,-1,-1,-1,-1,-1,-1,-1,-1,-1,-1,-1,-1,-1,-1,-1,-1,-1,-1,-1,-1],"loss_changes":[5.6043468E0,1.778871E0,2.0191488E0,1.1256714E0,5.26869E-1,0E0,4.734053E-1,8.3487606E-1,1.8324855E-1,3.6752784E-1,1.0803747E-1,6.474951E-1,2.9497123E-1,6.37023E-1,6.338146E-1,0E0,0E0,1.491497E-1,4.5633793E-2,0E0,4.6829146E-1,6.0189664E-2,5.0934106E-1,9.791994E-2,0E0,0E0,0E0,0E0,0E0,0E0,0E0,0E0,0E0,0E0,0E0,0E0,0E0,0E0,0E0,0E0,0E0],"parents":[2147483647,0,0,1,1,2,2,3,3,4,4,6,6,7,7,8,8,9,9,10,10,11,11,12,12,13,13,14,14,17,17,18,18,20,20,21,21,22,22,23,23],"right_children":[2,4,6,8,-1,-1,-1,-1,-1,-1,-1,-1,-1,-1,-1,-1,-1,-1,-1,-1,-1,-1,-1,-1,-1,-1,-1,-1,-1,-1,-1,-1,-1,-1,-1,-1,-1,-1,-1,-1,-1],"split_conditions":[6.6080403E-1,3.2352924E-1,3.934425E-1,5.99851E-1,-6.82584E-4,-1.8961895E-1,-2.6819168E-2,7.9682685E-2,-5.1248916E-3,6.1785102E-2,-1.3838679E-1,-1.0098736E-2,-5.4582056E-2,1.03651464E-1,4.6286885E-2,-3.263013E-2,4.3520257E-2,1.0222442E-3,8.64E-2,-1.9326088E-1,-8.196685E-2,-4.1345578E-2,2.027255E-2,-9.576285E-2,2.0400071E-1,1.3859878E-1,-1.3394262E-1,1.0350212E-1,-1.3351479E-1,1.6837873E-1,-1.0360402E-1,4.3012593E-2,1.06348746E-1,4.4828847E-2,-1.4530067E-1,-4.5996666E-2,-2.313241E-3,-2.8295377E-2,9.200927E-2,-3.651118E-2,-1.7654829E-1],"split_indices":[2,1,3,6,7,0,1,4,7,2147483647,2147483647,2147483647,2147483647,2147483647,2147483647,2147483647,2147483647,2147483647,2147483647,2147483647,2147483647,2147483647,2147483647,2147483647,2147483647,2147483647,2147483647,2147483647,2147483647,2147483647,2147483647,2147483647,2147483647,2147483647,2147483647,2147483647,2147483647,2147483647,2147483647,2147483647,2147483647],"split_type":[0,0,0,0,0,0,0,0,0,0,0,0,0,0,0,0,0,0,0,0,0,0,0,0,0,0,0,0,0,0,0,0,0,0,0,0,0,0,0,0,0],"sum_hessian":[1.20001755E2,7.666805E1,4.3333702E1,5.4949043E1,2.171901E1,2.3537102E0,4.097999E1,4.7903275E1,7.045768E0,1.5320423E1,6.3985863E0,2.6427534E1,1.4552456E1,2.6663013E1,2.1240261E1,4.71117E0,2.3345976E0,4.717245E0,1.0603178E1,2.0141864E0,4.3844E0,1.2847906E1,1.3579628E1,1.3096436E1,1.4560204E0,2.3607311E1,3.0557036E0,1.6434835E1,4.805425E0,1.58023E0,3.137015E0,4.3337235E0,6.269454E0,1.5578109E0,2.826589E0,1.1320528E1,1.5273784E0,8.458521E0,5.121107E0,8.39276E0,4.7036753E0],"tree_param":{"num_deleted":"32","num_feature":"9","num_nodes":"41","size_leaf_vector":"0"}},{"base_weights":[6.944922E-2,2.3041286E-1,-1.9990654E-1,3.2596126E-1,-2.7597656E-3,-9.0216917E-1,-1.3678566E-1,3.692766E-1,-8.4344506E-1,3.0949488E-1,-6.9125515E-1,8.534311E-2,-4.2751238E-1,7.2470456E-1,3.0513105E-1,5.6731463E-3,4.3252885E-1,-9.657118E-1,-4.0923882E-1,1.6671418E-1,-3.792467E-1,-5.978117E-1,2.2465326E-1,3.737224E-1,-2.4405323E-1,8.421512E-1,-5.174117E-1,2.155683E-1,5.3223515E-1,2.2453602E-1,-7.259527E-1,-3.6818355E-2,5.609945E-1,-1.2905735E-1,-4.8016232E-1,-6.6155404E-1,-1.5110599E-1,4.9293298E-1,-3.4837443E-1],"categories":[],"categories_nodes":[],"categories_segments":[],"categories_sizes":[],"default_left":[1,1,1,1,1,0,1,1,1,1,1,1,1,1,1,1,1,1,1,1,1,1,1,1,1,1,1,1,1,1,1,0,0,1,1,1,1,1,1],"id":11,"left_children":[1,3,5,-1,-1,-1,11,-1,-1,-1,-1,19,21,-1,-1,-1,-1,-1,-1,31,-1,-1,-1,-1,-1,-1,-1,-1,-1,-1,-1,-1,-1,-1,-1,-1,-1,-1,-1],"loss_changes":[4.9009748E0,1.6483636E0,1.8685491E0,7.2118235E-1,5.2611744E-1,0E0,3.7411118E-1,7.841773E-1,0E0,3.674822E-1,1.0894418E-1,1.0036012E0,2.1928709E0,0E0,7.972107E-1,1.4947288E-1,4.5134306E-2,0E0,4.6798372E-1,1.3789997E0,3.93458E-2,1.1275768E-1,1.8594837E-1,0E0,0E0,0E0,0E0,0E0,0E0,0E0,0E0,0E0,0E0,0E0,0E0,0E0,0E0,0E0,0E0],"parents":[2147483647,0,0,1,1,2,2,3,3,4,4,6,6,7,7,9,9,10,10,11,11,12,12,14,14,15,15,16,16,18,18,19,19,20,20,21,21,22,22],"right_children":[2,4,6,-1,-1,-1,12,-1,-1,-1,-1,20,22,-1,-1,-1,-1,-1,-1,32,-1,-1,-1,-1,-1,-1,-1,-1,-1,-1,-1,-1,-1,-1,-1,-1,-1,-1,-1],"split_conditions":[6.55779E-1,3.2352924E-1,3.934425E-1,6.519225E-2,-5.5195316E-4,-1.8043384E-1,5.1862895E-1,7.3855326E-2,-1.6868901E-1,6.1898977E-2,-1.3825104E-1,3.362885E-1,3.386525E-1,1.4494091E-1,6.102621E-2,1.1346292E-3,8.650577E-2,-1.9314235E-1,-8.1847765E-2,4.1666675E-1,-7.584935E-2,-1.1956234E-1,4.493065E-2,7.4744485E-2,-4.8810646E-2,1.6843025E-1,-1.0348234E-1,4.311366E-2,1.0644703E-1,4.4907205E-2,-1.4519054E-1,-7.363671E-3,1.12198904E-1,-2.581147E-2,-9.603246E-2,-1.3231081E-1,-3.0221198E-2,9.85866E-2,-6.967489E-2],"split_indices":[2,1,3,6,7,0,6,2147483647,2147483647,2147483647,2147483647,5,5,2147483647,2147483647,2147483647,2147483647,2147483647,2147483647,8,8,8,1,2147483647,2147483647,2147483647,2147483647,2147483647,2147483647,2147483647,2147483647,0,0,2147483647,2147483647,2147483647,2147483647,2147483647,2147483647],"split_type":[0,0,0,0,0,0,0,0,0,0,0,0,0,0,0,0,0,0,0,0,0,0,0,0,0,0,0,0,0,0,0,0,0,0,0,0,0,0,0],"sum_hessian":[1.1770357E2,7.376631E1,4.3937252E1,5.20426E1,2.1723719E1,2.527242E0,4.1410007E1,5.0843548E1,1.1990497E0,1.5324186E1,6.3995314E0,2.3874912E1,1.7535097E1,6.1987467E0,4.4644802E1,4.7184625E0,1.0605724E1,2.014612E0,4.384919E0,2.0862148E1,3.012764E0,1.3970372E1,3.5647247E0,3.9971928E1,4.6728725E0,1.5807213E0,3.1377413E0,4.334942E0,6.2707825E0,1.5580853E0,2.826834E0,1.435733E1,6.5048175E0,1.520935E0,1.4918289E0,1.1804917E1,2.165455E0,2.5231926E0,1.041532E0],"tree_param":{"num_deleted":"24","num_feature":"9","num_nodes":"39","size_leaf_vector":"0"}},{"base_weights":[5.538565E-2,2.0489585E-1,-1.834953E-1,2.7990526E-1,2.6937578E-2,-7.947383E-1,-1.3027135E-1,3.264245E-1,-2.185709E-2,3.0995527E-1,-6.208526E-1,-1.8228602E-2,-2.6464623E-1,3.909009E-1,-2.1264376E-1,-1.3963865E-1,1.7786802E-1,6.127559E-3,4.3295646E-1,-2.4271095E-1,-7.9305345E-1,-1.3824593E-1,2.5120592E-1,-5.4970926E-1,8.376139E-1,5.3428435E-1,2.15585E-1,4.72157E-2,-4.5070416E-1,2.3444256E-1,-3.310705E-1,8.4235966E-1,-5.169198E-1,2.1597695E-1,5.326325E-1,8.581401E-2,-5.529392E-1,1.5592968E-1,4.106252E-1,-3.4231123E-1,-6.387532E-1,1.328751E0,2.9442655E-2],"categories":[],"categories_nodes":[],"categories_segments":[],"categories_sizes":[],"default_left":[1,1,1,1,1,0,1,1,1,1,1,1,1,1,1,1,1,1,1,1,1,1,1,1,1,1,1,1,1,1,1,1,1,1,1,1,1,1,1,1,1,1,1],"id":12,"left_children":[1,-1,5,-1,-1,-1,-1,-1,-1,-1,-1,-1,-1,-1,-1,-1,-1,-1,-1,-1,-1,-1,-1,-1,-1,-1,-1,-1,-1,-1,-1,-1,-1,-1,-1,-1,-1,-1,-1,-1,-1,-1,-1],"loss_changes":[4.2001715E0,9.302566E-1,1.3732251E0,7.182069E-1,4.7306302E-1,0E0,6.418643E-1,6.810999E-1,1.4484228E-1,3.6744475E-1,2.7472043E-1,4.8404884E-1,4.1008306E-1,7.423048E-1,3.5180795E-1,5.6184925E-2,0E0,1.4973415E-1,4.4730663E-2,0E0,0E0,3.2913196E-1,5.602652E-2,7.515383E-2,5.3106785E-2,0E0,0E0,0E0,0E0,0E0,0E0,0E0,0E0,0E0,0E0,0E0,0E0,0E0,0E0,0E0,0E0,0E0,0E0],"parents":[2147483647,0,0,1,1,2,2,3,3,4,4,6,6,7,7,8,8,9,9,10,10,11,11,12,12,13,13,14,14,15,15,17,17,18,18,21,21,22,22,23,23,24,24],"right_children":[2,-1,6,-1,-1,-1,-1,-1,-1,-1,-1,-1,-1,-1,-1,-1,-1,-1,-1,-1,-1,-1,-1,-1,-1,-1,-1,-1,-1,-1,-1,-1,-1,-1,-1,-1,-1,-1,-1,-1,-1,-1,-1],"split_conditions":[6.5075374E-1,4.0979173E-2,3.934425E-1,5.598105E-2,5.3875158E-3,-1.5894766E-1,-2.6054269E-2,6.52849E-2,-4.371418E-3,6.1991055E-2,-1.2417052E-1,-3.6457204E-3,-5.292925E-2,7.818019E-2,-4.2528752E-2,-2.792773E-2,3.5573605E-2,1.2255119E-3,8.6591296E-2,-4.854219E-2,-1.5861069E-1,-2.7649185E-2,5.0241183E-2,-1.09941855E-1,1.6752277E-1,1.06856875E-1,4.3116998E-2,9.443141E-3,-9.0140834E-2,4.688851E-2,-6.621411E-2,1.6847193E-1,-1.0338396E-1,4.3195393E-2,1.0652651E-1,1.7162802E-2,-1.10587835E-1,3.1185938E-2,8.212504E-2,-6.8462245E-2,-1.2775064E-1,2.657502E-1,5.888531E-3],"split_indices":[2,1,3,2147483647,2147483647,0,1,2147483647,2147483647,2147483647,2147483647,2147483647,2147483647,2147483647,2147483647,2147483647,2147483647,2147483647,2147483647,2147483647,2147483647,2147483647,2147483647,2147483647,2147483647,2147483647,2147483647,2147483647,2147483647,2147483647,2147483647,2147483647,2147483647,2147483647,2147483647,2147483647,2147483647,2147483647,2147483647,2147483647,2147483647,2147483647,2147483647],"split_type":[0,0,0,0,0,0,0,0,0,0,0,0,0,0,0,0,0,0,0,0,0,0,0,0,0,0,0,0,0,0,0,0,0,0,0,0,0,0,0,0,0,0,0],"sum_hessian":[1.15549286E2,7.115638E1,4.439291E1,4.9654247E1,2.1502134E1,2.4399278E0,4.195298E1,4.295122E1,6.703027E0,1.53272295E1,6.174904E0,2.3496817E1,1.8456163E1,3.8608257E1,4.3429623E0,4.4057317E0,2.2972949E0,4.719447E0,1.0607782E1,2.6860282E0,3.4888754E0,1.659266E1,6.9041567E0,1.5062132E1,3.394032E0,2.0111975E1,1.8496283E1,2.459697E0,1.8832651E0,1.4153284E0,2.9904034E0,1.5811186E0,3.1383286E0,4.3359265E0,6.271856E0,1.1287213E1,5.305447E0,5.5595975E0,1.344559E0,5.979405E0,9.0827265E0,1.7104328E0,1.6835994E0],"tree_param":{"num_deleted":"38","num_feature":"9","num_nodes":"43","size_leaf_vector":"0"}},{"base_weights":[4.3855317E-2,1.9172515E-1,-1.7453007E-1,2.829028E-1,-2.1999579E-2,-7.644326E-1,-1.22809775E-1,3.3726633E-1,-1.4408407E-1,5.9003663E-1,-1.3864265E-1,8.169612E-2,-3.9752096E-1,4.7217858E-1,1.936643E-1,1.1968193E-1,-5.192427E-1,-2.5347176E-1,1.703073E-1,-1.5844218E-2,2.7640525E-1,-5.293288E-1,4.7863212E-1,5.2463984E-1,-3.7538353E-2,6.663866E-1,4.837167E-2,1.5006332E-3,-7.5306386E-1,2.645304E-1,9.197557E-2,-2.4416663E-1,2.1580423E-1,4.8159575E-1,-5.406659E-1],"categories":[],"categories_nodes":[],"categories_segments":[],"categories_sizes":[],"default_left":[1,1,1,1,1,0,1,1,1,0,1,1,1,1,1,1,1,1,1,1,1,0,0,1,1,1,1,0,0,1,1,1,1,0,0],"id":13,"left_children":[1,3,5,-1,9,-1,11,-1,-1,-1,17,19,21,-1,-1,-1,-1,27,-1,-1,33,-1,-1,-1,-1,-1,-1,-1,-1,-1,-1,-1,-1,-1,-1],"loss_changes":[3.7443855E0,1.0129876E0,1.3376108E0,6.49688E-1,2.976781E-1,0E0,7.22934E-1,7.4676085E-1,2.5153995E-1,0E0,2.923468E-1,5.027417E-1,2.1400864E0,5.976119E-1,3.5241008E-1,0E0,0E0,1.1132216E0,1.7920211E-2,7.236995E-1,1.1422741E0,0E0,0E0,0E0,0E0,0E0,0E0,0E0,0E0,0E0,0E0,0E0,0E0,0E0,0E0],"parents":[2147483647,0,0,1,1,2,2,3,3,4,4,6,6,7,7,8,8,10,10,11,11,12,12,13,13,14,14,17,17,18,18,19,19,20,20],"right_children":[2,4,6,-1,10,-1,12,-1,-1,-1,18,20,22,-1,-1,-1,-1,28,-1,-1,34,-1,-1,-1,-1,-1,-1,-1,-1,-1,-1,-1,-1,-1,-1],"split_conditions":[6.4572847E-1,3.2352924E-1,3.934425E-1,5.6580562E-2,4.24623E-1,-1.5288652E-1,5.1862895E-1,6.7453265E-2,-2.8816814E-2,1.18007325E-1,4.0833324E-1,4.25E-1,4.125295E-1,9.4435714E-2,3.873286E-2,2.3936387E-2,-1.0384854E-1,2.2779676E-1,3.4061458E-2,-3.1688437E-3,2.80733E-1,-1.0586577E-1,9.572642E-2,1.0492797E-1,-7.5076707E-3,1.3327733E-1,9.674334E-3,3.0012665E-4,-1.5061277E-1,5.2906077E-2,1.8395115E-2,-4.8833326E-2,4.316085E-2,9.6319154E-2,-1.0813319E-1],"split_indices":[2,1,3,7,2,0,6,2147483647,2147483647,0,8,8,5,2147483647,2147483647,2147483647,2147483647,7,6,1,5,0,0,2147483647,2147483647,2147483647,2147483647,0,0,2147483647,2147483647,2147483647,2147483647,0,0],"split_type":[0,0,0,0,0,0,0,0,0,0,0,0,0,0,0,0,0,0,0,0,0,0,0,0,0,0,0,0,0,0,0,0,0,0,0],"sum_hessian":[1.1391555E2,6.799671E1,4.5918835E1,4.7436172E1,2.0560543E1,2.5906558E0,4.332818E1,4.2265144E1,5.1710286E0,2.641562E0,1.7918982E1,2.524065E1,1.808753E1,2.0612167E1,2.1652975E1,3.4361372E0,1.7348914E0,1.3194486E1,4.7244954E0,1.7428432E1,7.812218E0,1.6066364E1,2.0211647E0,1.8662142E1,1.9500273E0,4.247347E0,1.7405628E1,9.396086E0,3.7984002E0,1.0656276E0,3.6588678E0,8.750013E0,8.678418E0,6.5723033E0,1.2399149E0],"tree_param":{"num_deleted":"14","num_feature":"9","num_nodes":"35","size_leaf_vector":"0"}},{"base_weights":[3.484855E-2,2.0923951E-1,-2.0708539E-1,3.1130013E-1,-1.679372E-2,-6.63875E-2,-7.5572103E-1,4.1400662E-1,-5.006386E-1,5.2021897E-1,-1.1612895E-1,-3.882215E-1,2.377731E-1,4.6042338E-1,3.265666E-2,-7.692792E-1,-2.1005972E-1,-2.1091607E-1,1.438488E-1,-4.5220196E-1,1.6794264E-2,3.0413684E-1,-4.8731005E-1,6.4142984E-1,4.143628E-1,1.4279199E-1,-1.4532928E-1,1.2295564E-3,-6.1632603E-1,2.4875297E-1,6.602475E-2,-5.656169E-1,-6.46865E-2,4.9761465E-1,-4.6883923E-1,1.9502038E-1,5.1777923E-1],"categories":[],"categories_nodes":[],"categories_segments":[],"categories_sizes":[],"default_left":[1,1,1,1,1,1,0,1,1,0,1,1,1,1,1,1,1,1,1,1,1,1,1,1,1,1,1,0,0,1,1,1,1,1,1,1,1],"id":14,"left_children":[1,3,5,-1,9,-1,-1,-1,-1,-1,17,-1,-1,-1,-1,-1,-1,27,-1,-1,-1,-1,-1,-1,-1,-1,-1,-1,-1,-1,-1,-1,-1,-1,-1,-1,-1],"loss_changes":[2.7383516E0,1.130573E0,1.5376115E0,6.020217E-1,3.332644E-1,8.803052E-1,0E0,6.135106E-1,2.7357996E-1,0E0,2.4534938E-1,5.004096E-1,6.1545205E-1,3.8612843E-2,1.0456203E-1,0E0,0E0,1.2318764E0,2.9830925E-2,5.7927704E-1,1.7366931E-1,3.5652912E-1,0E0,0E0,0E0,0E0,0E0,0E0,0E0,0E0,0E0,0E0,0E0,0E0,0E0,0E0,0E0],"parents":[2147483647,0,0,1,1,2,2,3,3,4,4,5,5,7,7,8,8,10,10,11,11,12,12,13,13,14,14,17,17,18,18,19,19,20,20,21,21],"right_children":[2,4,6,-1,10,-1,-1,-1,-1,-1,18,-1,-1,-1,-1,-1,-1,28,-1,-1,-1,-1,-1,-1,-1,-1,-1,-1,-1,-1,-1,-1,-1,-1,-1,-1,-1],"split_conditions":[6.407035E-1,3.2352924E-1,2.843725E-1,6.2260028E-2,4.24623E-1,-1.32775E-2,-1.511442E-1,8.280133E-2,-1.0012772E-1,1.040438E-1,4.0833324E-1,-7.76443E-2,4.7554623E-2,9.2084676E-2,6.5313317E-3,-1.5385585E-1,-4.2011943E-2,2.2779676E-1,2.8769761E-2,-9.044039E-2,3.3588528E-3,6.082737E-2,-9.746201E-2,1.2828597E-1,8.287256E-2,2.8558398E-2,-2.9065857E-2,2.4591127E-4,-1.2326521E-1,4.9750593E-2,1.320495E-2,-1.1312338E-1,-1.29373E-2,9.952293E-2,-9.3767844E-2,3.9004076E-2,1.0355585E-1],"split_indices":[2,1,7,8,2,3,0,2147483647,2147483647,0,8,2147483647,2147483647,2147483647,2147483647,2147483647,2147483647,7,6,2147483647,2147483647,2147483647,2147483647,2147483647,2147483647,2147483647,2147483647,0,0,2147483647,2147483647,2147483647,2147483647,2147483647,2147483647,2147483647,2147483647],"split_type":[0,0,0,0,0,0,0,0,0,0,0,0,0,0,0,0,0,0,0,0,0,0,0,0,0,0,0,0,0,0,0,0,0,0,0,0,0],"sum_hessian":[1.1195392E2,6.513698E1,4.681694E1,4.461484E1,2.0522139E1,3.815347E1,8.663471E0,4.0040062E1,4.5747814E0,2.542143E0,1.7979996E1,1.8403866E1,1.9749601E1,3.5510483E1,4.529579E0,1.5211103E0,3.0536711E0,1.3314341E1,4.6656547E0,1.57926E1,2.6112661E0,1.8625444E1,1.1241577E0,4.5813136E0,3.0929169E1,2.9202821E0,1.609297E0,9.39502E0,3.9193213E0,1.0516781E0,3.6139765E0,1.1861479E1,3.931121E0,1.2997384E0,1.3115278E0,1.3594816E1,5.0306287E0],"tree_param":{"num_deleted":"24","num_feature":"9","num_nodes":"37","size_leaf_vector":"0"}},{"base_weights":[2.7898917E-2,1.7378457E-1,-1.7080815E-1,2.219302E-1,-1.24225385E-1,-4.353367E-1,4.7415487E-2,7.8876334E-1,1.1616233E-1,4.0188724E-1,-2.636145E-1,-5.002089E-1,2.6428657E-2,-5.6807343E-2,3.014877E-1,2.4654314E-1,-2.4976648E-1,-1.4782678E-2,-9.86369E-1,-6.1115134E-1,-1.434684E-1,5.0535524E-1,-4.6232605E-1,3.179843E-1,-8.8559794E-1,6.0318154E-1,-2.5336593E-1,1.3044006E-1,3.6501625E-1,-3.586621E-2,-5.884997E-1,-2.3535869E-1,3.739392E-1,-2.500588E-1,1.4218886E-1],"categories":[],"categories_nodes":[],"categories_segments":[],"categories_sizes":[],"default_left":[1,1,1,1,1,1,1,1,1,1,1,1,1,1,1,1,1,1,1,1,1,1,1,1,1,1,1,1,1,1,1,1,1,1,1],"id":15,"left_children":[1,-1,5,-1,-1,-1,-1,-1,-1,-1,-1,-1,-1,-1,-1,-1,-1,-1,-1,-1,-1,-1,-1,-1,-1,-1,-1,-1,-1,-1,-1,-1,-1,-1,-1],"loss_changes":[3.2455032E0,9.525081E-1,1.4381677E0,9.0555716E-1,3.1757882E-1,5.5314684E-1,7.29784E-1,0E0,8.215023E-1,0E0,8.287805E-2,6.623564E-1,1.7895648E-1,5.042819E-1,9.003477E-1,4.4861007E-1,7.758787E-1,4.8309457E-2,0E0,0E0,1.892778E-1,0E0,0E0,0E0,0E0,0E0,0E0,0E0,0E0,0E0,0E0,0E0,0E0,0E0,0E0],"parents":[2147483647,0,0,1,1,2,2,3,3,4,4,5,5,6,6,8,8,10,10,11,11,12,12,13,13,14,14,15,15,16,16,17,17,20,20],"right_children":[2,-1,6,-1,-1,-1,-1,-1,-1,-1,-1,-1,-1,-1,-1,-1,-1,-1,-1,-1,-1,-1,-1,-1,-1,-1,-1,-1,-1,-1,-1,-1,-1,-1,-1],"split_conditions":[6.407035E-1,3.4756914E-2,5.983608E-1,4.438604E-2,-2.4845077E-2,-8.706734E-2,9.483098E-3,1.5775268E-1,2.3232466E-2,8.037745E-2,-5.27229E-2,-1.00041784E-1,5.2857315E-3,-1.1361469E-2,6.0297545E-2,4.9308628E-2,-4.9953297E-2,-2.9565357E-3,-1.972738E-1,-1.2223027E-1,-2.869368E-2,1.0107105E-1,-9.2465214E-2,6.359687E-2,-1.771196E-1,1.2063631E-1,-5.0673187E-2,2.6088012E-2,7.3003255E-2,-7.1732416E-3,-1.1769994E-1,-4.7071736E-2,7.478784E-2,-5.001176E-2,2.8437773E-2],"split_indices":[2,8,3,2147483647,2147483647,8,6,2147483647,2147483647,2147483647,2147483647,2147483647,2147483647,2147483647,2147483647,2147483647,2147483647,2147483647,2147483647,2147483647,2147483647,2147483647,2147483647,2147483647,2147483647,2147483647,2147483647,2147483647,2147483647,2147483647,2147483647,2147483647,2147483647,2147483647,2147483647],"split_type":[0,0,0,0,0,0,0,0,0,0,0,0,0,0,0,0,0,0,0,0,0,0,0,0,0,0,0,0,0,0,0,0,0,0,0],"sum_hessian":[1.0993428E2,6.3465187E1,4.6469093E1,5.4857807E1,8.607378E0,2.0556181E1,2.591291E1,7.6110473E0,4.724676E1,1.4083763E0,7.199002E0,1.7951035E1,2.6051464E0,1.8925787E1,6.987124E0,3.5075558E1,1.2171203E1,6.11438E0,1.0846218E0,1.3148759E1,4.802276E0,1.2986476E0,1.3064988E0,1.3456762E1,5.4690247E0,4.4696918E0,2.5174325E0,1.877609E1,1.6299469E1,8.138106E0,4.0330963E0,4.1525774E0,1.961803E0,3.588048E0,1.2142279E0],"tree_param":{"num_deleted":"30","num_feature":"9","num_nodes":"35","size_leaf_vector":"0"}},{"base_weights":[2.228398E-2,1.4236E-1,-1.39102E-1,1.9158442E-1,-1.5702909E-1,-3.5676196E-1,3.8229138E-2,3.9736852E-1,-8.953695E-2,5.186618E-1,-3.7898794E-1,-4.225657E-1,8.991861E-2,-6.576197E-2,2.925347E-1,6.489412E-1,-1.9896841E-1,4.3347633E-1,-1.7057776E-1,-5.35295E-1,-7.28584E-2,5.56535E-1,-4.1998392E-1,3.0900854E-1,-8.9219993E-1,5.9445065E-1,-2.5952303E-1,-1.0541195E-1,-4.0635732E-1,3.147261E-1,-2.344778E-1,-4.3007666E-1,-8.373812E-1,-1.8483953E-1,1.9094332E-1,7.297481E-1,1.4797415E-1],"categories":[],"categories_nodes":[],"categories_segments":[],"categories_sizes":[],"default_left":[1,1,1,1,1,1,1,1,1,1,1,1,1,1,1,1,1,1,1,1,1,1,1,1,1,1,1,1,1,1,1,1,1,1,1,1,1],"id":16,"left_children":[1,-1,5,-1,-1,-1,-1,-1,-1,-1,-1,-1,-1,-1,-1,-1,-1,-1,-1,-1,-1,-1,-1,-1,-1,-1,-1,-1,-1,-1,-1,-1,-1,-1,-1,-1,-1],"loss_changes":[2.1437213E0,9.635116E-1,1.3290763E0,8.8707805E-1,2.796845E-1,5.828366E-1,7.3188436E-1,8.033142E-1,3.0630755E-1,0E0,0E0,7.0033073E-1,2.1251504E-1,5.007083E-1,8.922519E-1,0E0,1.366143E-1,0E0,3.93075E-1,6.023264E-2,1.6381586E-1,0E0,0E0,0E0,0E0,5.6654215E-3,0E0,0E0,0E0,0E0,0E0,0E0,0E0,0E0,0E0,0E0,0E0],"parents":[2147483647,0,0,1,1,2,2,3,3,4,4,5,5,6,6,7,7,8,8,11,11,12,12,13,13,14,14,16,16,18,18,19,19,20,20,25,25],"right_children":[2,-1,6,-1,-1,-1,-1,-1,-1,-1,-1,-1,-1,-1,-1,-1,-1,-1,-1,-1,-1,-1,-1,-1,-1,-1,-1,-1,-1,-1,-1,-1,-1,-1,-1,-1,-1],"split_conditions":[6.407035E-1,2.8472E-2,5.983608E-1,3.8316887E-2,-3.1405818E-2,-7.135239E-2,7.6458277E-3,7.9473704E-2,-1.790739E-2,1.0373236E-1,-7.579759E-2,-8.451314E-2,1.7983723E-2,-1.31523935E-2,5.8506943E-2,1.2978825E-1,-3.979368E-2,8.669527E-2,-3.4115553E-2,-1.07059E-1,-1.4571681E-2,1.11307E-1,-8.399679E-2,6.180171E-2,-1.7843999E-1,1.1889013E-1,-5.1904608E-2,-2.108239E-2,-8.127146E-2,6.2945224E-2,-4.689556E-2,-8.6015336E-2,-1.6747624E-1,-3.6967907E-2,3.8188662E-2,1.4594962E-1,2.959483E-2],"split_indices":[2,8,3,2147483647,2147483647,8,6,2147483647,2147483647,2147483647,2147483647,2147483647,2147483647,2147483647,2147483647,2147483647,2147483647,2147483647,2147483647,2147483647,2147483647,2147483647,2147483647,2147483647,2147483647,2147483647,2147483647,2147483647,2147483647,2147483647,2147483647,2147483647,2147483647,2147483647,2147483647,2147483647,2147483647],"split_type":[0,0,0,0,0,0,0,0,0,0,0,0,0,0,0,0,0,0,0,0,0,0,0,0,0,0,0,0,0,0,0,0,0,0,0,0,0],"sum_hessian":[1.0860134E2,6.2337933E1,4.626341E1,5.384502E1,8.492912E0,2.0315678E1,2.5947733E1,3.0849396E1,2.2995625E1,1.769481E0,6.723431E0,1.775417E1,2.5615082E0,1.8942951E1,7.0047817E0,2.1634415E1,9.214981E0,2.5016775E0,2.0493948E1,1.3024867E1,4.7293024E0,1.2897723E0,1.2717358E0,1.3463611E1,5.47934E0,4.478652E0,2.5261295E0,7.3896656E0,1.8253152E0,1.9277686E0,1.856618E1,1.1457755E1,1.5671126E0,3.5301244E0,1.1991779E0,2.950186E0,1.528466E0],"tree_param":{"num_deleted":"32","num_feature":"9","num_nodes":"37","size_leaf_vector":"0"}},{"base_weights":[1.7734643E-2,1.2095501E-1,-1.3501427E-1,2.9442596E-1,-1.15220904E-1,-4.2276178E-2,-4.4097114E-1,4.0074542E-1,-6.455491E-1,-8.612764E-1,-2.5995784E-2,-1.2086077E-1,1.365584E-1,-1.8230173E-1,-5.551422E-1,4.451353E-1,5.933621E-2,7.49511E-2,-3.920177E-1,-9.840899E-3,-6.490073E-1,-1.0134986E-1,5.695703E-1,-4.284123E-1,4.7814265E-2,5.2679604E-1,-2.4674585E-1,-1.1269514E-1,3.3988073E-1,-7.389573E-1,1.4252986E-1,-1.4651884E-1,9.02712E-1,3.005893E-1,-3.0729178E-1],"categories":[],"categories_nodes":[],"categories_segments":[],"categories_sizes":[],"default_left":[1,1,1,1,1,1,1,1,0,0,1,1,1,1,1,1,1,1,1,1,1,1,1,1,1,1,1,1,1,1,1,1,1,1,1],"id":17,"left_children":[1,3,-1,7,9,-1,-1,-1,-1,-1,17,-1,-1,-1,-1,-1,-1,-1,-1,-1,-1,-1,-1,-1,-1,-1,-1,-1,-1,-1,-1,-1,-1,-1,-1],"loss_changes":[1.7267048E0,1.9374193E0,9.441997E-1,2.070072E0,1.5225229E0,5.0891805E-1,1.6383958E-1,4.9905014E-1,0E0,0E0,1.003249E0,3.387499E-1,3.461062E-1,2.2974277E-1,0E0,0E0,4.8803948E-2,6.689844E-1,1.209926E-1,1.7140016E-1,0E0,2.1370994E-1,0E0,0E0,0E0,0E0,0E0,0E0,0E0,0E0,0E0,0E0,0E0,0E0,0E0],"parents":[2147483647,0,0,1,1,2,2,3,3,4,4,5,5,6,6,7,7,10,10,11,11,12,12,13,13,16,16,17,17,18,18,19,19,21,21],"right_children":[2,4,-1,8,10,-1,-1,-1,-1,-1,18,-1,-1,-1,-1,-1,-1,-1,-1,-1,-1,-1,-1,-1,-1,-1,-1,-1,-1,-1,-1,-1,-1,-1,-1],"split_conditions":[2.6470575E-1,6.407035E-1,-2.7002854E-2,3.0833328E-1,4.0163925E-1,-8.4552355E-3,-8.819423E-2,8.0149084E-2,-1.2910983E-1,-1.7225528E-1,2.8736126E-1,-2.4172155E-2,2.731168E-2,-3.6460347E-2,-1.1102845E-1,8.902706E-2,1.1867243E-2,1.499022E-2,-7.840354E-2,-1.9681798E-3,-1.2980147E-1,-2.0269973E-2,1.13914065E-1,-8.568246E-2,9.562853E-3,1.0535921E-1,-4.934917E-2,-2.2539029E-2,6.797615E-2,-1.4779146E-1,2.8505972E-2,-2.9303769E-2,1.805424E-1,6.011786E-2,-6.1458357E-2],"split_indices":[1,2,7,8,3,2147483647,2147483647,6,0,0,7,2147483647,2147483647,2147483647,2147483647,2147483647,2147483647,3,5,2147483647,2147483647,2147483647,2147483647,2147483647,2147483647,2147483647,2147483647,2147483647,2147483647,2147483647,2147483647,2147483647,2147483647,2147483647,2147483647],"split_type":[0,0,0,0,0,0,0,0,0,0,0,0,0,0,0,0,0,0,0,0,0,0,0,0,0,0,0,0,0,0,0,0,0,0,0],"sum_hessian":[1.0747948E2,6.4262276E1,4.321721E1,3.690728E1,2.7354994E1,3.403814E1,9.1790695E0,3.367231E1,3.234971E0,1.9977733E0,2.535722E1,2.387223E1,1.0165908E1,3.6059856E0,5.5730834E0,2.9529127E1,4.143182E0,2.0498947E1,4.858272E0,2.0567451E1,3.3047802E0,7.055416E0,3.1104913E0,1.3260468E0,2.2799387E0,1.3540826E0,2.7890992E0,1.2336082E1,8.162866E0,2.71424E0,2.144032E0,1.8618324E1,1.9491258E0,2.2345796E0,4.8208365E0],"tree_param":{"num_deleted":"24","num_feature":"9","num_nodes":"35","size_leaf_vector":"0"}},{"base_weights":[1.2144573E-2,1.23951375E-1,-1.176396E-1,3.651902E-1,-1.4087379E-1,-1.6406009E-1,4.529064E-1,5.82138E-1,1.3611293E-2,9.659707E-2,-6.301094E-1,-3.7354518E-2,-6.6543615E-1,6.920795E-1,-4.316916E-1,-1.5607046E-1,4.7795826E-1,3.5552923E-2,3.3884308E-1,1.9374248E-2,-9.145882E-1,-1.24583006E-1,3.387843E-1,-8.2632744E-1,-2.204288E-1,2.3104372E-2,-7.126142E-1,-3.9919373E-1,2.259157E-1,3.7323886E-1,-3.043781E-1,-3.5659707E-1,1.1047386E-1,-1.6184922E-2,4.2804256E-1,2.1929246E-1,-5.5604863E-1],"categories":[],"categories_nodes":[],"categories_segments":[],"categories_sizes":[],"default_left":[1,1,1,1,1,1,0,1,1,1,1,1,1,0,0,1,0,1,1,1,0,1,1,1,1,1,1,1,1,1,1,1,1,1,1,1,1],"id":18,"left_children":[1,3,5,7,9,11,-1,13,15,-1,19,-1,-1,-1,-1,-1,-1,-1,-1,-1,-1,-1,-1,-1,-1,-1,-1,-1,-1,-1,-1,-1,-1,-1,-1,-1,-1],"loss_changes":[1.5671811E0,8.4205246E-1,9.9954015E-1,8.4859514E-1,4.6867603E-1,1.2966679E0,0E0,2.1139317E0,1.0756744E0,2.8304985E-1,1.2242026E0,6.418215E-1,3.6318254E-1,0E0,0E0,6.4056355E-1,0E0,4.728222E-1,0E0,6.271807E-2,0E0,8.8651264E-1,2.4554461E-1,0E0,7.064964E-2,0E0,0E0,0E0,0E0,0E0,0E0,0E0,0E0,0E0,0E0,0E0,0E0],"parents":[2147483647,0,0,1,1,2,2,3,3,4,4,5,5,7,7,8,8,9,9,10,10,11,11,12,12,15,15,17,17,19,19,21,21,22,22,24,24],"right_children":[2,4,6,8,10,12,-1,14,16,-1,20,-1,-1,-1,-1,-1,-1,-1,-1,-1,-1,-1,-1,-1,-1,-1,-1,-1,-1,-1,-1,-1,-1,-1,-1,-1,-1],"split_conditions":[6.25628E-1,4.8062596E-1,4.4030726E-1,2.6470575E-1,2.241675E-1,2.843725E-1,9.058128E-2,3.0833328E-1,4.0833324E-1,1.9319413E-2,2.87879E-1,-7.4709035E-3,-1.3308723E-1,1.384159E-1,-8.633832E-2,-3.1214092E-2,9.559166E-2,7.1105845E-3,6.776862E-2,3.8748495E-3,-1.8291764E-1,-2.4916602E-2,6.775686E-2,-1.6526549E-1,-4.408576E-2,4.6208743E-3,-1.4252284E-1,-7.9838745E-2,4.518314E-2,7.464778E-2,-6.087562E-2,-7.1319416E-2,2.2094771E-2,-3.2369846E-3,8.560851E-2,4.3858495E-2,-1.1120973E-1],"split_indices":[2,6,5,1,7,7,0,8,8,8,4,8,8,0,0,7,0,2147483647,2147483647,3,0,2147483647,2147483647,2147483647,2147483647,2147483647,2147483647,2147483647,2147483647,2147483647,2147483647,2147483647,2147483647,2147483647,2147483647,2147483647,2147483647],"split_type":[0,0,0,0,0,0,0,0,0,0,0,0,0,0,0,0,0,0,0,0,0,0,0,0,0,0,0,0,0,0,0,0,0,0,0,0,0],"sum_hessian":[1.0599648E2,5.696611E1,4.903037E1,2.9612251E1,2.735386E1,4.6000175E1,3.0301929E0,1.7906782E1,1.1705469E1,1.8955551E1,8.39831E0,3.7578106E1,8.4220705E0,1.6441229E1,1.4655541E0,9.059015E0,2.6464543E0,1.605626E1,2.8992915E0,2.8419187E0,5.556391E0,3.1046947E1,6.531159E0,5.5563145E0,2.8657558E0,7.577867E0,1.481148E0,4.5554953E0,1.1500764E1,1.2847837E0,1.5571349E0,1.5364386E1,1.5682562E1,1.4767958E0,5.0543633E0,1.3905258E0,1.4752299E0],"tree_param":{"num_deleted":"18","num_feature":"9","num_nodes":"37","size_leaf_vector":"0"}},{"base_weights":[1.0241918E-2,1.0406241E-1,-2.6682004E-1,2.0888644E-1,-3.63258E-2,-3.2123622E-1,2.906973E-1,2.7549395E-1,-1.6116875E-1,1.8913771E-1,-3.7781775E-1,-3.900338E-1,-2.0179972E-3,3.2148656E-1,-1.081205E-1,-2.4258748E-1,6.9310285E-2,2.8648198E-1,-4.2427024E-1,-4.624031E-1,3.0896762E-1,4.487819E-1,-5.318793E-1,3.389497E-1,-3.4724614E-1,5.6721956E-1,-1.0457487E-2,-3.0932667E-2,-1.7913681E-1,3.3612795E-2,-4.3167165E-1,6.244911E-2,7.3278284E-1,-6.5451133E-1,-2.4135636E-1,-4.112222E-1,-8.6806476E-1],"categories":[],"categories_nodes":[],"categories_segments":[],"categories_sizes":[],"default_left":[1,1,1,1,1,1,1,1,1,1,1,1,1,1,1,1,1,1,0,1,1,1,1,1,1,1,1,1,1,1,1,1,1,1,1,1,1],"id":19,"left_children":[1,3,-1,7,9,-1,-1,-1,-1,17,-1,-1,-1,-1,-1,-1,-1,-1,-1,-1,-1,-1,-1,-1,-1,-1,-1,-1,-1,-1,-1,-1,-1,-1,-1,-1,-1],"loss_changes":[1.6328048E0,1.1771572E0,3.182453E-1,1.1674573E0,5.8449244E-1,5.488663E-1,0E0,5.366862E-1,1.0177833E-1,1.0285404E0,9.6679425E-1,1.2871075E-1,4.2302752E-1,3.0617428E-1,2.148021E-2,1.8971649E-1,0E0,5.5134225E-1,0E0,1.9198728E-1,0E0,0E0,2.175889E-1,0E0,0E0,0E0,0E0,0E0,0E0,0E0,0E0,0E0,0E0,0E0,0E0,0E0,0E0],"parents":[2147483647,0,0,1,1,2,2,3,3,4,4,5,5,7,7,8,8,9,9,10,10,11,11,12,12,13,13,14,14,15,15,17,17,19,19,22,22],"right_children":[2,4,-1,8,10,-1,-1,-1,-1,18,-1,-1,-1,-1,-1,-1,-1,-1,-1,-1,-1,-1,-1,-1,-1,-1,-1,-1,-1,-1,-1,-1,-1,-1,-1,-1,-1],"split_conditions":[2.55124E-1,6.38191E-1,-5.336401E-2,3.5833323E-1,5.1862895E-1,-6.424724E-2,5.8139462E-2,5.509879E-2,-3.2233752E-2,3.362885E-1,-7.556355E-2,-7.800677E-2,-4.0359944E-4,6.429731E-2,-2.1624101E-2,-4.8517495E-2,1.3862058E-2,5.7296395E-2,-8.485405E-2,-9.248062E-2,6.1793525E-2,8.9756384E-2,-1.06375866E-1,6.778994E-2,-6.944923E-2,1.1344391E-1,-2.0914974E-3,-6.1865333E-3,-3.5827365E-2,6.722559E-3,-8.633433E-2,1.2489822E-2,1.4655657E-1,-1.3090228E-1,-4.8271272E-2,-8.224444E-2,-1.7361295E-1],"split_indices":[7,2,5,8,6,2147483647,2147483647,6,4,5,5,2147483647,2147483647,2147483647,2147483647,2147483647,2147483647,8,0,2147483647,2147483647,2147483647,2147483647,2147483647,2147483647,2147483647,2147483647,2147483647,2147483647,2147483647,2147483647,2147483647,2147483647,2147483647,2147483647,2147483647,2147483647],"split_type":[0,0,0,0,0,0,0,0,0,0,0,0,0,0,0,0,0,0,0,0,0,0,0,0,0,0,0,0,0,0,0,0,0,0,0,0,0],"sum_hessian":[1.0442524E2,7.84757E1,2.5949535E1,4.464934E1,3.3826363E1,2.4028097E1,1.9214393E0,3.805519E1,6.594151E0,2.0643215E1,1.3183145E1,1.958526E1,4.442837E0,3.4125717E1,3.9294758E0,4.8339725E0,1.7601786E0,1.8275904E1,2.3673127E0,1.2028423E1,1.1547216E0,2.5198758E0,1.7065384E1,2.2443607E0,2.1984768E0,1.9201998E1,1.4923718E1,2.5708177E0,1.3586581E0,2.2985919E0,2.5353806E0,1.29268465E1,5.3490567E0,5.3863063E0,6.642117E0,1.4194257E1,2.8711267E0],"tree_param":{"num_deleted":"26","num_feature":"9","num_nodes":"37","size_leaf_vector":"0"}}]},"name":"gbtree"},"learner_model_param":{"base_score":"5E-1","boost_from_average":"0","num_class":"0","num_feature":"9","num_target":"1"},"objective":{"name":"binary:logistic","reg_loss_param":{"scale_pos_weight":"1"}}},"version":[2,0,3]}