{"learner":{"attributes":{},"feature_names":[],"feature_types":[],"gradient_booster":{"model":{"gbtree_model_param":{"num_parallel_tree":"1","num_trees":"4"},"iteration_indptr":[0,1,2,3,4],"tree_info":[0,0,0,0],"trees":[{"base_weights":[-5.018182E-1,-1.8738171E0,1.3417722E0,-1.9356914E0,8E-1,-7E-1,1.721393E0,-1.9478828E0,-5E-1,-1.7241379E0,1.4666667E0,4E-1,1.7538462E0],"categories":[],"categories_nodes":[],"categories_segments":[],"categories_sizes":[],"default_left":[1,1,1,1,0,1,1,1,1,0,0,0,0],"id":0,"left_children":[1,3,5,-1,-1,9,11,-1,-1,-1,-1,-1,-1],"loss_changes":[3.5030728E2,1.46596985E1,4.712961E1,3.8693237E-1,0E0,2.471839E1,1.4533386E0,0E0,0E0,0E0,0E0,0E0,0E0],"parents":[2147483647,0,0,1,1,2,2,3,3,5,5,6,6],"right_children":[2,4,6,-1,-1,10,12,-1,-1,-1,-1,-1,-1],"split_conditions":[1.6666651E-1,6.1111104E-1,5.55555E-2,-5.8070743E-1,2.4000001E-1,3.88889E-1,1.6666651E-1,-5.8436483E-1,-1.5E-1,-5.172414E-1,4.4000003E-1,1.20000005E-1,5.2615386E-1],"split_indices":[4,2,7,5,0,6,7,2147483647,2147483647,0,0,0,0],"split_type":[0,0,0,0,0,0,0,0,0,0,0,0,0],"sum_hessian":[1.365E2,7.825E1,5.825E1,7.675E1,1.5E0,9E0,4.925E1,7.575E1,1E0,6.25E0,2.75E0,1.5E0,4.775E1],"tree_param":{"num_deleted":"2","num_feature":"11","num_nodes":"13","size_leaf_vector":"0"}},{"base_weights":[-3.8201058E-1,-1.4194864E0,1.0660675E0,-1.4901205E0,8.4311455E-1,-3.592144E-2,1.3486378E0,-1.5196285E0,-3.2994238E-1,-1.1819195E0,9.2397E-1,6.9913286E-1,1.4765724E0,-1.5436722E0,-4.8757115E-1,1.0382341E0,1.8361615E-1,-4.2113003E-1,1.006909E0,5.193848E-1,1.529339E0,3.3870578E-1,1.2775208E0,1.1797662E0,5.1737737E-2,-6.5946564E-2,8.6430717E-1],"categories":[],"categories_nodes":[],"categories_segments":[],"categories_sizes":[],"default_left":[1,1,1,1,0,1,1,1,0,0,1,1,1,0,0,1,1,0,1,1,1,1,1,0,0,1,1],"id":1,"left_children":[1,3,5,7,-1,9,11,13,-1,-1,-1,17,-1,-1,-1,-1,-1,-1,23,-1,-1,-1,-1,-1,-1,-1,-1],"loss_changes":[1.9330693E2,1.32114105E1,1.681921E1,1.9943695E0,0E0,1.42547655E1,2.5317612E0,1.0046082E0,0E0,0E0,4.0769672E-1,3.5125155E0,9.7013855E-1,0E0,0E0,5.569496E-1,0E0,0E0,1.1478662E0,7.3121697E-1,0E0,0E0,0E0,0E0,0E0,0E0,0E0],"parents":[2147483647,0,0,1,1,2,2,3,3,5,5,6,6,7,7,10,10,11,11,12,12,15,15,18,18,19,19],"right_children":[2,4,6,8,-1,10,12,14,-1,-1,-1,18,-1,-1,-1,-1,-1,-1,24,-1,-1,-1,-1,-1,-1,-1,-1],"split_conditions":[1.6666651E-1,5E-1,2.7777773E-1,3.88889E-1,2.5293437E-1,1.6666651E-1,3.88889E-1,2.7777773E-1,-9.8982714E-2,-3.5457584E-1,2.77191E-1,3.88889E-1,4.4297174E-1,-4.6310169E-1,-1.4627135E-1,3.1147024E-1,5.5084847E-2,-1.2633902E-1,8.448075E-2,1.5581545E-1,4.5880172E-1,1.0161174E-1,3.8325626E-1,3.5392988E-1,1.5521321E-2,-1.978397E-2,2.5929216E-1],"split_indices":[3,7,3,8,0,7,3,7,0,0,1,2,5,0,0,2147483647,2147483647,0,1,2147483647,2147483647,2147483647,2147483647,0,0,2147483647,2147483647],"split_type":[0,0,0,0,0,0,0,0,0,0,0,0,0,0,0,0,0,0,0,0,0,0,0,0,0,0,0],"sum_hessian":[1.2666277E2,7.380495E1,5.285783E1,7.1901726E1,1.9032198E0,1.0965733E1,4.1892097E1,6.9816185E1,2.0855358E0,4.8928895E0,6.0728426E0,7.957552E0,3.3934544E1,6.7742294E1,2.073898E0,4.9123373E0,1.1605053E0,1.6356628E0,6.3218894E0,2.3394718E0,3.1595074E1,1.867726E0,3.0446115E0,5.1540294E0,1.1678602E0,1.1673287E0,1.172143E0],"tree_param":{"num_deleted":"8","num_feature":"11","num_nodes":"27","size_leaf_vector":"0"}},{"base_weights":[-3.201331E-1,-1.2460791E0,8.6686486E-1,-1.2983748E0,5.8866054E-1,-4.2418736E-1,1.1075832E0,-1.3260744E0,-3.424832E-1,-1.165811E0,1.0395082E0,7.6270074E-1,1.2784462E0,1.862302E-1,1.1770855E0,-6.954038E-1,8.389372E-1,-1.4182497E0,7.0131254E-1,1.1316426E0,-1.3656111E-1],"categories":[],"categories_nodes":[],"categories_segments":[],"categories_sizes":[],"default_left":[1,1,1,1,0,1,1,0,0,0,0,1,0,1,0,1,1,0,0,0,0],"id":2,"left_children":[1,3,5,7,-1,9,11,-1,-1,-1,-1,13,-1,15,-1,17,19,-1,-1,-1,-1],"loss_changes":[1.22288925E2,6.7479706E0,1.5672379E1,1.1595764E0,0E0,1.0341524E1,1.4708328E0,0E0,0E0,0E0,0E0,3.6577787E0,0E0,5.172836E0,0E0,4.9719996E0,1.5924575E0,0E0,0E0,0E0,0E0],"parents":[2147483647,0,0,1,1,2,2,3,3,5,5,6,6,11,11,13,13,15,15,16,16],"right_children":[2,4,6,8,-1,10,12,-1,-1,-1,-1,14,-1,16,-1,18,20,-1,-1,-1,-1],"split_conditions":[1.6666651E-1,6.1111104E-1,5.55555E-2,5E-1,1.7659816E-1,3.88889E-1,3.88889E-1,-3.9782232E-1,-1.0274496E-1,-3.497433E-1,3.1185248E-1,6.1111104E-1,3.8353387E-1,7.214075E-2,3.5312566E-1,5E-1,8.4056005E-2,-4.2547494E-1,2.1039377E-1,3.394928E-1,-4.0968336E-2],"split_indices":[4,2,7,2,0,6,8,0,0,0,0,2,0,1,0,5,1,0,0,0,0],"split_type":[0,0,0,0,0,0,0,0,0,0,0,0,0,0,0,0,0,0,0,0,0],"sum_hessian":[1.092804E2,6.1362976E1,4.7917423E1,5.994665E1,1.416326E0,7.4104667E0,4.0506958E1,5.7882095E1,2.0645554E0,5.0534873E0,2.3569796E0,1.5229808E1,2.527715E1,6.975404E0,8.254404E0,2.9395018E0,4.035902E0,1.926868E0,1.0126338E0,2.981281E0,1.0546211E0],"tree_param":{"num_deleted":"0","num_feature":"11","num_nodes":"21","size_leaf_vector":"0"}},{"base_weights":[-2.7583468E-1,-1.1145338E0,7.522307E-1,-1.199618E0,7.7227294E-2,-2.5963914E-1,9.8575777E-1,-9.0675634E-1,1.0880727E0,-1.0172973E0,9.264478E-1,6.688101E-1,1.1677295E0,1.6126232E-3,1.0502344E0,-7.148383E-1,9.041448E-1,1.1404518E0,1.5376303E-1,9.427657E-2,-1.2012911E0],"categories":[],"categories_nodes":[],"categories_segments":[],"categories_sizes":[],"default_left":[1,1,1,0,1,1,1,0,0,0,0,1,0,1,1,1,0,1,1,0,0],"id":3,"left_children":[1,3,5,-1,7,9,11,-1,-1,-1,-1,13,-1,15,-1,19,-1,-1,-1,-1,-1],"loss_changes":[8.016802E1,5.2713127E0,1.0164602E1,0E0,5.30615E0,8.71975E0,1.1960297E0,0E0,0E0,0E0,0E0,3.775608E0,0E0,4.7849936E0,5.883179E-1,1.7374399E0,0E0,0E0,0E0,0E0,0E0],"parents":[2147483647,0,0,1,1,2,2,4,4,5,5,6,6,11,11,13,13,14,14,15,15],"right_children":[2,4,6,-1,8,10,12,-1,-1,-1,-1,14,-1,16,-1,20,-1,-1,-1,-1,-1],"split_conditions":[1.6666651E-1,5E-1,1.6666651E-1,-3.598854E-1,5.55555E-2,2.7777773E-1,6.1111104E-1,-2.7202693E-1,3.264218E-1,-3.051892E-1,2.7793434E-1,7.214075E-2,3.5031885E-1,5E-1,3.1507033E-1,2.7777773E-1,2.7124345E-1,3.4213555E-1,4.612891E-2,2.8282972E-2,-3.6038733E-1],"split_indices":[4,2,7,0,7,6,2,0,0,0,0,1,0,5,1,3,0,2147483647,2147483647,0,0],"split_type":[0,0,0,0,0,0,0,0,0,0,0,0,0,0,0,0,0,0,0,0,0],"sum_hessian":[9.100439E1,5.007166E1,4.0932728E1,4.6728916E1,3.3427436E0,7.654416E0,3.3278313E1,1.7460574E0,1.5966862E0,4.757616E0,2.8968003E0,1.3842906E1,1.9435406E1,5.4004765E0,8.442429E0,3.126529E0,2.2739477E0,7.4232283E0,1.0192006E0,1.4766383E0,1.6498907E0],"tree_param":{"num_deleted":"2","num_feature":"11","num_nodes":"21","size_leaf_vector":"0"}}]},"name":"gbtree"},"learner_model_param":{"base_score":"5E-1","boost_from_average":"0","num_class":"0","num_feature":"11","num_target":"1"},"objective":{"name":"binary:logistic","reg_loss_param":{"scale_pos_weight":"1"}}},"version":[2,0,3]}