[
  { "nodeid": 0, "depth": 0, "split": 0, "split_condition": 0.65069592, "yes": 1, "no": 2, "missing": 1, "children": [
    { "nodeid": 1, "depth": 1, "split": 0, "split_condition": 0.619646668, "yes": 3, "no": 4, "missing": 3, "children": [
      { "nodeid": 3, "depth": 2, "split": 6, "split_condition": 0.121971354, "yes": 7, "no": 8, "missing": 7, "children": [
        { "nodeid": 7, "depth": 3, "split": 0, "split_condition": 0.557548165, "yes": 15, "no": 16, "missing": 15, "children": [
          { "nodeid": 15, "leaf": 0.317824781 },
          { "nodeid": 16, "leaf": -0.177777782 }
        ]},
        { "nodeid": 8, "depth": 3, "split": 1, "split_condition": 0.825757563, "yes": 17, "no": 18, "missing": 18, "children": [
          { "nodeid": 17, "leaf": 0.34774968 },
          { "nodeid": 18, "leaf": 0.116814159 }
        ]}
      ]},
      { "nodeid": 4, "depth": 2, "split": 6, "split_condition": 0.256313205, "yes": 9, "no": 10, "missing": 10, "children": [
        { "nodeid": 9, "depth": 3, "split": 2, "split_condition": 0.35927707, "yes": 19, "no": 20, "missing": 20, "children": [
          { "nodeid": 19, "leaf": -0.258695662 },
          { "nodeid": 20, "leaf": 0.118095241 }
        ]},
        { "nodeid": 10, "depth": 3, "split": 4, "split_condition": 0.91572392, "yes": 21, "no": 22, "missing": 22, "children": [
          { "nodeid": 21, "leaf": 0.248898223 },
          { "nodeid": 22, "leaf": -0.334693879 }
        ]}
      ]}
    ]},
    { "nodeid": 2, "depth": 1, "split": 1, "split_condition": 0.734848499, "yes": 5, "no": 6, "missing": 5, "children": [
      { "nodeid": 5, "depth": 2, "split": 0, "split_condition": 0.77864027, "yes": 11, "no": 12, "missing": 12, "children": [
        { "nodeid": 11, "depth": 3, "split": 1, "split_condition": 0.25, "yes": 23, "no": 24, "missing": 24, "children": [
          { "nodeid": 23, "leaf": 0.253682166 },
          { "nodeid": 24, "leaf": -0.0181360207 }
        ]},
        { "nodeid": 12, "depth": 3, "split": 1, "split_condition": 0.0833333358, "yes": 25, "no": 26, "missing": 25, "children": [
          { "nodeid": 25, "leaf": -0.137799606 },
          { "nodeid": 26, "leaf": -0.322553724 }
        ]}
      ]},
      { "nodeid": 6, "depth": 2, "split": 0, "split_condition": 0.680674553, "yes": 13, "no": 14, "missing": 14, "children": [
        { "nodeid": 13, "depth": 3, "split": 2, "split_condition": 0.35927707, "yes": 27, "no": 28, "missing": 28, "children": [
          { "nodeid": 27, "leaf": -0.244247794 },
          { "nodeid": 28, "leaf": 0.164224878 }
        ]},
        { "nodeid": 14, "depth": 3, "split": 3, "split_condition": 0.730862021, "yes": 29, "no": 30, "missing": 29, "children": [
          { "nodeid": 29, "leaf": -0.385261029 },
          { "nodeid": 30, "leaf": -0.156468794 }
        ]}
      ]}
    ]}
  ]},
  { "nodeid": 0, "depth": 0, "split": 0, "split_condition": 0.659796596, "yes": 1, "no": 2, "missing": 1, "children": [
    { "nodeid": 1, "depth": 1, "split": 0, "split_condition": 0.627141356, "yes": 3, "no": 4, "missing": 3, "children": [
      { "nodeid": 3, "depth": 2, "split": 6, "split_condition": 0.115031123, "yes": 7, "no": 8, "missing": 7, "children": [
        { "nodeid": 7, "depth": 3, "split": 0, "split_condition": 0.557548165, "yes": 15, "no": 16, "missing": 15, "children": [
          { "nodeid": 15, "leaf": 0.263213038 },
          { "nodeid": 16, "leaf": -0.205678254 }
        ]},
        { "nodeid": 8, "depth": 3, "split": 4, "split_condition": 0.955699861, "yes": 17, "no": 18, "missing": 18, "children": [
          { "nodeid": 17, "leaf": 0.28242892 },
          { "nodeid": 18, "leaf": -0.00516330777 }
        ]}
      ]},
      { "nodeid": 4, "depth": 2, "split": 5, "split_condition": 0.26419127, "yes": 9, "no": 10, "missing": 10, "children": [
        { "nodeid": 9, "depth": 3, "split": 1, "split_condition": 0.765151501, "yes": 19, "no": 20, "missing": 20, "children": [
          { "nodeid": 19, "leaf": 0.0950614288 },
          { "nodeid": 20, "leaf": -0.250363559 }
        ]},
        { "nodeid": 10, "depth": 3, "split": 3, "split_condition": 0.22577399, "yes": 21, "no": 22, "missing": 21, "children": [
          { "nodeid": 21, "leaf": -0.00500579458 },
          { "nodeid": 22, "leaf": 0.238402203 }
        ]}
      ]}
    ]},
    { "nodeid": 2, "depth": 1, "split": 1, "split_condition": 0.719696999, "yes": 5, "no": 6, "missing": 5, "children": [
      { "nodeid": 5, "depth": 2, "split": 0, "split_condition": 0.789346933, "yes": 11, "no": 12, "missing": 12, "children": [
        { "nodeid": 11, "depth": 3, "split": 0, "split_condition": 0.759903669, "yes": 23, "no": 24, "missing": 24, "children": [
          { "nodeid": 23, "leaf": 0.231818751 },
          { "nodeid": 24, "leaf": 0.00521718105 }
        ]},
        { "nodeid": 12, "depth": 3, "split": 1, "split_condition": 0.0833333358, "yes": 25, "no": 26, "missing": 25, "children": [
          { "nodeid": 25, "leaf": -0.11461734 },
          { "nodeid": 26, "leaf": -0.284494191 }
        ]}
      ]},
      { "nodeid": 6, "depth": 2, "split": 0, "split_condition": 0.689775169, "yes": 13, "no": 14, "missing": 14, "children": [
        { "nodeid": 13, "depth": 3, "split": 5, "split_condition": 0.344731152, "yes": 27, "no": 28, "missing": 28, "children": [
          { "nodeid": 27, "leaf": -0.248217225 },
          { "nodeid": 28, "leaf": 0.101446353 }
        ]},
        { "nodeid": 14, "depth": 3, "split": 3, "split_condition": 0.730862021, "yes": 29, "no": 30, "missing": 29, "children": [
          { "nodeid": 29, "leaf": -0.32598716 },
          { "nodeid": 30, "leaf": -0.13855578 }
        ]}
      ]}
    ]}
  ]},
  { "nodeid": 0, "depth": 0, "split": 0, "split_condition": 0.65069592, "yes": 1, "no": 2, "missing": 1, "children": [
    { "nodeid": 1, "depth": 1, "split": 0, "split_condition": 0.619646668, "yes": 3, "no": 4, "missing": 3, "children": [
      { "nodeid": 3, "depth": 2, "split": 1, "split_condition": 0.810606062, "yes": 7, "no": 8, "missing": 8, "children": [
        { "nodeid": 7, "depth": 3, "split": 6, "split_condition": 0.30858162, "yes": 15, "no": 16, "missing": 16, "children": [
          { "nodeid": 15, "leaf": 0.215447411 },
          { "nodeid": 16, "leaf": 0.266760677 }
        ]},
        { "nodeid": 8, "depth": 3, "split": 4, "split_condition": 0.63911283, "yes": 17, "no": 18, "missing": 18, "children": [
          { "nodeid": 17, "leaf": 0.213095307 },
          { "nodeid": 18, "leaf": 0.0214141607 }
        ]}
      ]},
      { "nodeid": 4, "depth": 2, "split": 5, "split_condition": 0.23593989, "yes": 9, "no": 10, "missing": 10, "children": [
        { "nodeid": 9, "depth": 3, "split": 1, "split_condition": 0.310606062, "yes": 19, "no": 20, "missing": 20, "children": [
          { "nodeid": 19, "leaf": 0.183372542 },
          { "nodeid": 20, "leaf": -0.233302742 }
        ]},
        { "nodeid": 10, "depth": 3, "split": 2, "split_condition": 0.323017299, "yes": 21, "no": 22, "missing": 22, "children": [
          { "nodeid": 21, "leaf": 0.0650296584 },
          { "nodeid": 22, "leaf": 0.243671373 }
        ]}
      ]}
    ]},
    { "nodeid": 2, "depth": 1, "split": 1, "split_condition": 0.734848499, "yes": 5, "no": 6, "missing": 5, "children": [
      { "nodeid": 5, "depth": 2, "split": 0, "split_condition": 0.796841502, "yes": 11, "no": 12, "missing": 12, "children": [
        { "nodeid": 11, "depth": 3, "split": 0, "split_condition": 0.755620956, "yes": 23, "no": 24, "missing": 24, "children": [
          { "nodeid": 23, "leaf": 0.194676697 },
          { "nodeid": 24, "leaf": -0.00138730218 }
        ]},
        { "nodeid": 12, "depth": 3, "split": 5, "split_condition": 0.459794968, "yes": 25, "no": 26, "missing": 26, "children": [
          { "nodeid": 25, "leaf": -0.25584361 },
          { "nodeid": 26, "leaf": -0.0947808698 }
        ]}
      ]},
      { "nodeid": 6, "depth": 2, "split": 0, "split_condition": 0.685492516, "yes": 13, "no": 14, "missing": 14, "children": [
        { "nodeid": 13, "depth": 3, "split": 2, "split_condition": 0.35927707, "yes": 27, "no": 28, "missing": 28, "children": [
          { "nodeid": 27, "leaf": -0.192198738 },
          { "nodeid": 28, "leaf": 0.137727141 }
        ]},
        { "nodeid": 14, "depth": 3, "split": 3, "split_condition": 0.730862021, "yes": 29, "no": 30, "missing": 29, "children": [
          { "nodeid": 29, "leaf": -0.28526637 },
          { "nodeid": 30, "leaf": -0.106924869 }
        ]}
      ]}
    ]}
  ]},
  { "nodeid": 0, "depth": 0, "split": 0, "split_condition": 0.664614558, "yes": 1, "no": 2, "missing": 1, "children": [
    { "nodeid": 1, "depth": 1, "split": 0, "split_condition": 0.636241972, "yes": 3, "no": 4, "missing": 3, "children": [
      { "nodeid": 3, "depth": 2, "split": 6, "split_condition": 0.115031123, "yes": 7, "no": 8, "missing": 7, "children": [
        { "nodeid": 7, "depth": 3, "split": 0, "split_condition": 0.549785852, "yes": 15, "no": 16, "missing": 15, "children": [
          { "nodeid": 15, "leaf": 0.209058389 },
          { "nodeid": 16, "leaf": -0.201566815 }
        ]},
        { "nodeid": 8, "depth": 3, "split": 3, "split_condition": 1.82097244, "yes": 17, "no": 18, "missing": 18, "children": [
          { "nodeid": 17, "leaf": 0.211233452 },
          { "nodeid": 18, "leaf": -0.0821281075 }
        ]}
      ]},
      { "nodeid": 4, "depth": 2, "split": 6, "split_condition": 0.323500156, "yes": 9, "no": 10, "missing": 10, "children": [
        { "nodeid": 9, "depth": 3, "split": 3, "split_condition": 0.364923954, "yes": 19, "no": 20, "missing": 19, "children": [
          { "nodeid": 19, "leaf": -0.207105547 },
          { "nodeid": 20, "leaf": 0.0726315528 }
        ]},
        { "nodeid": 10, "depth": 3, "split": 5, "split_condition": 0.35927707, "yes": 21, "no": 22, "missing": 22, "children": [
          { "nodeid": 21, "leaf": 0.0830974877 },
          { "nodeid": 22, "leaf": 0.257330656 }
        ]}
      ]}
    ]},
    { "nodeid": 2, "depth": 1, "split": 1, "split_condition": 0.606060624, "yes": 5, "no": 6, "missing": 5, "children": [
      { "nodeid": 5, "depth": 2, "split": 0, "split_condition": 0.793094218, "yes": 11, "no": 12, "missing": 12, "children": [
        { "nodeid": 11, "depth": 3, "split": 5, "split_condition": 0.273230106, "yes": 23, "no": 24, "missing": 23, "children": [
          { "nodeid": 23, "leaf": 0.0493111722 },
          { "nodeid": 24, "leaf": 0.220301196 }
        ]},
        { "nodeid": 12, "depth": 3, "split": 4, "split_condition": 0.482375741, "yes": 25, "no": 26, "missing": 25, "children": [
          { "nodeid": 25, "leaf": -0.0637724549 },
          { "nodeid": 26, "leaf": -0.223499253 }
        ]}
      ]},
      { "nodeid": 6, "depth": 2, "split": 0, "split_condition": 0.711723804, "yes": 13, "no": 14, "missing": 14, "children": [
        { "nodeid": 13, "depth": 3, "split": 3, "split_condition": 0.38320303, "yes": 27, "no": 28, "missing": 27, "children": [
          { "nodeid": 27, "leaf": -0.229121357 },
          { "nodeid": 28, "leaf": 0.0461051501 }
        ]},
        { "nodeid": 14, "depth": 3, "split": 4, "split_condition": 0.306411803, "yes": 29, "no": 30, "missing": 30, "children": [
          { "nodeid": 29, "leaf": -0.101135328 },
          { "nodeid": 30, "leaf": -0.272795647 }
        ]}
      ]}
    ]}
  ]},
  { "nodeid": 0, "depth": 0, "split": 0, "split_condition": 0.664614558, "yes": 1, "no": 2, "missing": 1, "children": [
    { "nodeid": 1, "depth": 1, "split": 0, "split_condition": 0.617505312, "yes": 3, "no": 4, "missing": 3, "children": [
      { "nodeid": 3, "depth": 2, "split": 1, "split_condition": 0.825757563, "yes": 7, "no": 8, "missing": 8, "children": [
        { "nodeid": 7, "depth": 3, "split": 0, "split_condition": 0.582173467, "yes": 15, "no": 16, "missing": 16, "children": [
          { "nodeid": 15, "leaf": 0.220600232 },
          { "nodeid": 16, "leaf": 0.159675106 }
        ]},
        { "nodeid": 8, "depth": 3, "split": 0, "split_condition": 0.469753742, "yes": 17, "no": 18, "missing": 17, "children": [
          { "nodeid": 17, "leaf": 0.136094674 },
          { "nodeid": 18, "leaf": -0.160981804 }
        ]}
      ]},
      { "nodeid": 4, "depth": 2, "split": 5, "split_condition": 0.26419127, "yes": 9, "no": 10, "missing": 10, "children": [
        { "nodeid": 9, "depth": 3, "split": 1, "split_condition": 0.765151501, "yes": 19, "no": 20, "missing": 20, "children": [
          { "nodeid": 19, "leaf": 0.0668068081 },
          { "nodeid": 20, "leaf": -0.187597111 }
        ]},
        { "nodeid": 10, "depth": 3, "split": 3, "split_condition": 0.20001407, "yes": 21, "no": 22, "missing": 21, "children": [
          { "nodeid": 21, "leaf": -0.0419891402 },
          { "nodeid": 22, "leaf": 0.167714894 }
        ]}
      ]}
    ]},
    { "nodeid": 2, "depth": 1, "split": 1, "split_condition": 0.606060624, "yes": 5, "no": 6, "missing": 5, "children": [
      { "nodeid": 5, "depth": 2, "split": 0, "split_condition": 0.803265572, "yes": 11, "no": 12, "missing": 12, "children": [
        { "nodeid": 11, "depth": 3, "split": 0, "split_condition": 0.759903669, "yes": 23, "no": 24, "missing": 24, "children": [
          { "nodeid": 23, "leaf": 0.173340216 },
          { "nodeid": 24, "leaf": -0.00529939821 }
        ]},
        { "nodeid": 12, "depth": 3, "split": 1, "split_condition": 0.0833333358, "yes": 25, "no": 26, "missing": 25, "children": [
          { "nodeid": 25, "leaf": -0.0547569282 },
          { "nodeid": 26, "leaf": -0.213881955 }
        ]}
      ]},
      { "nodeid": 6, "depth": 2, "split": 0, "split_condition": 0.706370473, "yes": 13, "no": 14, "missing": 14, "children": [
        { "nodeid": 13, "depth": 3, "split": 3, "split_condition": 0.38320303, "yes": 27, "no": 28, "missing": 27, "children": [
          { "nodeid": 27, "leaf": -0.198603153 },
          { "nodeid": 28, "leaf": 0.0557404868 }
        ]},
        { "nodeid": 14, "depth": 3, "split": 4, "split_condition": 0.306411803, "yes": 29, "no": 30, "missing": 30, "children": [
          { "nodeid": 29, "leaf": -0.0680155084 },
          { "nodeid": 30, "leaf": -0.249586806 }
        ]}
      ]}
    ]}
  ]},
  { "nodeid": 0, "depth": 0, "split": 0, "split_condition": 0.645342588, "yes": 1, "no": 2, "missing": 1, "children": [
    { "nodeid": 1, "depth": 1, "split": 6, "split_condition": 0.121971354, "yes": 3, "no": 4, "missing": 3, "children": [
      { "nodeid": 3, "depth": 2, "split": 0, "split_condition": 0.584850073, "yes": 7, "no": 8, "missing": 7, "children": [
        { "nodeid": 7, "depth": 3, "split": 3, "split_condition": 0.121971354, "yes": 15, "no": 16, "missing": 15, "children": [
          { "nodeid": 15, "leaf": -0.135415494 },
          { "nodeid": 16, "leaf": 0.222452745 }
        ]},
        { "nodeid": 8, "depth": 3, "split": 5, "split_condition": 0.173820287, "yes": 17, "no": 18, "missing": 18, "children": [
          { "nodeid": 17, "leaf": -0.292686552 },
          { "nodeid": 18, "leaf": -0.0159520321 }
        ]}
      ]},
      { "nodeid": 4, "depth": 2, "split": 2, "split_condition": 0.323017299, "yes": 9, "no": 10, "missing": 10, "children": [
        { "nodeid": 9, "depth": 3, "split": 5, "split_condition": 0.311831862, "yes": 19, "no": 20, "missing": 20, "children": [
          { "nodeid": 19, "leaf": 0.0584115684 },
          { "nodeid": 20, "leaf": 0.207863912 }
        ]},
        { "nodeid": 10, "depth": 3, "split": 5, "split_condition": 0.323017299, "yes": 21, "no": 22, "missing": 22, "children": [
          { "nodeid": 21, "leaf": 0.240950853 },
          { "nodeid": 22, "leaf": 0.159562975 }
        ]}
      ]}
    ]},
    { "nodeid": 2, "depth": 1, "split": 1, "split_condition": 0.734848499, "yes": 5, "no": 6, "missing": 5, "children": [
      { "nodeid": 5, "depth": 2, "split": 0, "split_condition": 0.769539595, "yes": 11, "no": 12, "missing": 12, "children": [
        { "nodeid": 11, "depth": 3, "split": 1, "split_condition": 0.159090906, "yes": 23, "no": 24, "missing": 24, "children": [
          { "nodeid": 23, "leaf": 0.147955403 },
          { "nodeid": 24, "leaf": -0.0161193106 }
        ]},
        { "nodeid": 12, "depth": 3, "split": 0, "split_condition": 0.853051424, "yes": 25, "no": 26, "missing": 26, "children": [
          { "nodeid": 25, "leaf": -0.0753120556 },
          { "nodeid": 26, "leaf": -0.215463921 }
        ]}
      ]},
      { "nodeid": 6, "depth": 2, "split": 0, "split_condition": 0.690845847, "yes": 13, "no": 14, "missing": 14, "children": [
        { "nodeid": 13, "depth": 3, "split": 5, "split_condition": 0.345414996, "yes": 27, "no": 28, "missing": 28, "children": [
          { "nodeid": 27, "leaf": -0.146355376 },
          { "nodeid": 28, "leaf": 0.149109289 }
        ]},
        { "nodeid": 14, "depth": 3, "split": 3, "split_condition": 0.730862021, "yes": 29, "no": 30, "missing": 29, "children": [
          { "nodeid": 29, "leaf": -0.230033144 },
          { "nodeid": 30, "leaf": -0.0576412641 }
        ]}
      ]}
    ]}
  ]},
  { "nodeid": 0, "depth": 0, "split": 0, "split_condition": 0.672109246, "yes": 1, "no": 2, "missing": 1, "children": [
    { "nodeid": 1, "depth": 1, "split": 0, "split_condition": 0.606798708, "yes": 3, "no": 4, "missing": 3, "children": [
      { "nodeid": 3, "depth": 2, "split": 1, "split_condition": 0.825757563, "yes": 7, "no": 8, "missing": 8, "children": [
        { "nodeid": 7, "depth": 3, "split": 6, "split_condition": 0.30858162, "yes": 15, "no": 16, "missing": 16, "children": [
          { "nodeid": 15, "leaf": 0.136783108 },
          { "nodeid": 16, "leaf": 0.193578824 }
        ]},
        { "nodeid": 8, "depth": 3, "split": 3, "split_condition": 0.297914565, "yes": 17, "no": 18, "missing": 17, "children": [
          { "nodeid": 17, "leaf": -0.110639177 },
          { "nodeid": 18, "leaf": 0.130563676 }
        ]}
      ]},
      { "nodeid": 4, "depth": 2, "split": 6, "split_condition": 0.252279282, "yes": 9, "no": 10, "missing": 10, "children": [
        { "nodeid": 9, "depth": 3, "split": 1, "split_condition": 0.734848499, "yes": 19, "no": 20, "missing": 20, "children": [
          { "nodeid": 19, "leaf": 0.146463618 },
          { "nodeid": 20, "leaf": -0.191375434 }
        ]},
        { "nodeid": 10, "depth": 3, "split": 2, "split_condition": 0.344731152, "yes": 21, "no": 22, "missing": 22, "children": [
          { "nodeid": 21, "leaf": 0.0265148021 },
          { "nodeid": 22, "leaf": 0.194796592 }
        ]}
      ]}
    ]},
    { "nodeid": 2, "depth": 1, "split": 1, "split_condition": 0.719696999, "yes": 5, "no": 6, "missing": 5, "children": [
      { "nodeid": 5, "depth": 2, "split": 0, "split_condition": 0.815578163, "yes": 11, "no": 12, "missing": 12, "children": [
        { "nodeid": 11, "depth": 3, "split": 2, "split_condition": 0.251264691, "yes": 23, "no": 24, "missing": 23, "children": [
          { "nodeid": 23, "leaf": -0.0441364311 },
          { "nodeid": 24, "leaf": 0.147542626 }
        ]},
        { "nodeid": 12, "depth": 3, "split": 5, "split_condition": 0.459794968, "yes": 25, "no": 26, "missing": 26, "children": [
          { "nodeid": 25, "leaf": -0.192757413 },
          { "nodeid": 26, "leaf": -0.0212279372 }
        ]}
      ]},
      { "nodeid": 6, "depth": 2, "split": 2, "split_condition": 0.426773906, "yes": 13, "no": 14, "missing": 14, "children": [
        { "nodeid": 13, "depth": 3, "split": 5, "split_condition": 0.426773906, "yes": 27, "no": 28, "missing": 28, "children": [
          { "nodeid": 27, "leaf": -0.222418264 },
          { "nodeid": 28, "leaf": -0.0999355689 }
        ]},
        { "nodeid": 14, "depth": 3, "split": 0, "split_condition": 0.741702318, "yes": 29, "no": 30, "missing": 30, "children": [
          { "nodeid": 29, "leaf": 0.245487243 },
          { "nodeid": 30, "leaf": -0.205381826 }
        ]}
      ]}
    ]}
  ]},
  { "nodeid": 0, "depth": 0, "split": 0, "split_condition": 0.72778368, "yes": 1, "no": 2, "missing": 1, "children": [
    { "nodeid": 1, "depth": 1, "split": 1, "split_condition": 0.765151501, "yes": 3, "no": 4, "missing": 4, "children": [
      { "nodeid": 3, "depth": 2, "split": 3, "split_condition": 0.153868541, "yes": 7, "no": 8, "missing": 8, "children": [
        { "nodeid": 7, "depth": 3, "split": 0, "split_condition": 0.63784796, "yes": 15, "no": 16, "missing": 16, "children": [
          { "nodeid": 15, "leaf": 0.101722501 },
          { "nodeid": 16, "leaf": -0.127660304 }
        ]},
        { "nodeid": 8, "depth": 3, "split": 5, "split_condition": 0.381776452, "yes": 17, "no": 18, "missing": 17, "children": [
          { "nodeid": 17, "leaf": 0.130672336 },
          { "nodeid": 18, "leaf": 0.304900855 }
        ]}
      ]},
      { "nodeid": 4, "depth": 2, "split": 0, "split_condition": 0.635171294, "yes": 9, "no": 10, "missing": 9, "children": [
        { "nodeid": 9, "depth": 3, "split": 2, "split_condition": 0.300618291, "yes": 19, "no": 20, "missing": 20, "children": [
          { "nodeid": 19, "leaf": 0.0664054528 },
          { "nodeid": 20, "leaf": 0.160093501 }
        ]},
        { "nodeid": 10, "depth": 3, "split": 2, "split_condition": 0.412610739, "yes": 21, "no": 22, "missing": 22, "children": [
          { "nodeid": 21, "leaf": -0.162622079 },
          { "nodeid": 22, "leaf": 0.15513812 }
        ]}
      ]}
    ]},
    { "nodeid": 2, "depth": 1, "split": 6, "split_condition": 0.430489004, "yes": 5, "no": 6, "missing": 6, "children": [
      { "nodeid": 5, "depth": 2, "split": 3, "split_condition": 0.445345134, "yes": 11, "no": 12, "missing": 12, "children": [
        { "nodeid": 11, "depth": 3, "split": 0, "split_condition": 0.75347966, "yes": 23, "no": 24, "missing": 24, "children": [
          { "nodeid": 23, "leaf": -0.108759701 },
          { "nodeid": 24, "leaf": -0.214274675 }
        ]},
        { "nodeid": 12, "depth": 3, "split": 0, "split_condition": 0.838597417, "yes": 25, "no": 26, "missing": 26, "children": [
          { "nodeid": 25, "leaf": 0.0686021671 },
          { "nodeid": 26, "leaf": -0.174551889 }
        ]}
      ]},
      { "nodeid": 6, "depth": 2, "split": 0, "split_condition": 0.86215204, "yes": 13, "no": 14, "missing": 14, "children": [
        { "nodeid": 13, "depth": 3, "split": 5, "split_condition": 0.540911674, "yes": 27, "no": 28, "missing": 28, "children": [
          { "nodeid": 27, "leaf": 0.0527541116 },
          { "nodeid": 28, "leaf": 0.559073865 }
        ]},
        { "nodeid": 14, "depth": 3, "split": 4, "split_condition": 0.53316927, "yes": 29, "no": 30, "missing": 29, "children": [
          { "nodeid": 29, "leaf": -0.082696937 },
          { "nodeid": 30, "leaf": -0.231814787 }
        ]}
      ]}
    ]}
  ]},
  { "nodeid": 0, "depth": 0, "split": 0, "split_condition": 0.706370473, "yes": 1, "no": 2, "missing": 1, "children": [
    { "nodeid": 1, "depth": 1, "split": 6, "split_condition": 0.323500156, "yes": 3, "no": 4, "missing": 3, "children": [
      { "nodeid": 3, "depth": 2, "split": 3, "split_condition": 0.32475096, "yes": 7, "no": 8, "missing": 7, "children": [
        { "nodeid": 7, "depth": 3, "split": 0, "split_condition": 0.590738773, "yes": 15, "no": 16, "missing": 15, "children": [
          { "nodeid": 15, "leaf": 0.067534633 },
          { "nodeid": 16, "leaf": -0.146318629 }
        ]},
        { "nodeid": 8, "depth": 3, "split": 0, "split_condition": 0.638918638, "yes": 17, "no": 18, "missing": 18, "children": [
          { "nodeid": 17, "leaf": 0.191721663 },
          { "nodeid": 18, "leaf": -0.00171421305 }
        ]}
      ]},
      { "nodeid": 4, "depth": 2, "split": 5, "split_condition": 0.426773906, "yes": 9, "no": 10, "missing": 9, "children": [
        { "nodeid": 9, "depth": 3, "split": 1, "split_condition": 0.795454562, "yes": 19, "no": 20, "missing": 20, "children": [
          { "nodeid": 19, "leaf": 0.134735048 },
          { "nodeid": 20, "leaf": 0.0162654743 }
        ]},
        { "nodeid": 10, "depth": 3, "split": 2, "split_condition": 0.426773906, "yes": 21, "no": 22, "missing": 22, "children": [
          { "nodeid": 21, "leaf": 0.328166574 },
          { "nodeid": 22, "leaf": -0.0134277819 }
        ]}
      ]}
    ]},
    { "nodeid": 2, "depth": 1, "split": 1, "split_condition": 0.25, "yes": 5, "no": 6, "missing": 5, "children": [
      { "nodeid": 5, "depth": 2, "split": 0, "split_condition": 0.808083534, "yes": 11, "no": 12, "missing": 12, "children": [
        { "nodeid": 11, "depth": 3, "split": 2, "split_condition": 0.280107617, "yes": 23, "no": 24, "missing": 23, "children": [
          { "nodeid": 23, "leaf": -0.0164364055 },
          { "nodeid": 24, "leaf": 0.203328967 }
        ]},
        { "nodeid": 12, "depth": 3, "split": 2, "split_condition": 0.459794968, "yes": 25, "no": 26, "missing": 25, "children": [
          { "nodeid": 25, "leaf": -0.160932258 },
          { "nodeid": 26, "leaf": 0.0557484031 }
        ]}
      ]},
      { "nodeid": 6, "depth": 2, "split": 2, "split_condition": 0.463646591, "yes": 13, "no": 14, "missing": 14, "children": [
        { "nodeid": 13, "depth": 3, "split": 7, "split_condition": 0.393241763, "yes": 27, "no": 28, "missing": 28, "children": [
          { "nodeid": 27, "leaf": 0.0299469177 },
          { "nodeid": 28, "leaf": -0.215165973 }
        ]},
        { "nodeid": 14, "depth": 3, "split": 0, "split_condition": 0.775428295, "yes": 29, "no": 30, "missing": 30, "children": [
          { "nodeid": 29, "leaf": 0.119982183 },
          { "nodeid": 30, "leaf": -0.175672844 }
        ]}
      ]}
    ]}
  ]},
  { "nodeid": 0, "depth": 0, "split": 0, "split_condition": 0.742773056, "yes": 1, "no": 2, "missing": 1, "children": [
    { "nodeid": 1, "depth": 1, "split": 1, "split_condition": 0.159090906, "yes": 3, "no": 4, "missing": 4, "children": [
      { "nodeid": 3, "depth": 2, "split": 5, "split_condition": 0.180965453, "yes": 7, "no": 8, "missing": 7, "children": [
        { "nodeid": 7, "depth": 3, "split": 2, "split_condition": 0.177914143, "yes": 15, "no": 16, "missing": 15, "children": [
          { "nodeid": 15, "leaf": -0.0331081562 },
          { "nodeid": 16, "leaf": 0.195681766 }
        ]},
        { "nodeid": 8, "depth": 3, "split": 3, "split_condition": 0.157318652, "yes": 17, "no": 18, "missing": 18, "children": [
          { "nodeid": 17, "leaf": 0.0455036685 },
          { "nodeid": 18, "leaf": 0.194532961 }
        ]}
      ]},
      { "nodeid": 4, "depth": 2, "split": 0, "split_condition": 0.674250543, "yes": 9, "no": 10, "missing": 9, "children": [
        { "nodeid": 9, "depth": 3, "split": 5, "split_condition": 0.220149353, "yes": 19, "no": 20, "missing": 20, "children": [
          { "nodeid": 19, "leaf": -0.0949159116 },
          { "nodeid": 20, "leaf": 0.0861380175 }
        ]},
        { "nodeid": 10, "depth": 3, "split": 3, "split_condition": 0.381928235, "yes": 21, "no": 22, "missing": 21, "children": [
          { "nodeid": 21, "leaf": -0.16852133 },
          { "nodeid": 22, "leaf": 0.0126990769 }
        ]}
      ]}
    ]},
    { "nodeid": 2, "depth": 1, "split": 6, "split_condition": 0.430489004, "yes": 5, "no": 6, "missing": 6, "children": [
      { "nodeid": 5, "depth": 2, "split": 2, "split_condition": 0.56050694, "yes": 11, "no": 12, "missing": 11, "children": [
        { "nodeid": 11, "depth": 3, "split": 3, "split_condition": 0.442749143, "yes": 23, "no": 24, "missing": 24, "children": [
          { "nodeid": 23, "leaf": -0.189462528 },
          { "nodeid": 24, "leaf": -0.069073163 }
        ]},
        { "nodeid": 12, "depth": 3, "split": 0, "split_condition": 0.866970062, "yes": 25, "no": 26, "missing": 26, "children": [
          { "nodeid": 25, "leaf": 0.487882346 },
          { "nodeid": 26, "leaf": -0.188817143 }
        ]}
      ]},
      { "nodeid": 6, "depth": 2, "split": 0, "split_condition": 0.878211975, "yes": 13, "no": 14, "missing": 14, "children": [
        { "nodeid": 13, "depth": 3, "split": 5, "split_condition": 0.455469608, "yes": 27, "no": 28, "missing": 28, "children": [
          { "nodeid": 27, "leaf": 0.0120236026 },
          { "nodeid": 28, "leaf": 0.335633665 }
        ]},
        { "nodeid": 14, "depth": 3, "split": 4, "split_condition": 0.464462698, "yes": 29, "no": 30, "missing": 29, "children": [
          { "nodeid": 29, "leaf": -0.0966647416 },
          { "nodeid": 30, "leaf": -0.228546724 }
        ]}
      ]}
    ]}
  ]},
  { "nodeid": 0, "depth": 0, "split": 0, "split_condition": 0.853051424, "yes": 1, "no": 2, "missing": 1, "children": [
    { "nodeid": 1, "depth": 1, "split": 1, "split_condition": 0.0833333358, "yes": 3, "no": 4, "missing": 3, "children": [
      { "nodeid": 3, "depth": 2, "split": 6, "split_condition": 0.541766107, "yes": 7, "no": 8, "missing": 8, "children": [
        { "nodeid": 7, "depth": 3, "split": 5, "split_condition": 0.756652653, "yes": 15, "no": 16, "missing": 16, "children": [
          { "nodeid": 15, "leaf": 0.416684359 },
          { "nodeid": 16, "leaf": 0.755169928 }
        ]},
        { "nodeid": 8, "depth": 3, "split": 3, "split_condition": 0.141054958, "yes": 17, "no": 18, "missing": 18, "children": [
          { "nodeid": 17, "leaf": -0.0506868437 },
          { "nodeid": 18, "leaf": 0.34634614 }
        ]}
      ]},
      { "nodeid": 4, "depth": 2, "split": 6, "split_condition": 0.381928235, "yes": 9, "no": 10, "missing": 9, "children": [
        { "nodeid": 9, "depth": 3, "split": 0, "split_condition": 0.623929381, "yes": 19, "no": 20, "missing": 19, "children": [
          { "nodeid": 19, "leaf": 0.091700919 },
          { "nodeid": 20, "leaf": -0.0942606851 }
        ]},
        { "nodeid": 10, "depth": 3, "split": 0, "split_condition": 0.803800821, "yes": 21, "no": 22, "missing": 22, "children": [
          { "nodeid": 21, "leaf": 0.0893024504 },
          { "nodeid": 22, "leaf": -0.0677499697 }
        ]}
      ]}
    ]},
    { "nodeid": 2, "depth": 1, "split": 2, "split_condition": 0.604076445, "yes": 5, "no": 6, "missing": 5, "children": [
      { "nodeid": 5, "depth": 2, "split": 5, "split_condition": 0.574018359, "yes": 11, "no": 12, "missing": 12, "children": [
        { "nodeid": 11, "depth": 3, "split": 1, "split_condition": 1.6060617, "yes": 23, "no": 24, "missing": 24, "children": [
          { "nodeid": 23, "leaf": -0.220264316 },
          { "nodeid": 24, "leaf": -0.042171292 }
        ]},
        { "nodeid": 12, "depth": 3, "split": 0, "split_condition": 0.893201292, "yes": 25, "no": 26, "missing": 26, "children": [
          { "nodeid": 25, "leaf": 0.210681364 },
          { "nodeid": 26, "leaf": -0.208169654 }
        ]}
      ]},
      { "nodeid": 6, "depth": 2, "split": 0, "split_condition": 0.894807279, "yes": 13, "no": 14, "missing": 14, "children": [
        { "nodeid": 13, "depth": 3, "split": 6, "split_condition": 0.398841321, "yes": 27, "no": 28, "missing": 28, "children": [
          { "nodeid": 27, "leaf": 0.0394217595 },
          { "nodeid": 28, "leaf": 0.497315377 }
        ]},
        { "nodeid": 14, "depth": 3, "split": 5, "split_condition": 0.452427685, "yes": 29, "no": 30, "missing": 30, "children": [
          { "nodeid": 29, "leaf": -0.226127788 },
          { "nodeid": 30, "leaf": -0.033803083 }
        ]}
      ]}
    ]}
  ]},
  { "nodeid": 0, "depth": 0, "split": 0, "split_condition": 0.768468976, "yes": 1, "no": 2, "missing": 1, "children": [
    { "nodeid": 1, "depth": 1, "split": 1, "split_condition": 0.204545468, "yes": 3, "no": 4, "missing": 4, "children": [
      { "nodeid": 3, "depth": 2, "split": 5, "split_condition": 0.177914143, "yes": 7, "no": 8, "missing": 7, "children": [
        { "nodeid": 7, "depth": 3, "split": 0, "split_condition": 0.725107074, "yes": 15, "no": 16, "missing": 16, "children": [
          { "nodeid": 15, "leaf": 0.14250648 },
          { "nodeid": 16, "leaf": -0.112672143 }
        ]},
        { "nodeid": 8, "depth": 3, "split": 3, "split_condition": 0.3159585, "yes": 17, "no": 18, "missing": 18, "children": [
          { "nodeid": 17, "leaf": 0.092470631 },
          { "nodeid": 18, "leaf": 0.18759124 }
        ]}
      ]},
      { "nodeid": 4, "depth": 2, "split": 0, "split_condition": 0.696734428, "yes": 9, "no": 10, "missing": 9, "children": [
        { "nodeid": 9, "depth": 3, "split": 2, "split_condition": 0.35927707, "yes": 19, "no": 20, "missing": 20, "children": [
          { "nodeid": 19, "leaf": 0.000443955738 },
          { "nodeid": 20, "leaf": 0.148369044 }
        ]},
        { "nodeid": 10, "depth": 3, "split": 4, "split_condition": 0.39206636, "yes": 21, "no": 22, "missing": 22, "children": [
          { "nodeid": 21, "leaf": 0.218698785 },
          { "nodeid": 22, "leaf": -0.163266972 }
        ]}
      ]}
    ]},
    { "nodeid": 2, "depth": 1, "split": 7, "split_condition": 0.478256464, "yes": 5, "no": 6, "missing": 5, "children": [
      { "nodeid": 5, "depth": 2, "split": 0, "split_condition": 0.84930408, "yes": 11, "no": 12, "missing": 12, "children": [
        { "nodeid": 11, "depth": 3, "split": 1, "split_condition": 0.204545468, "yes": 23, "no": 24, "missing": 23, "children": [
          { "nodeid": 23, "leaf": 0.302815259 },
          { "nodeid": 24, "leaf": -0.067041561 }
        ]},
        { "nodeid": 12, "depth": 3, "split": 0, "split_condition": 0.900160611, "yes": 25, "no": 26, "missing": 26, "children": [
          { "nodeid": 25, "leaf": 0.0262228884 },
          { "nodeid": 26, "leaf": -0.172586605 }
        ]}
      ]},
      { "nodeid": 6, "depth": 2, "split": 4, "split_condition": 0.536745787, "yes": 13, "no": 14, "missing": 13, "children": [
        { "nodeid": 13, "depth": 3, "split": 0, "split_condition": 0.879817963, "yes": 27, "no": 28, "missing": 28, "children": [
          { "nodeid": 27, "leaf": 0.11245022 },
          { "nodeid": 28, "leaf": -0.185142025 }
        ]},
        { "nodeid": 14, "depth": 3, "split": 5, "split_condition": 0.456077188, "yes": 29, "no": 30, "missing": 30, "children": [
          { "nodeid": 29, "leaf": -0.17171362 },
          { "nodeid": 30, "leaf": 0.0333913863 }
        ]}
      ]}
    ]}
  ]},
  { "nodeid": 0, "depth": 0, "split": 0, "split_condition": 0.824678779, "yes": 1, "no": 2, "missing": 1, "children": [
    { "nodeid": 1, "depth": 1, "split": 1, "split_condition": 0.128787875, "yes": 3, "no": 4, "missing": 3, "children": [
      { "nodeid": 3, "depth": 2, "split": 4, "split_condition": 0.647689223, "yes": 7, "no": 8, "missing": 7, "children": [
        { "nodeid": 7, "depth": 3, "split": 2, "split_condition": 0.362426043, "yes": 15, "no": 16, "missing": 16, "children": [
          { "nodeid": 15, "leaf": 0.171502486 },
          { "nodeid": 16, "leaf": 0.359266758 }
        ]},
        { "nodeid": 8, "depth": 3, "split": 5, "split_condition": 0.403670937, "yes": 17, "no": 18, "missing": 18, "children": [
          { "nodeid": 17, "leaf": 0.00831024628 },
          { "nodeid": 18, "leaf": 0.28298679 }
        ]}
      ]},
      { "nodeid": 4, "depth": 2, "split": 0, "split_condition": 0.717077136, "yes": 9, "no": 10, "missing": 9, "children": [
        { "nodeid": 9, "depth": 3, "split": 5, "split_condition": 0.384636402, "yes": 19, "no": 20, "missing": 19, "children": [
          { "nodeid": 19, "leaf": 0.00865612365 },
          { "nodeid": 20, "leaf": 0.194428131 }
        ]},
        { "nodeid": 10, "depth": 3, "split": 1, "split_condition": 0.606060624, "yes": 21, "no": 22, "missing": 22, "children": [
          { "nodeid": 21, "leaf": -0.0086100623 },
          { "nodeid": 22, "leaf": -0.184458956 }
        ]}
      ]}
    ]},
    { "nodeid": 2, "depth": 1, "split": 2, "split_condition": 0.574018359, "yes": 5, "no": 6, "missing": 5, "children": [
      { "nodeid": 5, "depth": 2, "split": 5, "split_condition": 0.585203826, "yes": 11, "no": 12, "missing": 12, "children": [
        { "nodeid": 11, "depth": 3, "split": 6, "split_condition": 0.543032885, "yes": 23, "no": 24, "missing": 24, "children": [
          { "nodeid": 23, "leaf": -0.210114509 },
          { "nodeid": 24, "leaf": -0.0993311629 }
        ]},
        { "nodeid": 12, "depth": 3, "split": 0, "split_condition": 0.877676666, "yes": 25, "no": 26, "missing": 26, "children": [
          { "nodeid": 25, "leaf": 0.257780999 },
          { "nodeid": 26, "leaf": -0.161578298 }
        ]}
      ]},
      { "nodeid": 6, "depth": 2, "split": 0, "split_condition": 0.884100676, "yes": 13, "no": 14, "missing": 14, "children": [
        { "nodeid": 13, "depth": 3, "split": 7, "split_condition": 0.809744358, "yes": 27, "no": 28, "missing": 28, "children": [
          { "nodeid": 27, "leaf": 0.342044294 },
          { "nodeid": 28, "leaf": -0.00672429567 }
        ]},
        { "nodeid": 14, "depth": 3, "split": 5, "split_condition": 0.452427685, "yes": 29, "no": 30, "missing": 30, "children": [
          { "nodeid": 29, "leaf": -0.184143484 },
          { "nodeid": 30, "leaf": 0.03179745 }
        ]}
      ]}
    ]}
  ]},
  { "nodeid": 0, "depth": 0, "split": 3, "split_condition": 0.323500156, "yes": 1, "no": 2, "missing": 1, "children": [
    { "nodeid": 1, "depth": 1, "split": 0, "split_condition": 0.598768711, "yes": 3, "no": 4, "missing": 3, "children": [
      { "nodeid": 3, "depth": 2, "split": 6, "split_condition": 0.32475096, "yes": 7, "no": 8, "missing": 7, "children": [
        { "nodeid": 7, "depth": 3, "split": 1, "split_condition": 0.795454562, "yes": 15, "no": 16, "missing": 16, "children": [
          { "nodeid": 15, "leaf": 0.0718994662 },
          { "nodeid": 16, "leaf": -0.0918498412 }
        ]},
        { "nodeid": 8, "leaf": 0.216119513 }
      ]},
      { "nodeid": 4, "depth": 2, "split": 6, "split_condition": 0.357395113, "yes": 9, "no": 10, "missing": 10, "children": [
        { "nodeid": 9, "depth": 3, "split": 0, "split_condition": 0.743843675, "yes": 17, "no": 18, "missing": 18, "children": [
          { "nodeid": 17, "leaf": -0.118205324 },
          { "nodeid": 18, "leaf": -0.230216548 }
        ]},
        { "nodeid": 10, "depth": 3, "split": 0, "split_condition": 0.759903669, "yes": 19, "no": 20, "missing": 20, "children": [
          { "nodeid": 19, "leaf": 0.015123941 },
          { "nodeid": 20, "leaf": -0.120908476 }
        ]}
      ]}
    ]},
    { "nodeid": 2, "depth": 1, "split": 0, "split_condition": 0.80433619, "yes": 5, "no": 6, "missing": 6, "children": [
      { "nodeid": 5, "depth": 2, "split": 1, "split_condition": 0.159090906, "yes": 11, "no": 12, "missing": 11, "children": [
        { "nodeid": 11, "depth": 3, "split": 5, "split_condition": 0.246936649, "yes": 21, "no": 22, "missing": 21, "children": [
          { "nodeid": 21, "leaf": 0.0389991514 },
          { "nodeid": 22, "leaf": 0.204589009 }
        ]},
        { "nodeid": 12, "depth": 3, "split": 0, "split_condition": 0.726713061, "yes": 23, "no": 24, "missing": 24, "children": [
          { "nodeid": 23, "leaf": 0.0653488487 },
          { "nodeid": 24, "leaf": -0.140281305 }
        ]}
      ]},
      { "nodeid": 6, "depth": 2, "split": 1, "split_condition": 0.113636367, "yes": 13, "no": 14, "missing": 13, "children": [
        { "nodeid": 13, "depth": 3, "split": 0, "split_condition": 0.900160611, "yes": 25, "no": 26, "missing": 26, "children": [
          { "nodeid": 25, "leaf": 0.150059283 },
          { "nodeid": 26, "leaf": -0.169746727 }
        ]},
        { "nodeid": 14, "depth": 3, "split": 2, "split_condition": 0.56050694, "yes": 27, "no": 28, "missing": 27, "children": [
          { "nodeid": 27, "leaf": -0.150097594 },
          { "nodeid": 28, "leaf": 0.128960148 }
        ]}
      ]}
    ]}
  ]},
  { "nodeid": 0, "depth": 0, "split": 2, "split_condition": 0.350111067, "yes": 1, "no": 2, "missing": 1, "children": [
    { "nodeid": 1, "depth": 1, "split": 0, "split_condition": 0.77221632, "yes": 3, "no": 4, "missing": 3, "children": [
      { "nodeid": 3, "depth": 2, "split": 1, "split_condition": 0.659090877, "yes": 7, "no": 8, "missing": 8, "children": [
        { "nodeid": 7, "depth": 3, "split": 5, "split_condition": 0.324310124, "yes": 15, "no": 16, "missing": 15, "children": [
          { "nodeid": 15, "leaf": 0.0389627628 },
          { "nodeid": 16, "leaf": 0.205427676 }
        ]},
        { "nodeid": 8, "depth": 3, "split": 0, "split_condition": 0.59930408, "yes": 17, "no": 18, "missing": 17, "children": [
          { "nodeid": 17, "leaf": 0.0893353373 },
          { "nodeid": 18, "leaf": -0.115626357 }
        ]}
      ]},
      { "nodeid": 4, "depth": 2, "split": 5, "split_condition": 0.410362422, "yes": 9, "no": 10, "missing": 10, "children": [
        { "nodeid": 9, "depth": 3, "split": 7, "split_condition": 0.432874441, "yes": 19, "no": 20, "missing": 20, "children": [
          { "nodeid": 19, "leaf": 0.0922470987 },
          { "nodeid": 20, "leaf": -0.170758516 }
        ]},
        { "nodeid": 10, "depth": 3, "split": 0, "split_condition": 0.858404756, "yes": 21, "no": 22, "missing": 22, "children": [
          { "nodeid": 21, "leaf": 0.137648165 },
          { "nodeid": 22, "leaf": -0.173775673 }
        ]}
      ]}
    ]},
    { "nodeid": 2, "depth": 1, "split": 0, "split_condition": 0.899089932, "yes": 5, "no": 6, "missing": 6, "children": [
      { "nodeid": 5, "depth": 2, "split": 1, "split_condition": 0.696969688, "yes": 11, "no": 12, "missing": 11, "children": [
        { "nodeid": 11, "depth": 3, "split": 0, "split_condition": 0.847162724, "yes": 23, "no": 24, "missing": 24, "children": [
          { "nodeid": 23, "leaf": 0.195634902 },
          { "nodeid": 24, "leaf": 0.0123787466 }
        ]},
        { "nodeid": 12, "depth": 3, "split": 0, "split_condition": 0.735278368, "yes": 25, "no": 26, "missing": 26, "children": [
          { "nodeid": 25, "leaf": 0.0875758305 },
          { "nodeid": 26, "leaf": -0.163973972 }
        ]}
      ]},
      { "nodeid": 6, "depth": 2, "split": 5, "split_condition": 0.585947931, "yes": 13, "no": 14, "missing": 14, "children": [
        { "nodeid": 13, "depth": 3, "split": 7, "split_condition": 0.419483215, "yes": 27, "no": 28, "missing": 28, "children": [
          { "nodeid": 27, "leaf": -0.0278540049 },
          { "nodeid": 28, "leaf": -0.207026318 }
        ]},
        { "nodeid": 14, "depth": 3, "split": 0, "split_condition": 0.922376871, "yes": 29, "no": 30, "missing": 30, "children": [
          { "nodeid": 29, "leaf": 0.345269322 },
          { "nodeid": 30, "leaf": -0.132255122 }
        ]}
      ]}
    ]}
  ]},
  { "nodeid": 0, "depth": 0, "split": 5, "split_condition": 0.340210378, "yes": 1, "no": 2, "missing": 1, "children": [
    { "nodeid": 1, "depth": 1, "split": 2, "split_condition": 0.34337008, "yes": 3, "no": 4, "missing": 3, "children": [
      { "nodeid": 3, "depth": 2, "split": 0, "split_condition": 0.781316876, "yes": 7, "no": 8, "missing": 7, "children": [
        { "nodeid": 7, "depth": 3, "split": 1, "split_condition": 0.280303031, "yes": 15, "no": 16, "missing": 16, "children": [
          { "nodeid": 15, "leaf": 0.0284185894 },
          { "nodeid": 16, "leaf": -0.0946383551 }
        ]},
        { "nodeid": 8, "depth": 3, "split": 2, "split_condition": 0.281154156, "yes": 17, "no": 18, "missing": 17, "children": [
          { "nodeid": 17, "leaf": -0.202886611 },
          { "nodeid": 18, "leaf": -0.105078474 }
        ]}
      ]},
      { "nodeid": 4, "depth": 2, "split": 0, "split_condition": 0.853051424, "yes": 9, "no": 10, "missing": 10, "children": [
        { "nodeid": 9, "depth": 3, "split": 1, "split_condition": 0.310606062, "yes": 19, "no": 20, "missing": 19, "children": [
          { "nodeid": 19, "leaf": 0.142410472 },
          { "nodeid": 20, "leaf": -0.00450468389 }
        ]},
        { "nodeid": 10, "depth": 3, "split": 2, "split_condition": 0.942086697, "yes": 21, "no": 22, "missing": 22, "children": [
          { "nodeid": 21, "leaf": -0.157055452 },
          { "nodeid": 22, "leaf": 0.145019919 }
        ]}
      ]}
    ]},
    { "nodeid": 2, "depth": 1, "split": 0, "split_condition": 0.858940005, "yes": 5, "no": 6, "missing": 6, "children": [
      { "nodeid": 5, "depth": 2, "split": 5, "split_condition": 0.461126566, "yes": 11, "no": 12, "missing": 12, "children": [
        { "nodeid": 11, "depth": 3, "split": 3, "split_condition": 0.435861707, "yes": 23, "no": 24, "missing": 23, "children": [
          { "nodeid": 23, "leaf": 0.0190678984 },
          { "nodeid": 24, "leaf": 0.156862512 }
        ]},
        { "nodeid": 12, "depth": 3, "split": 3, "split_condition": 0.240956441, "yes": 25, "no": 26, "missing": 25, "children": [
          { "nodeid": 25, "leaf": 0.062371999 },
          { "nodeid": 26, "leaf": 0.224141642 }
        ]}
      ]},
      { "nodeid": 6, "depth": 2, "split": 4, "split_condition": 0.53316927, "yes": 13, "no": 14, "missing": 13, "children": [
        { "nodeid": 13, "depth": 3, "split": 0, "split_condition": 0.93228054, "yes": 27, "no": 28, "missing": 28, "children": [
          { "nodeid": 27, "leaf": 0.159923702 },
          { "nodeid": 28, "leaf": -0.163883016 }
        ]},
        { "nodeid": 14, "depth": 3, "split": 7, "split_condition": 0.0944491625, "yes": 29, "no": 30, "missing": 29, "children": [
          { "nodeid": 29, "leaf": 0.0931300148 },
          { "nodeid": 30, "leaf": -0.178376198 }
        ]}
      ]}
    ]}
  ]},
  { "nodeid": 0, "depth": 0, "split": 6, "split_condition": 0.394740224, "yes": 1, "no": 2, "missing": 1, "children": [
    { "nodeid": 1, "depth": 1, "split": 0, "split_condition": 0.743843675, "yes": 3, "no": 4, "missing": 3, "children": [
      { "nodeid": 3, "depth": 2, "split": 1, "split_condition": 0.780303001, "yes": 7, "no": 8, "missing": 8, "children": [
        { "nodeid": 7, "depth": 3, "split": 3, "split_condition": 0.311203212, "yes": 15, "no": 16, "missing": 15, "children": [
          { "nodeid": 15, "leaf": -0.0072319 },
          { "nodeid": 16, "leaf": 0.100315474 }
        ]},
        { "nodeid": 8, "depth": 3, "split": 0, "split_condition": 0.582173467, "yes": 17, "no": 18, "missing": 17, "children": [
          { "nodeid": 17, "leaf": 0.107935488 },
          { "nodeid": 18, "leaf": -0.143082246 }
        ]}
      ]},
      { "nodeid": 4, "depth": 2, "split": 4, "split_condition": 0.687095523, "yes": 9, "no": 10, "missing": 9, "children": [
        { "nodeid": 9, "depth": 3, "split": 1, "split_condition": 0.606060624, "yes": 19, "no": 20, "missing": 19, "children": [
          { "nodeid": 19, "leaf": -0.0216853805 },
          { "nodeid": 20, "leaf": -0.198776007 }
        ]},
        { "nodeid": 10, "depth": 3, "split": 5, "split_condition": 0.308599889, "yes": 21, "no": 22, "missing": 22, "children": [
          { "nodeid": 21, "leaf": -0.24950555 },
          { "nodeid": 22, "leaf": -0.0988407061 }
        ]}
      ]}
    ]},
    { "nodeid": 2, "depth": 1, "split": 0, "split_condition": 0.835920811, "yes": 5, "no": 6, "missing": 6, "children": [
      { "nodeid": 5, "depth": 2, "split": 7, "split_condition": 0.393780917, "yes": 11, "no": 12, "missing": 11, "children": [
        { "nodeid": 11, "depth": 3, "split": 2, "split_condition": 0.161728799, "yes": 23, "no": 24, "missing": 24, "children": [
          { "nodeid": 23, "leaf": 0.0935982838 },
          { "nodeid": 24, "leaf": 0.281104803 }
        ]},
        { "nodeid": 12, "depth": 3, "split": 4, "split_condition": 0.50088191, "yes": 25, "no": 26, "missing": 25, "children": [
          { "nodeid": 25, "leaf": 0.200830415 },
          { "nodeid": 26, "leaf": 0.0443945378 }
        ]}
      ]},
      { "nodeid": 6, "depth": 2, "split": 2, "split_condition": 0.490959823, "yes": 13, "no": 14, "missing": 13, "children": [
        { "nodeid": 13, "depth": 3, "split": 5, "split_condition": 0.603791356, "yes": 27, "no": 28, "missing": 28, "children": [
          { "nodeid": 27, "leaf": -0.18466109 },
          { "nodeid": 28, "leaf": 0.0143140526 }
        ]},
        { "nodeid": 14, "depth": 3, "split": 0, "split_condition": 0.904443264, "yes": 29, "no": 30, "missing": 30, "children": [
          { "nodeid": 29, "leaf": 0.222441465 },
          { "nodeid": 30, "leaf": -0.0911959782 }
        ]}
      ]}
    ]}
  ]},
  { "nodeid": 0, "depth": 0, "split": 5, "split_condition": 0.279516071, "yes": 1, "no": 2, "missing": 1, "children": [
    { "nodeid": 1, "depth": 1, "split": 0, "split_condition": 0.585385442, "yes": 3, "no": 4, "missing": 3, "children": [
      { "nodeid": 3, "depth": 2, "split": 2, "split_condition": 0.278219283, "yes": 7, "no": 8, "missing": 8, "children": [
        { "nodeid": 7, "depth": 3, "split": 0, "split_condition": 0.523286939, "yes": 15, "no": 16, "missing": 15, "children": [
          { "nodeid": 15, "leaf": 0.0797503665 },
          { "nodeid": 16, "leaf": -0.101970017 }
        ]},
        { "nodeid": 8, "depth": 3, "split": 3, "split_condition": 0.106812909, "yes": 17, "no": 18, "missing": 18, "children": [
          { "nodeid": 17, "leaf": 0.1134248 },
          { "nodeid": 18, "leaf": 0.212249503 }
        ]}
      ]},
      { "nodeid": 4, "depth": 2, "split": 1, "split_condition": 0.75, "yes": 9, "no": 10, "missing": 9, "children": [
        { "nodeid": 9, "depth": 3, "split": 0, "split_condition": 0.750267625, "yes": 19, "no": 20, "missing": 20, "children": [
          { "nodeid": 19, "leaf": 0.0544124618 },
          { "nodeid": 20, "leaf": -0.0964420661 }
        ]},
        { "nodeid": 10, "depth": 3, "split": 2, "split_condition": 0.35927707, "yes": 21, "no": 22, "missing": 22, "children": [
          { "nodeid": 21, "leaf": -0.193008989 },
          { "nodeid": 22, "leaf": -0.0639673918 }
        ]}
      ]}
    ]},
    { "nodeid": 2, "depth": 1, "split": 0, "split_condition": 0.835920811, "yes": 5, "no": 6, "missing": 6, "children": [
      { "nodeid": 5, "depth": 2, "split": 1, "split_condition": 0.765151501, "yes": 11, "no": 12, "missing": 11, "children": [
        { "nodeid": 11, "depth": 3, "split": 3, "split_condition": 0.335437208, "yes": 23, "no": 24, "missing": 24, "children": [
          { "nodeid": 23, "leaf": 0.0317304544 },
          { "nodeid": 24, "leaf": 0.135678798 }
        ]},
        { "nodeid": 12, "depth": 3, "split": 0, "split_condition": 0.693522453, "yes": 25, "no": 26, "missing": 26, "children": [
          { "nodeid": 25, "leaf": 0.0488111638 },
          { "nodeid": 26, "leaf": -0.14122276 }
        ]}
      ]},
      { "nodeid": 6, "depth": 2, "split": 4, "split_condition": 0.559671342, "yes": 13, "no": 14, "missing": 13, "children": [
        { "nodeid": 13, "depth": 3, "split": 0, "split_condition": 0.922109246, "yes": 27, "no": 28, "missing": 28, "children": [
          { "nodeid": 27, "leaf": 0.0755872726 },
          { "nodeid": 28, "leaf": -0.138885438 }
        ]},
        { "nodeid": 14, "depth": 3, "split": 5, "split_condition": 0.603791356, "yes": 29, "no": 30, "missing": 30, "children": [
          { "nodeid": 29, "leaf": -0.189017996 },
          { "nodeid": 30, "leaf": -0.0297896955 }
        ]}
      ]}
    ]}
  ]},
  { "nodeid": 0, "depth": 0, "split": 3, "split_condition": 0.39230895, "yes": 1, "no": 2, "missing": 1, "children": [
    { "nodeid": 1, "depth": 1, "split": 0, "split_condition": 0.729925036, "yes": 3, "no": 4, "missing": 3, "children": [
      { "nodeid": 3, "depth": 2, "split": 6, "split_condition": 0.397923231, "yes": 7, "no": 8, "missing": 7, "children": [
        { "nodeid": 7, "depth": 3, "split": 1, "split_condition": 0.734848499, "yes": 15, "no": 16, "missing": 16, "children": [
          { "nodeid": 15, "leaf": 0.0912359804 },
          { "nodeid": 16, "leaf": -0.0545190684 }
        ]},
        { "nodeid": 8, "depth": 3, "split": 3, "split_condition": 0.153868541, "yes": 17, "no": 18, "missing": 17, "children": [
          { "nodeid": 17, "leaf": 0.015878791 },
          { "nodeid": 18, "leaf": 0.178799257 }
        ]}
      ]},
      { "nodeid": 4, "depth": 2, "split": 7, "split_condition": 0.731805384, "yes": 9, "no": 10, "missing": 9, "children": [
        { "nodeid": 9, "depth": 3, "split": 1, "split_condition": 0.674242437, "yes": 19, "no": 20, "missing": 19, "children": [
          { "nodeid": 19, "leaf": -0.0226565208 },
          { "nodeid": 20, "leaf": -0.204350397 }
        ]},
        { "nodeid": 10, "depth": 3, "split": 4, "split_condition": 0.731805384, "yes": 21, "no": 22, "missing": 22, "children": [
          { "nodeid": 21, "leaf": -0.122839592 },
          { "nodeid": 22, "leaf": -0.256813198 }
        ]}
      ]}
    ]},
    { "nodeid": 2, "depth": 1, "split": 0, "split_condition": 0.870182037, "yes": 5, "no": 6, "missing": 6, "children": [
      { "nodeid": 5, "depth": 2, "split": 1, "split_condition": 0.113636367, "yes": 11, "no": 12, "missing": 11, "children": [
        { "nodeid": 11, "depth": 3, "split": 5, "split_condition": 0.207703218, "yes": 23, "no": 24, "missing": 24, "children": [
          { "nodeid": 23, "leaf": 0.0800078735 },
          { "nodeid": 24, "leaf": 0.241365001 }
        ]},
        { "nodeid": 12, "depth": 3, "split": 0, "split_condition": 0.811830878, "yes": 25, "no": 26, "missing": 26, "children": [
          { "nodeid": 25, "leaf": 0.0609918609 },
          { "nodeid": 26, "leaf": -0.0734349713 }
        ]}
      ]},
      { "nodeid": 6, "depth": 2, "split": 5, "split_condition": 0.585947931, "yes": 13, "no": 14, "missing": 14, "children": [
        { "nodeid": 13, "depth": 3, "split": 2, "split_condition": 0.942086697, "yes": 27, "no": 28, "missing": 28, "children": [
          { "nodeid": 27, "leaf": -0.149653554 },
          { "nodeid": 28, "leaf": 0.128578946 }
        ]},
        { "nodeid": 14, "depth": 3, "split": 0, "split_condition": 0.948875785, "yes": 29, "no": 30, "missing": 30, "children": [
          { "nodeid": 29, "leaf": 0.142380372 },
          { "nodeid": 30, "leaf": -0.174845561 }
        ]}
      ]}
    ]}
  ]},
  { "nodeid": 0, "depth": 0, "split": 2, "split_condition": 0.412245393, "yes": 1, "no": 2, "missing": 1, "children": [
    { "nodeid": 1, "depth": 1, "split": 0, "split_condition": 0.800053537, "yes": 3, "no": 4, "missing": 3, "children": [
      { "nodeid": 3, "depth": 2, "split": 1, "split_condition": 0.143939406, "yes": 7, "no": 8, "missing": 7, "children": [
        { "nodeid": 7, "depth": 3, "split": 2, "split_condition": 0.177914143, "yes": 15, "no": 16, "missing": 15, "children": [
          { "nodeid": 15, "leaf": -0.0413541012 },
          { "nodeid": 16, "leaf": 0.110818066 }
        ]},
        { "nodeid": 8, "depth": 3, "split": 0, "split_condition": 0.636777282, "yes": 17, "no": 18, "missing": 17, "children": [
          { "nodeid": 17, "leaf": 0.060060937 },
          { "nodeid": 18, "leaf": -0.0831723586 }
        ]}
      ]},
      { "nodeid": 4, "depth": 2, "split": 5, "split_condition": 0.455469608, "yes": 9, "no": 10, "missing": 10, "children": [
        { "nodeid": 9, "depth": 3, "split": 6, "split_condition": 0.595120549, "yes": 19, "no": 20, "missing": 20, "children": [
          { "nodeid": 19, "leaf": -0.183247238 },
          { "nodeid": 20, "leaf": -0.00340186432 }
        ]},
        { "nodeid": 10, "depth": 3, "split": 0, "split_condition": 0.877141356, "yes": 21, "no": 22, "missing": 22, "children": [
          { "nodeid": 21, "leaf": 0.128815636 },
          { "nodeid": 22, "leaf": -0.171866119 }
        ]}
      ]}
    ]},
    { "nodeid": 2, "depth": 1, "split": 0, "split_condition": 0.902301908, "yes": 5, "no": 6, "missing": 6, "children": [
      { "nodeid": 5, "depth": 2, "split": 1, "split_condition": 0.212121218, "yes": 11, "no": 12, "missing": 11, "children": [
        { "nodeid": 11, "depth": 3, "split": 0, "split_condition": 0.853586733, "yes": 23, "no": 24, "missing": 24, "children": [
          { "nodeid": 23, "leaf": 0.22017698 },
          { "nodeid": 24, "leaf": 0.0487215742 }
        ]},
        { "nodeid": 12, "depth": 3, "split": 0, "split_condition": 0.780781627, "yes": 25, "no": 26, "missing": 26, "children": [
          { "nodeid": 25, "leaf": 0.119944774 },
          { "nodeid": 26, "leaf": -0.141332015 }
        ]}
      ]},
      { "nodeid": 6, "depth": 2, "split": 5, "split_condition": 0.455469608, "yes": 13, "no": 14, "missing": 14, "children": [
        { "nodeid": 13, "depth": 3, "split": 6, "split_condition": 0.696944594, "yes": 27, "no": 28, "missing": 28, "children": [
          { "nodeid": 27, "leaf": -0.202442527 },
          { "nodeid": 28, "leaf": 0.0636445805 }
        ]},
        { "nodeid": 14, "depth": 3, "split": 0, "split_condition": 0.948875785, "yes": 29, "no": 30, "missing": 30, "children": [
          { "nodeid": 29, "leaf": 0.160046622 },
          { "nodeid": 30, "leaf": -0.164638549 }
        ]}
      ]}
    ]}
  ]},
  { "nodeid": 0, "depth": 0, "split": 6, "split_condition": 0.297981739, "yes": 1, "no": 2, "missing": 1, "children": [
    { "nodeid": 1, "depth": 1, "split": 3, "split_condition": 0.297981739, "yes": 3, "no": 4, "missing": 3, "children": [
      { "nodeid": 3, "depth": 2, "split": 0, "split_condition": 0.725107074, "yes": 7, "no": 8, "missing": 7, "children": [
        { "nodeid": 7, "depth": 3, "split": 1, "split_condition": 0.310606062, "yes": 15, "no": 16, "missing": 16, "children": [
          { "nodeid": 15, "leaf": 0.0870437846 },
          { "nodeid": 16, "leaf": -0.148507595 }
        ]},
        { "nodeid": 8, "depth": 3, "split": 5, "split_condition": 0.239814252, "yes": 17, "no": 18, "missing": 18, "children": [
          { "nodeid": 17, "leaf": -0.294349343 },
          { "nodeid": 18, "leaf": -0.151506826 }
        ]}
      ]},
      { "nodeid": 4, "depth": 2, "split": 0, "split_condition": 0.640524626, "yes": 9, "no": 10, "missing": 10, "children": [
        { "nodeid": 9, "depth": 3, "split": 7, "split_condition": 0.912965178, "yes": 19, "no": 20, "missing": 20, "children": [
          { "nodeid": 19, "leaf": 0.17795448 },
          { "nodeid": 20, "leaf": -0.0712593049 }
        ]},
        { "nodeid": 10, "depth": 3, "split": 5, "split_condition": 0.237984791, "yes": 21, "no": 22, "missing": 22, "children": [
          { "nodeid": 21, "leaf": -0.130334213 },
          { "nodeid": 22, "leaf": -0.0139497584 }
        ]}
      ]}
    ]},
    { "nodeid": 2, "depth": 1, "split": 0, "split_condition": 0.818254828, "yes": 5, "no": 6, "missing": 6, "children": [
      { "nodeid": 5, "depth": 2, "split": 1, "split_condition": 0.780303001, "yes": 11, "no": 12, "missing": 11, "children": [
        { "nodeid": 11, "depth": 3, "split": 2, "split_condition": 0.308599889, "yes": 23, "no": 24, "missing": 23, "children": [
          { "nodeid": 23, "leaf": 0.0294777211 },
          { "nodeid": 24, "leaf": 0.115888916 }
        ]},
        { "nodeid": 12, "depth": 3, "split": 0, "split_condition": 0.712259054, "yes": 25, "no": 26, "missing": 26, "children": [
          { "nodeid": 25, "leaf": 0.0116501264 },
          { "nodeid": 26, "leaf": -0.190927491 }
        ]}
      ]},
      { "nodeid": 6, "depth": 2, "split": 2, "split_condition": 0.535907745, "yes": 13, "no": 14, "missing": 13, "children": [
        { "nodeid": 13, "depth": 3, "split": 5, "split_condition": 0.455469608, "yes": 27, "no": 28, "missing": 28, "children": [
          { "nodeid": 27, "leaf": -0.173960239 },
          { "nodeid": 28, "leaf": 0.016044952 }
        ]},
        { "nodeid": 14, "depth": 3, "split": 0, "split_condition": 0.90069592, "yes": 29, "no": 30, "missing": 30, "children": [
          { "nodeid": 29, "leaf": 0.156046525 },
          { "nodeid": 30, "leaf": -0.0573235825 }
        ]}
      ]}
    ]}
  ]},
  { "nodeid": 0, "depth": 0, "split": 5, "split_condition": 0.371804833, "yes": 1, "no": 2, "missing": 1, "children": [
    { "nodeid": 1, "depth": 1, "split": 0, "split_condition": 0.606798708, "yes": 3, "no": 4, "missing": 3, "children": [
      { "nodeid": 3, "depth": 2, "split": 1, "split_condition": 0.810606062, "yes": 7, "no": 8, "missing": 8, "children": [
        { "nodeid": 7, "depth": 3, "split": 2, "split_condition": 0.367814004, "yes": 15, "no": 16, "missing": 16, "children": [
          { "nodeid": 15, "leaf": 0.0736868083 },
          { "nodeid": 16, "leaf": 0.199320287 }
        ]},
        { "nodeid": 8, "depth": 3, "split": 0, "split_condition": 0.477248371, "yes": 17, "no": 18, "missing": 17, "children": [
          { "nodeid": 17, "leaf": 0.10148295 },
          { "nodeid": 18, "leaf": -0.138556778 }
        ]}
      ]},
      { "nodeid": 4, "depth": 2, "split": 1, "split_condition": 0.765151501, "yes": 9, "no": 10, "missing": 9, "children": [
        { "nodeid": 9, "depth": 3, "split": 0, "split_condition": 0.762044966, "yes": 19, "no": 20, "missing": 20, "children": [
          { "nodeid": 19, "leaf": 0.0385548249 },
          { "nodeid": 20, "leaf": -0.056681063 }
        ]},
        { "nodeid": 10, "depth": 3, "split": 2, "split_condition": 0.35712105, "yes": 21, "no": 22, "missing": 22, "children": [
          { "nodeid": 21, "leaf": -0.15623793 },
          { "nodeid": 22, "leaf": -0.027745286 }
        ]}
      ]}
    ]},
    { "nodeid": 2, "depth": 1, "split": 0, "split_condition": 0.851445436, "yes": 5, "no": 6, "missing": 6, "children": [
      { "nodeid": 5, "depth": 2, "split": 3, "split_condition": 0.272084266, "yes": 11, "no": 12, "missing": 11, "children": [
        { "nodeid": 11, "depth": 3, "split": 0, "split_condition": 0.661134899, "yes": 23, "no": 24, "missing": 24, "children": [
          { "nodeid": 23, "leaf": 0.154606983 },
          { "nodeid": 24, "leaf": -0.038525112 }
        ]},
        { "nodeid": 12, "depth": 3, "split": 1, "split_condition": 0.265151501, "yes": 25, "no": 26, "missing": 25, "children": [
          { "nodeid": 25, "leaf": 0.15650712 },
          { "nodeid": 26, "leaf": 0.0692619905 }
        ]}
      ]},
      { "nodeid": 6, "depth": 2, "split": 2, "split_condition": 0.282528579, "yes": 13, "no": 14, "missing": 13, "children": [
        { "nodeid": 13, "depth": 3, "split": 3, "split_condition": 0.432154059, "yes": 27, "no": 28, "missing": 28, "children": [
          { "nodeid": 27, "leaf": -0.199535951 },
          { "nodeid": 28, "leaf": -0.0312913284 }
        ]},
        { "nodeid": 14, "depth": 3, "split": 0, "split_condition": 0.922109246, "yes": 29, "no": 30, "missing": 30, "children": [
          { "nodeid": 29, "leaf": 0.0928728133 },
          { "nodeid": 30, "leaf": -0.103018478 }
        ]}
      ]}
    ]}
  ]},
  { "nodeid": 0, "depth": 0, "split": 5, "split_condition": 0.195560873, "yes": 1, "no": 2, "missing": 1, "children": [
    { "nodeid": 1, "depth": 1, "split": 0, "split_condition": 0.549785852, "yes": 3, "no": 4, "missing": 3, "children": [
      { "nodeid": 3, "depth": 2, "split": 2, "split_condition": 0.203076735, "yes": 7, "no": 8, "missing": 8, "children": [
        { "nodeid": 7, "depth": 3, "split": 0, "split_condition": 0.293897212, "yes": 15, "no": 16, "missing": 15, "children": [
          { "nodeid": 15, "leaf": 0.143244803 },
          { "nodeid": 16, "leaf": -0.248839021 }
        ]},
        { "nodeid": 8, "leaf": 0.213019729 }
      ]},
      { "nodeid": 4, "depth": 2, "split": 1, "split_condition": 0.439393938, "yes": 9, "no": 10, "missing": 9, "children": [
        { "nodeid": 9, "depth": 3, "split": 0, "split_condition": 0.719218373, "yes": 17, "no": 18, "missing": 18, "children": [
          { "nodeid": 17, "leaf": 0.085151501 },
          { "nodeid": 18, "leaf": -0.114850655 }
        ]},
        { "nodeid": 10, "depth": 3, "split": 5, "split_condition": 0.177167371, "yes": 19, "no": 20, "missing": 20, "children": [
          { "nodeid": 19, "leaf": -0.281508744 },
          { "nodeid": 20, "leaf": -0.152072713 }
        ]}
      ]}
    ]},
    { "nodeid": 2, "depth": 1, "split": 3, "split_condition": 0.442749143, "yes": 5, "no": 6, "missing": 5, "children": [
      { "nodeid": 5, "depth": 2, "split": 0, "split_condition": 0.789346933, "yes": 11, "no": 12, "missing": 12, "children": [
        { "nodeid": 11, "depth": 3, "split": 6, "split_condition": 0.394740224, "yes": 21, "no": 22, "missing": 22, "children": [
          { "nodeid": 21, "leaf": -0.0135080842 },
          { "nodeid": 22, "leaf": 0.0764280558 }
        ]},
        { "nodeid": 12, "depth": 3, "split": 5, "split_condition": 0.459794968, "yes": 23, "no": 24, "missing": 24, "children": [
          { "nodeid": 23, "leaf": -0.13615492 },
          { "nodeid": 24, "leaf": 0.0127119068 }
        ]}
      ]},
      { "nodeid": 6, "depth": 2, "split": 0, "split_condition": 0.898019314, "yes": 13, "no": 14, "missing": 14, "children": [
        { "nodeid": 13, "depth": 3, "split": 1, "split_condition": 0.204545468, "yes": 25, "no": 26, "missing": 25, "children": [
          { "nodeid": 25, "leaf": 0.123964369 },
          { "nodeid": 26, "leaf": 0.0161091331 }
        ]},
        { "nodeid": 14, "depth": 3, "split": 5, "split_condition": 0.455469608, "yes": 27, "no": 28, "missing": 28, "children": [
          { "nodeid": 27, "leaf": -0.176722601 },
          { "nodeid": 28, "leaf": -0.0141959405 }
        ]}
      ]}
    ]}
  ]},
  { "nodeid": 0, "depth": 0, "split": 3, "split_condition": 0.713684976, "yes": 1, "no": 2, "missing": 1, "children": [
    { "nodeid": 1, "depth": 1, "split": 0, "split_condition": 0.816648841, "yes": 3, "no": 4, "missing": 3, "children": [
      { "nodeid": 3, "depth": 2, "split": 1, "split_condition": 0.204545468, "yes": 7, "no": 8, "missing": 7, "children": [
        { "nodeid": 7, "depth": 3, "split": 2, "split_condition": 0.217055216, "yes": 15, "no": 16, "missing": 15, "children": [
          { "nodeid": 15, "leaf": -0.023655314 },
          { "nodeid": 16, "leaf": 0.0937791914 }
        ]},
        { "nodeid": 8, "depth": 3, "split": 0, "split_condition": 0.699946463, "yes": 17, "no": 18, "missing": 17, "children": [
          { "nodeid": 17, "leaf": 0.0210822131 },
          { "nodeid": 18, "leaf": -0.135587215 }
        ]}
      ]},
      { "nodeid": 4, "depth": 2, "split": 5, "split_condition": 0.585203826, "yes": 9, "no": 10, "missing": 10, "children": [
        { "nodeid": 9, "depth": 3, "split": 2, "split_condition": 0.604076445, "yes": 19, "no": 20, "missing": 19, "children": [
          { "nodeid": 19, "leaf": -0.157154769 },
          { "nodeid": 20, "leaf": 0.066281803 }
        ]},
        { "nodeid": 10, "depth": 3, "split": 0, "split_condition": 0.902301908, "yes": 21, "no": 22, "missing": 22, "children": [
          { "nodeid": 21, "leaf": 0.105076335 },
          { "nodeid": 22, "leaf": -0.157207444 }
        ]}
      ]}
    ]},
    { "nodeid": 2, "depth": 1, "split": 0, "split_condition": 0.743308306, "yes": 5, "no": 6, "missing": 6, "children": [
      { "nodeid": 5, "depth": 2, "split": 3, "split_condition": 0.851700902, "yes": 11, "no": 12, "missing": 12, "children": [
        { "nodeid": 11, "depth": 3, "split": 6, "split_condition": 0.197734788, "yes": 23, "no": 24, "missing": 24, "children": [
          { "nodeid": 23, "leaf": 0.0246508345 },
          { "nodeid": 24, "leaf": 0.243123099 }
        ]},
        { "nodeid": 12, "depth": 3, "split": 1, "split_condition": 0.840909123, "yes": 25, "no": 26, "missing": 26, "children": [
          { "nodeid": 25, "leaf": 0.552555263 },
          { "nodeid": 26, "leaf": 0.0297027528 }
        ]}
      ]},
      { "nodeid": 6, "depth": 2, "split": 1, "split_condition": 0.280303031, "yes": 13, "no": 14, "missing": 13, "children": [
        { "nodeid": 13, "depth": 3, "split": 0, "split_condition": 0.855192721, "yes": 27, "no": 28, "missing": 28, "children": [
          { "nodeid": 27, "leaf": 0.25726527 },
          { "nodeid": 28, "leaf": 0.0238244068 }
        ]},
        { "nodeid": 14, "depth": 3, "split": 0, "split_condition": 0.786134899, "yes": 29, "no": 30, "missing": 30, "children": [
          { "nodeid": 29, "leaf": 0.0561851561 },
          { "nodeid": 30, "leaf": -0.194831356 }
        ]}
      ]}
    ]}
  ]},
  { "nodeid": 0, "depth": 0, "split": 6, "split_condition": 0.323500156, "yes": 1, "no": 2, "missing": 1, "children": [
    { "nodeid": 1, "depth": 1, "split": 0, "split_condition": 0.73367238, "yes": 3, "no": 4, "missing": 3, "children": [
      { "nodeid": 3, "depth": 2, "split": 1, "split_condition": 0.310606062, "yes": 7, "no": 8, "missing": 8, "children": [
        { "nodeid": 7, "depth": 3, "split": 3, "split_condition": 0.322634816, "yes": 15, "no": 16, "missing": 16, "children": [
          { "nodeid": 15, "leaf": 0.0496684127 },
          { "nodeid": 16, "leaf": 0.16450882 }
        ]},
        { "nodeid": 8, "depth": 3, "split": 0, "split_condition": 0.66354394, "yes": 17, "no": 18, "missing": 17, "children": [
          { "nodeid": 17, "leaf": 0.00720095495 },
          { "nodeid": 18, "leaf": -0.127977714 }
        ]}
      ]},
      { "nodeid": 4, "depth": 2, "split": 4, "split_condition": 0.692855656, "yes": 9, "no": 10, "missing": 9, "children": [
        { "nodeid": 9, "depth": 3, "split": 1, "split_condition": 0.606060624, "yes": 19, "no": 20, "missing": 19, "children": [
          { "nodeid": 19, "leaf": -0.0289739948 },
          { "nodeid": 20, "leaf": -0.185150549 }
        ]},
        { "nodeid": 10, "depth": 3, "split": 7, "split_condition": 0.648550153, "yes": 21, "no": 22, "missing": 22, "children": [
          { "nodeid": 21, "leaf": 0.0372371338 },
          { "nodeid": 22, "leaf": -0.200565845 }
        ]}
      ]}
    ]},
    { "nodeid": 2, "depth": 1, "split": 2, "split_condition": 0.281154156, "yes": 5, "no": 6, "missing": 5, "children": [
      { "nodeid": 5, "depth": 2, "split": 0, "split_condition": 0.764186263, "yes": 11, "no": 12, "missing": 12, "children": [
        { "nodeid": 11, "depth": 3, "split": 5, "split_condition": 0.281154156, "yes": 23, "no": 24, "missing": 23, "children": [
          { "nodeid": 23, "leaf": -0.0189207718 },
          { "nodeid": 24, "leaf": 0.0819553733 }
        ]},
        { "nodeid": 12, "depth": 3, "split": 5, "split_condition": 0.284186721, "yes": 25, "no": 26, "missing": 26, "children": [
          { "nodeid": 25, "leaf": -0.150634736 },
          { "nodeid": 26, "leaf": -0.0287920963 }
        ]}
      ]},
      { "nodeid": 6, "depth": 2, "split": 6, "split_condition": 0.463200331, "yes": 13, "no": 14, "missing": 14, "children": [
        { "nodeid": 13, "depth": 3, "split": 0, "split_condition": 0.808083534, "yes": 27, "no": 28, "missing": 28, "children": [
          { "nodeid": 27, "leaf": 0.0526716411 },
          { "nodeid": 28, "leaf": -0.0434806719 }
        ]},
        { "nodeid": 14, "depth": 3, "split": 0, "split_condition": 0.935492516, "yes": 29, "no": 30, "missing": 30, "children": [
          { "nodeid": 29, "leaf": 0.136634693 },
          { "nodeid": 30, "leaf": -0.131654307 }
        ]}
      ]}
    ]}
  ]},
  { "nodeid": 0, "depth": 0, "split": 5, "split_condition": 0.245661259, "yes": 1, "no": 2, "missing": 1, "children": [
    { "nodeid": 1, "depth": 1, "split": 2, "split_condition": 0.245661259, "yes": 3, "no": 4, "missing": 3, "children": [
      { "nodeid": 3, "depth": 2, "split": 0, "split_condition": 0.725107074, "yes": 7, "no": 8, "missing": 7, "children": [
        { "nodeid": 7, "depth": 3, "split": 1, "split_condition": 0.280303031, "yes": 15, "no": 16, "missing": 16, "children": [
          { "nodeid": 15, "leaf": 0.037876375 },
          { "nodeid": 16, "leaf": -0.179481149 }
        ]},
        { "nodeid": 8, "depth": 3, "split": 3, "split_condition": 0.282773733, "yes": 17, "no": 18, "missing": 18, "children": [
          { "nodeid": 17, "leaf": -0.275122464 },
          { "nodeid": 18, "leaf": -0.145967886 }
        ]}
      ]},
      { "nodeid": 4, "depth": 2, "split": 0, "split_condition": 0.582708776, "yes": 9, "no": 10, "missing": 10, "children": [
        { "nodeid": 9, "depth": 3, "split": 3, "split_condition": 0.0838185102, "yes": 19, "no": 20, "missing": 20, "children": [
          { "nodeid": 19, "leaf": 0.0179689489 },
          { "nodeid": 20, "leaf": 0.189798728 }
        ]},
        { "nodeid": 10, "depth": 3, "split": 1, "split_condition": 0.696969688, "yes": 21, "no": 22, "missing": 21, "children": [
          { "nodeid": 21, "leaf": 0.014894302 },
          { "nodeid": 22, "leaf": -0.131761983 }
        ]}
      ]}
    ]},
    { "nodeid": 2, "depth": 1, "split": 3, "split_condition": 0.353418767, "yes": 5, "no": 6, "missing": 5, "children": [
      { "nodeid": 5, "depth": 2, "split": 0, "split_condition": 0.627141356, "yes": 11, "no": 12, "missing": 12, "children": [
        { "nodeid": 11, "depth": 3, "split": 6, "split_condition": 0.32475096, "yes": 23, "no": 24, "missing": 24, "children": [
          { "nodeid": 23, "leaf": -0.0151609927 },
          { "nodeid": 24, "leaf": 0.144643649 }
        ]},
        { "nodeid": 12, "depth": 3, "split": 1, "split_condition": 0.75, "yes": 25, "no": 26, "missing": 25, "children": [
          { "nodeid": 25, "leaf": 0.000310193835 },
          { "nodeid": 26, "leaf": -0.131099239 }
        ]}
      ]},
      { "nodeid": 6, "depth": 2, "split": 0, "split_condition": 0.886241972, "yes": 13, "no": 14, "missing": 14, "children": [
        { "nodeid": 13, "depth": 3, "split": 1, "split_condition": 0.128787875, "yes": 27, "no": 28, "missing": 27, "children": [
          { "nodeid": 27, "leaf": 0.120145701 },
          { "nodeid": 28, "leaf": 0.0314409249 }
        ]},
        { "nodeid": 14, "depth": 3, "split": 4, "split_condition": 0.464462698, "yes": 29, "no": 30, "missing": 29, "children": [
          { "nodeid": 29, "leaf": -0.00413244078 },
          { "nodeid": 30, "leaf": -0.170971349 }
        ]}
      ]}
    ]}
  ]},
  { "nodeid": 0, "depth": 0, "split": 6, "split_condition": 0.252279282, "yes": 1, "no": 2, "missing": 1, "children": [
    { "nodeid": 1, "depth": 1, "split": 3, "split_condition": 0.252279282, "yes": 3, "no": 4, "missing": 3, "children": [
      { "nodeid": 3, "depth": 2, "split": 0, "split_condition": 0.470556736, "yes": 7, "no": 8, "missing": 7, "children": [
        { "nodeid": 7, "depth": 3, "split": 3, "split_condition": 0.110693291, "yes": 15, "no": 16, "missing": 16, "children": [
          { "nodeid": 15, "leaf": -0.10535299 },
          { "nodeid": 16, "leaf": 0.140469477 }
        ]},
        { "nodeid": 8, "depth": 3, "split": 1, "split_condition": 0.780303001, "yes": 17, "no": 18, "missing": 18, "children": [
          { "nodeid": 17, "leaf": -0.137924597 },
          { "nodeid": 18, "leaf": -0.272662491 }
        ]}
      ]},
      { "nodeid": 4, "depth": 2, "split": 0, "split_condition": 0.595556736, "yes": 9, "no": 10, "missing": 10, "children": [
        { "nodeid": 9, "depth": 3, "split": 5, "split_condition": 0.205938011, "yes": 19, "no": 20, "missing": 20, "children": [
          { "nodeid": 19, "leaf": 0.094067812 },
          { "nodeid": 20, "leaf": 0.220641896 }
        ]},
        { "nodeid": 10, "depth": 3, "split": 6, "split_condition": 0.124159463, "yes": 21, "no": 22, "missing": 22, "children": [
          { "nodeid": 21, "leaf": -0.158270001 },
          { "nodeid": 22, "leaf": -0.0259881355 }
        ]}
      ]}
    ]},
    { "nodeid": 2, "depth": 1, "split": 2, "split_condition": 0.35927707, "yes": 5, "no": 6, "missing": 5, "children": [
      { "nodeid": 5, "depth": 2, "split": 0, "split_condition": 0.811295509, "yes": 11, "no": 12, "missing": 12, "children": [
        { "nodeid": 11, "depth": 3, "split": 5, "split_condition": 0.356260538, "yes": 23, "no": 24, "missing": 23, "children": [
          { "nodeid": 23, "leaf": -0.0113770533 },
          { "nodeid": 24, "leaf": 0.102930985 }
        ]},
        { "nodeid": 12, "depth": 3, "split": 5, "split_condition": 0.459794968, "yes": 25, "no": 26, "missing": 26, "children": [
          { "nodeid": 25, "leaf": -0.178706244 },
          { "nodeid": 26, "leaf": -0.00412211521 }
        ]}
      ]},
      { "nodeid": 6, "depth": 2, "split": 0, "split_condition": 0.86215204, "yes": 13, "no": 14, "missing": 14, "children": [
        { "nodeid": 13, "depth": 3, "split": 1, "split_condition": 0.621212125, "yes": 27, "no": 28, "missing": 27, "children": [
          { "nodeid": 27, "leaf": 0.14197129 },
          { "nodeid": 28, "leaf": 0.0358048938 }
        ]},
        { "nodeid": 14, "depth": 3, "split": 7, "split_condition": 0.550469518, "yes": 29, "no": 30, "missing": 29, "children": [
          { "nodeid": 29, "leaf": 0.0780597478 },
          { "nodeid": 30, "leaf": -0.096502699 }
        ]}
      ]}
    ]}
  ]},
  { "nodeid": 0, "depth": 0, "split": 1, "split_condition": 0.795454562, "yes": 1, "no": 2, "missing": 1, "children": [
    { "nodeid": 1, "depth": 1, "split": 0, "split_condition": 0.717077136, "yes": 3, "no": 4, "missing": 4, "children": [
      { "nodeid": 3, "depth": 2, "split": 3, "split_condition": 0.307985008, "yes": 7, "no": 8, "missing": 7, "children": [
        { "nodeid": 7, "depth": 3, "split": 1, "split_condition": 0.310606062, "yes": 15, "no": 16, "missing": 16, "children": [
          { "nodeid": 15, "leaf": 0.116228759 },
          { "nodeid": 16, "leaf": -0.0134006934 }
        ]},
        { "nodeid": 8, "depth": 3, "split": 5, "split_condition": 0.245661259, "yes": 17, "no": 18, "missing": 17, "children": [
          { "nodeid": 17, "leaf": 0.0260238685 },
          { "nodeid": 18, "leaf": 0.125603169 }
        ]}
      ]},
      { "nodeid": 4, "depth": 2, "split": 1, "split_condition": 0.606060624, "yes": 9, "no": 10, "missing": 9, "children": [
        { "nodeid": 9, "depth": 3, "split": 5, "split_condition": 0.246936649, "yes": 19, "no": 20, "missing": 19, "children": [
          { "nodeid": 19, "leaf": -0.0535488911 },
          { "nodeid": 20, "leaf": 0.0350385346 }
        ]},
        { "nodeid": 10, "depth": 3, "split": 4, "split_condition": 0.306411803, "yes": 21, "no": 22, "missing": 22, "children": [
          { "nodeid": 21, "leaf": 0.0267540012 },
          { "nodeid": 22, "leaf": -0.166900009 }
        ]}
      ]}
    ]},
    { "nodeid": 2, "depth": 1, "split": 0, "split_condition": 0.56076014, "yes": 5, "no": 6, "missing": 5, "children": [
      { "nodeid": 5, "depth": 2, "split": 6, "split_condition": 0.0994424149, "yes": 11, "no": 12, "missing": 11, "children": [
        { "nodeid": 11, "depth": 3, "split": 3, "split_condition": 0.103097275, "yes": 23, "no": 24, "missing": 23, "children": [
          { "nodeid": 23, "leaf": -0.261753917 },
          { "nodeid": 24, "leaf": 0.127017409 }
        ]},
        { "nodeid": 12, "depth": 3, "split": 1, "split_condition": 0.878787875, "yes": 25, "no": 26, "missing": 26, "children": [
          { "nodeid": 25, "leaf": 0.118082695 },
          { "nodeid": 26, "leaf": -0.113823108 }
        ]}
      ]},
      { "nodeid": 6, "depth": 2, "split": 2, "split_condition": 0.332594156, "yes": 13, "no": 14, "missing": 14, "children": [
        { "nodeid": 13, "depth": 3, "split": 5, "split_condition": 0.332594156, "yes": 27, "no": 28, "missing": 28, "children": [
          { "nodeid": 27, "leaf": -0.237517193 },
          { "nodeid": 28, "leaf": -0.0370919816 }
        ]},
        { "nodeid": 14, "depth": 3, "split": 1, "split_condition": 0.810606062, "yes": 29, "no": 30, "missing": 30, "children": [
          { "nodeid": 29, "leaf": -0.011003877 },
          { "nodeid": 30, "leaf": -0.212058187 }
        ]}
      ]}
    ]}
  ]},
  { "nodeid": 0, "depth": 0, "split": 0, "split_condition": 0.833779454, "yes": 1, "no": 2, "missing": 1, "children": [
    { "nodeid": 1, "depth": 1, "split": 2, "split_condition": 0.422022969, "yes": 3, "no": 4, "missing": 3, "children": [
      { "nodeid": 3, "depth": 2, "split": 5, "split_condition": 0.422022969, "yes": 7, "no": 8, "missing": 7, "children": [
        { "nodeid": 7, "depth": 3, "split": 0, "split_condition": 0.582173467, "yes": 15, "no": 16, "missing": 15, "children": [
          { "nodeid": 15, "leaf": 0.0758663043 },
          { "nodeid": 16, "leaf": -0.0224986654 }
        ]},
        { "nodeid": 8, "depth": 3, "split": 0, "split_condition": 0.744379044, "yes": 17, "no": 18, "missing": 18, "children": [
          { "nodeid": 17, "leaf": 0.247742161 },
          { "nodeid": 18, "leaf": 0.0722529292 }
        ]}
      ]},
      { "nodeid": 4, "depth": 2, "split": 1, "split_condition": 0.621212125, "yes": 9, "no": 10, "missing": 9, "children": [
        { "nodeid": 9, "depth": 3, "split": 5, "split_condition": 0.413305342, "yes": 19, "no": 20, "missing": 20, "children": [
          { "nodeid": 19, "leaf": 0.210802555 },
          { "nodeid": 20, "leaf": -0.0168030541 }
        ]},
        { "nodeid": 10, "depth": 3, "split": 0, "split_condition": 0.763115644, "yes": 21, "no": 22, "missing": 22, "children": [
          { "nodeid": 21, "leaf": 0.118705206 },
          { "nodeid": 22, "leaf": -0.136057839 }
        ]}
      ]}
    ]},
    { "nodeid": 2, "depth": 1, "split": 1, "split_condition": 0.0833333358, "yes": 5, "no": 6, "missing": 5, "children": [
      { "nodeid": 5, "depth": 2, "split": 0, "split_condition": 0.886241972, "yes": 11, "no": 12, "missing": 12, "children": [
        { "nodeid": 11, "depth": 3, "split": 2, "split_condition": 0.852087736, "yes": 23, "no": 24, "missing": 23, "children": [
          { "nodeid": 23, "leaf": 0.0680502877 },
          { "nodeid": 24, "leaf": 0.292368025 }
        ]},
        { "nodeid": 12, "depth": 3, "split": 2, "split_condition": 0.362426043, "yes": 25, "no": 26, "missing": 25, "children": [
          { "nodeid": 25, "leaf": -0.203680515 },
          { "nodeid": 26, "leaf": -0.012877482 }
        ]}
      ]},
      { "nodeid": 6, "depth": 2, "split": 6, "split_condition": 0.792447448, "yes": 13, "no": 14, "missing": 14, "children": [
        { "nodeid": 13, "depth": 3, "split": 2, "split_condition": 0.535907745, "yes": 27, "no": 28, "missing": 27, "children": [
          { "nodeid": 27, "leaf": -0.174981698 },
          { "nodeid": 28, "leaf": -0.0401433259 }
        ]},
        { "nodeid": 14, "depth": 3, "split": 3, "split_condition": 0.299616456, "yes": 29, "no": 30, "missing": 30, "children": [
          { "nodeid": 29, "leaf": -0.210088879 },
          { "nodeid": 30, "leaf": 0.141348198 }
        ]}
      ]}
    ]}
  ]},
  { "nodeid": 0, "depth": 0, "split": 6, "split_condition": 0.228206828, "yes": 1, "no": 2, "missing": 1, "children": [
    { "nodeid": 1, "depth": 1, "split": 3, "split_condition": 0.228206828, "yes": 3, "no": 4, "missing": 3, "children": [
      { "nodeid": 3, "depth": 2, "split": 0, "split_condition": 0.703158498, "yes": 7, "no": 8, "missing": 7, "children": [
        { "nodeid": 7, "depth": 3, "split": 1, "split_condition": 0.204545453, "yes": 15, "no": 16, "missing": 16, "children": [
          { "nodeid": 15, "leaf": 0.142872423 },
          { "nodeid": 16, "leaf": -0.154652417 }
        ]},
        { "nodeid": 8, "depth": 3, "split": 5, "split_condition": 0.368348002, "yes": 17, "no": 18, "missing": 18, "children": [
          { "nodeid": 17, "leaf": -0.351804882 },
          { "nodeid": 18, "leaf": -0.158602446 }
        ]}
      ]},
      { "nodeid": 4, "depth": 2, "split": 0, "split_condition": 0.599839389, "yes": 9, "no": 10, "missing": 10, "children": [
        { "nodeid": 9, "depth": 3, "split": 5, "split_condition": 0.19441396, "yes": 19, "no": 20, "missing": 20, "children": [
          { "nodeid": 19, "leaf": 0.0421820544 },
          { "nodeid": 20, "leaf": 0.217742711 }
        ]},
        { "nodeid": 10, "depth": 3, "split": 5, "split_condition": 0.173020005, "yes": 21, "no": 22, "missing": 22, "children": [
          { "nodeid": 21, "leaf": -0.229077175 },
          { "nodeid": 22, "leaf": -0.0397679396 }
        ]}
      ]}
    ]},
    { "nodeid": 2, "depth": 1, "split": 3, "split_condition": 0.375627816, "yes": 5, "no": 6, "missing": 5, "children": [
      { "nodeid": 5, "depth": 2, "split": 2, "split_condition": 0.143691286, "yes": 11, "no": 12, "missing": 11, "children": [
        { "nodeid": 11, "depth": 3, "split": 0, "split_condition": 0.745985031, "yes": 23, "no": 24, "missing": 24, "children": [
          { "nodeid": 23, "leaf": -0.0395113081 },
          { "nodeid": 24, "leaf": -0.185319841 }
        ]},
        { "nodeid": 12, "depth": 3, "split": 6, "split_condition": 0.381928235, "yes": 25, "no": 26, "missing": 26, "children": [
          { "nodeid": 25, "leaf": -0.0301795844 },
          { "nodeid": 26, "leaf": 0.0408184938 }
        ]}
      ]},
      { "nodeid": 6, "depth": 2, "split": 0, "split_condition": 0.862687349, "yes": 13, "no": 14, "missing": 14, "children": [
        { "nodeid": 13, "depth": 3, "split": 1, "split_condition": 0.204545468, "yes": 27, "no": 28, "missing": 27, "children": [
          { "nodeid": 27, "leaf": 0.0936966836 },
          { "nodeid": 28, "leaf": 0.00764288474 }
        ]},
        { "nodeid": 14, "depth": 3, "split": 2, "split_condition": 0.942086697, "yes": 29, "no": 30, "missing": 30, "children": [
          { "nodeid": 29, "leaf": -0.0525224693 },
          { "nodeid": 30, "leaf": 0.228101239 }
        ]}
      ]}
    ]}
  ]},
  { "nodeid": 0, "depth": 0, "split": 0, "split_condition": 0.783458233, "yes": 1, "no": 2, "missing": 1, "children": [
    { "nodeid": 1, "depth": 1, "split": 1, "split_condition": 0.780303001, "yes": 3, "no": 4, "missing": 4, "children": [
      { "nodeid": 3, "depth": 2, "split": 5, "split_condition": 0.308599889, "yes": 7, "no": 8, "missing": 7, "children": [
        { "nodeid": 7, "depth": 3, "split": 2, "split_condition": 0.308599889, "yes": 15, "no": 16, "missing": 15, "children": [
          { "nodeid": 15, "leaf": -0.00958506297 },
          { "nodeid": 16, "leaf": 0.0771811828 }
        ]},
        { "nodeid": 8, "depth": 3, "split": 3, "split_condition": 0.202510893, "yes": 17, "no": 18, "missing": 17, "children": [
          { "nodeid": 17, "leaf": -0.0195277762 },
          { "nodeid": 18, "leaf": 0.0973731503 }
        ]}
      ]},
      { "nodeid": 4, "depth": 2, "split": 0, "split_condition": 0.660331905, "yes": 9, "no": 10, "missing": 9, "children": [
        { "nodeid": 9, "depth": 3, "split": 4, "split_condition": 0.565535724, "yes": 19, "no": 20, "missing": 20, "children": [
          { "nodeid": 19, "leaf": 0.134726331 },
          { "nodeid": 20, "leaf": -0.0163163915 }
        ]},
        { "nodeid": 10, "depth": 3, "split": 5, "split_condition": 0.353894413, "yes": 21, "no": 22, "missing": 22, "children": [
          { "nodeid": 21, "leaf": -0.162478775 },
          { "nodeid": 22, "leaf": -0.0254907049 }
        ]}
      ]}
    ]},
    { "nodeid": 2, "depth": 1, "split": 6, "split_condition": 0.430489004, "yes": 5, "no": 6, "missing": 6, "children": [
      { "nodeid": 5, "depth": 2, "split": 2, "split_condition": 0.604076445, "yes": 11, "no": 12, "missing": 11, "children": [
        { "nodeid": 11, "depth": 3, "split": 5, "split_condition": 0.720545471, "yes": 23, "no": 24, "missing": 24, "children": [
          { "nodeid": 23, "leaf": -0.138425514 },
          { "nodeid": 24, "leaf": 0.138886362 }
        ]},
        { "nodeid": 12, "depth": 3, "split": 0, "split_condition": 0.865364015, "yes": 25, "no": 26, "missing": 26, "children": [
          { "nodeid": 25, "leaf": 0.142545164 },
          { "nodeid": 26, "leaf": -0.0802683532 }
        ]}
      ]},
      { "nodeid": 6, "depth": 2, "split": 2, "split_condition": 0.246936649, "yes": 13, "no": 14, "missing": 13, "children": [
        { "nodeid": 13, "depth": 3, "split": 0, "split_condition": 0.847162724, "yes": 27, "no": 28, "missing": 28, "children": [
          { "nodeid": 27, "leaf": -0.0238962751 },
          { "nodeid": 28, "leaf": -0.169603765 }
        ]},
        { "nodeid": 14, "depth": 3, "split": 1, "split_condition": 0.25, "yes": 29, "no": 30, "missing": 29, "children": [
          { "nodeid": 29, "leaf": 0.0793160126 },
          { "nodeid": 30, "leaf": -0.15958643 }
        ]}
      ]}
    ]}
  ]},
  { "nodeid": 0, "depth": 0, "split": 0, "split_condition": 0.75347966, "yes": 1, "no": 2, "missing": 1, "children": [
    { "nodeid": 1, "depth": 1, "split": 1, "split_condition": 0.204545468, "yes": 3, "no": 4, "missing": 4, "children": [
      { "nodeid": 3, "depth": 2, "split": 5, "split_condition": 0.149401784, "yes": 7, "no": 8, "missing": 7, "children": [
        { "nodeid": 7, "depth": 3, "split": 2, "split_condition": 0.149401784, "yes": 15, "no": 16, "missing": 15, "children": [
          { "nodeid": 15, "leaf": -0.189041451 },
          { "nodeid": 16, "leaf": 0.0832755938 }
        ]},
        { "nodeid": 8, "depth": 3, "split": 3, "split_condition": 0.157318652, "yes": 17, "no": 18, "missing": 18, "children": [
          { "nodeid": 17, "leaf": -0.00891664531 },
          { "nodeid": 18, "leaf": 0.107372783 }
        ]}
      ]},
      { "nodeid": 4, "depth": 2, "split": 0, "split_condition": 0.674250543, "yes": 9, "no": 10, "missing": 9, "children": [
        { "nodeid": 9, "depth": 3, "split": 1, "split_condition": 0.795454562, "yes": 19, "no": 20, "missing": 20, "children": [
          { "nodeid": 19, "leaf": 0.0618018471 },
          { "nodeid": 20, "leaf": -0.0294910949 }
        ]},
        { "nodeid": 10, "depth": 3, "split": 3, "split_condition": 0.323500156, "yes": 21, "no": 22, "missing": 21, "children": [
          { "nodeid": 21, "leaf": -0.159906149 },
          { "nodeid": 22, "leaf": -0.00434675394 }
        ]}
      ]}
    ]},
    { "nodeid": 2, "depth": 1, "split": 1, "split_condition": 0.606060624, "yes": 5, "no": 6, "missing": 5, "children": [
      { "nodeid": 5, "depth": 2, "split": 4, "split_condition": 0.692855656, "yes": 11, "no": 12, "missing": 11, "children": [
        { "nodeid": 11, "depth": 3, "split": 0, "split_condition": 0.824678779, "yes": 23, "no": 24, "missing": 24, "children": [
          { "nodeid": 23, "leaf": 0.071035102 },
          { "nodeid": 24, "leaf": -0.0295754112 }
        ]},
        { "nodeid": 12, "depth": 3, "split": 7, "split_condition": 0.676926732, "yes": 25, "no": 26, "missing": 25, "children": [
          { "nodeid": 25, "leaf": -0.0408778489 },
          { "nodeid": 26, "leaf": -0.167864144 }
        ]}
      ]},
      { "nodeid": 6, "depth": 2, "split": 4, "split_condition": 0.306411803, "yes": 13, "no": 14, "missing": 14, "children": [
        { "nodeid": 13, "depth": 3, "split": 0, "split_condition": 0.786134899, "yes": 27, "no": 28, "missing": 28, "children": [
          { "nodeid": 27, "leaf": 0.0960260406 },
          { "nodeid": 28, "leaf": -0.176221713 }
        ]},
        { "nodeid": 14, "depth": 3, "split": 5, "split_condition": 0.520164073, "yes": 29, "no": 30, "missing": 30, "children": [
          { "nodeid": 29, "leaf": -0.201890469 },
          { "nodeid": 30, "leaf": -0.0529254973 }
        ]}
      ]}
    ]}
  ]},
  { "nodeid": 0, "depth": 0, "split": 5, "split_condition": 0.186690658, "yes": 1, "no": 2, "missing": 1, "children": [
    { "nodeid": 1, "depth": 1, "split": 0, "split_condition": 0.768468976, "yes": 3, "no": 4, "missing": 3, "children": [
      { "nodeid": 3, "depth": 2, "split": 2, "split_condition": 0.186690658, "yes": 7, "no": 8, "missing": 7, "children": [
        { "nodeid": 7, "depth": 3, "split": 0, "split_condition": 0.725107074, "yes": 15, "no": 16, "missing": 15, "children": [
          { "nodeid": 15, "leaf": -0.045454625 },
          { "nodeid": 16, "leaf": -0.162885904 }
        ]},
        { "nodeid": 8, "depth": 3, "split": 1, "split_condition": 0.606060624, "yes": 17, "no": 18, "missing": 18, "children": [
          { "nodeid": 17, "leaf": 0.0776368901 },
          { "nodeid": 18, "leaf": -0.123088658 }
        ]}
      ]},
      { "nodeid": 4, "depth": 2, "split": 4, "split_condition": 0.53316927, "yes": 9, "no": 10, "missing": 9, "children": [
        { "nodeid": 9, "depth": 3, "split": 0, "split_condition": 0.862687349, "yes": 19, "no": 20, "missing": 20, "children": [
          { "nodeid": 19, "leaf": 0.0088170711 },
          { "nodeid": 20, "leaf": -0.180005372 }
        ]},
        { "nodeid": 10, "depth": 3, "split": 6, "split_condition": 0.487232804, "yes": 21, "no": 22, "missing": 22, "children": [
          { "nodeid": 21, "leaf": -0.206077173 },
          { "nodeid": 22, "leaf": -0.0355000012 }
        ]}
      ]}
    ]},
    { "nodeid": 2, "depth": 1, "split": 3, "split_condition": 0.713684976, "yes": 5, "no": 6, "missing": 5, "children": [
      { "nodeid": 5, "depth": 2, "split": 0, "split_condition": 0.816648841, "yes": 11, "no": 12, "missing": 12, "children": [
        { "nodeid": 11, "depth": 3, "split": 1, "split_condition": 0.204545468, "yes": 23, "no": 24, "missing": 23, "children": [
          { "nodeid": 23, "leaf": 0.0577123463 },
          { "nodeid": 24, "leaf": -0.0168868061 }
        ]},
        { "nodeid": 12, "depth": 3, "split": 5, "split_condition": 0.459794968, "yes": 25, "no": 26, "missing": 26, "children": [
          { "nodeid": 25, "leaf": -0.121064186 },
          { "nodeid": 26, "leaf": 0.00458330335 }
        ]}
      ]},
      { "nodeid": 6, "depth": 2, "split": 0, "split_condition": 0.743308306, "yes": 13, "no": 14, "missing": 14, "children": [
        { "nodeid": 13, "depth": 3, "split": 3, "split_condition": 0.851700902, "yes": 27, "no": 28, "missing": 28, "children": [
          { "nodeid": 27, "leaf": 0.171900615 },
          { "nodeid": 28, "leaf": 0.410398453 }
        ]},
        { "nodeid": 14, "depth": 3, "split": 1, "split_condition": 0.734848499, "yes": 29, "no": 30, "missing": 29, "children": [
          { "nodeid": 29, "leaf": 0.0943122581 },
          { "nodeid": 30, "leaf": -0.0611185431 }
        ]}
      ]}
    ]}
  ]},
  { "nodeid": 0, "depth": 0, "split": 6, "split_condition": 0.255148798, "yes": 1, "no": 2, "missing": 1, "children": [
    { "nodeid": 1, "depth": 1, "split": 0, "split_condition": 0.758832932, "yes": 3, "no": 4, "missing": 3, "children": [
      { "nodeid": 3, "depth": 2, "split": 1, "split_condition": 0.310606062, "yes": 7, "no": 8, "missing": 8, "children": [
        { "nodeid": 7, "depth": 3, "split": 3, "split_condition": 0.256674707, "yes": 15, "no": 16, "missing": 16, "children": [
          { "nodeid": 15, "leaf": -0.0565490238 },
          { "nodeid": 16, "leaf": 0.108687602 }
        ]},
        { "nodeid": 8, "depth": 3, "split": 0, "split_condition": 0.63784796, "yes": 17, "no": 18, "missing": 17, "children": [
          { "nodeid": 17, "leaf": -0.00124552601 },
          { "nodeid": 18, "leaf": -0.153393909 }
        ]}
      ]},
      { "nodeid": 4, "depth": 2, "split": 2, "split_condition": 0.535907745, "yes": 9, "no": 10, "missing": 9, "children": [
        { "nodeid": 9, "depth": 3, "split": 5, "split_condition": 0.292706311, "yes": 19, "no": 20, "missing": 20, "children": [
          { "nodeid": 19, "leaf": -0.188903436 },
          { "nodeid": 20, "leaf": -0.0721687898 }
        ]},
        { "nodeid": 10, "depth": 3, "split": 0, "split_condition": 0.837526798, "yes": 21, "no": 22, "missing": 22, "children": [
          { "nodeid": 21, "leaf": 0.182361871 },
          { "nodeid": 22, "leaf": -0.133037895 }
        ]}
      ]}
    ]},
    { "nodeid": 2, "depth": 1, "split": 2, "split_condition": 0.281154156, "yes": 5, "no": 6, "missing": 5, "children": [
      { "nodeid": 5, "depth": 2, "split": 0, "split_condition": 0.773822308, "yes": 11, "no": 12, "missing": 12, "children": [
        { "nodeid": 11, "depth": 3, "split": 1, "split_condition": 0.765151501, "yes": 23, "no": 24, "missing": 24, "children": [
          { "nodeid": 23, "leaf": 0.036605306 },
          { "nodeid": 24, "leaf": -0.0656996071 }
        ]},
        { "nodeid": 12, "depth": 3, "split": 5, "split_condition": 0.650781512, "yes": 25, "no": 26, "missing": 26, "children": [
          { "nodeid": 25, "leaf": -0.0927728042 },
          { "nodeid": 26, "leaf": 0.0429214351 }
        ]}
      ]},
      { "nodeid": 6, "depth": 2, "split": 0, "split_condition": 0.937098503, "yes": 13, "no": 14, "missing": 14, "children": [
        { "nodeid": 13, "depth": 3, "split": 1, "split_condition": 0.128787875, "yes": 27, "no": 28, "missing": 27, "children": [
          { "nodeid": 27, "leaf": 0.0970912501 },
          { "nodeid": 28, "leaf": 0.0170832258 }
        ]},
        { "nodeid": 14, "depth": 3, "split": 2, "split_condition": 0.942086697, "yes": 29, "no": 30, "missing": 30, "children": [
          { "nodeid": 29, "leaf": -0.181247994 },
          { "nodeid": 30, "leaf": -0.00175300834 }
        ]}
      ]}
    ]}
  ]},
  { "nodeid": 0, "depth": 0, "split": 0, "split_condition": 0.705299795, "yes": 1, "no": 2, "missing": 1, "children": [
    { "nodeid": 1, "depth": 1, "split": 1, "split_condition": 0.795454562, "yes": 3, "no": 4, "missing": 4, "children": [
      { "nodeid": 3, "depth": 2, "split": 3, "split_condition": 0.307985008, "yes": 7, "no": 8, "missing": 7, "children": [
        { "nodeid": 7, "depth": 3, "split": 1, "split_condition": 0.719696999, "yes": 15, "no": 16, "missing": 16, "children": [
          { "nodeid": 15, "leaf": 0.122249499 },
          { "nodeid": 16, "leaf": -0.00378370401 }
        ]},
        { "nodeid": 8, "depth": 3, "split": 5, "split_condition": 0.219714403, "yes": 17, "no": 18, "missing": 17, "children": [
          { "nodeid": 17, "leaf": -0.0187262148 },
          { "nodeid": 18, "leaf": 0.0970861912 }
        ]}
      ]},
      { "nodeid": 4, "depth": 2, "split": 0, "split_condition": 0.542558908, "yes": 9, "no": 10, "missing": 9, "children": [
        { "nodeid": 9, "depth": 3, "split": 1, "split_condition": 0.840909123, "yes": 19, "no": 20, "missing": 20, "children": [
          { "nodeid": 19, "leaf": 0.13490133 },
          { "nodeid": 20, "leaf": -0.0176733732 }
        ]},
        { "nodeid": 10, "depth": 3, "split": 4, "split_condition": 0.469766319, "yes": 21, "no": 22, "missing": 22, "children": [
          { "nodeid": 21, "leaf": 0.236277267 },
          { "nodeid": 22, "leaf": -0.0639016181 }
        ]}
      ]}
    ]},
    { "nodeid": 2, "depth": 1, "split": 1, "split_condition": 0.204545468, "yes": 5, "no": 6, "missing": 5, "children": [
      { "nodeid": 5, "depth": 2, "split": 7, "split_condition": 0.739916325, "yes": 11, "no": 12, "missing": 11, "children": [
        { "nodeid": 11, "depth": 3, "split": 0, "split_condition": 0.871788025, "yes": 23, "no": 24, "missing": 24, "children": [
          { "nodeid": 23, "leaf": 0.0430982374 },
          { "nodeid": 24, "leaf": -0.0612975769 }
        ]},
        { "nodeid": 12, "depth": 3, "split": 5, "split_condition": 0.237984791, "yes": 25, "no": 26, "missing": 25, "children": [
          { "nodeid": 25, "leaf": -0.115253411 },
          { "nodeid": 26, "leaf": 0.00477766665 }
        ]}
      ]},
      { "nodeid": 6, "depth": 2, "split": 2, "split_condition": 0.426773906, "yes": 13, "no": 14, "missing": 14, "children": [
        { "nodeid": 13, "depth": 3, "split": 5, "split_condition": 0.350111067, "yes": 27, "no": 28, "missing": 28, "children": [
          { "nodeid": 27, "leaf": -0.169562086 },
          { "nodeid": 28, "leaf": -0.068552874 }
        ]},
        { "nodeid": 14, "depth": 3, "split": 0, "split_condition": 0.79148823, "yes": 29, "no": 30, "missing": 30, "children": [
          { "nodeid": 29, "leaf": 0.0733132958 },
          { "nodeid": 30, "leaf": -0.119802289 }
        ]}
      ]}
    ]}
  ]},
  { "nodeid": 0, "depth": 0, "split": 4, "split_condition": 0.809852242, "yes": 1, "no": 2, "missing": 1, "children": [
    { "nodeid": 1, "depth": 1, "split": 6, "split_condition": 0.394740224, "yes": 3, "no": 4, "missing": 4, "children": [
      { "nodeid": 3, "depth": 2, "split": 0, "split_condition": 0.653372586, "yes": 7, "no": 8, "missing": 8, "children": [
        { "nodeid": 7, "depth": 3, "split": 3, "split_condition": 0.394740224, "yes": 15, "no": 16, "missing": 16, "children": [
          { "nodeid": 15, "leaf": 0.01581279 },
          { "nodeid": 16, "leaf": 0.159160063 }
        ]},
        { "nodeid": 8, "depth": 3, "split": 1, "split_condition": 0.734848499, "yes": 17, "no": 18, "missing": 17, "children": [
          { "nodeid": 17, "leaf": -0.00649980223 },
          { "nodeid": 18, "leaf": -0.0997320116 }
        ]}
      ]},
